,0,1,2,3,4,5,6,7,8,9,10,11,12,13,14,15,16,17,18,19,20,21,22,23,24,25,26,27,28,29,30,31,32,33,34,35,36,37,38,39,40,41,42,43,44,45,46,47,48,49,50,51,52,53,54,55,56,57,58,59,60,61,62,63,64,65,66,67,68,69,70,71,72,73,74,75,76,77,78,79,80,81,82,83,84,85,86,87,88,89,90,91,92,93,94,95,96,97,98,99,100,101,102,103,104,105,106,107,108,109,110,111,112,113,114,115,116,117,118,119,120,121,122,123,124,125,126,127,128,129,130,131,132,133,134,135,136,137,138,139,140,141,142,143,144,145,146,147,148,149,150,151,152,153,154,155,156,157,158,159,160,161,162,163,164,165,166,167,168,169,170,171,172,173,174,175,176,177,178,179,180,181,182,183,184,185,186,187,188,189,190,191,192,193,194,195,196,197,198,199,200,201,202,203,204,205,206,207,208,209,210,211,212,213,214,215,216,217,218,219,220,221,222,223,224,225,226,227,228,229,230,231,232,233,234,235,236,237,238,239,240,241,242,243,244,245,246,247,248,249,250,251,252,253,254,255,256,257,258,259,260,261,262,263,264,265,266,267,268,269,270,271,272,273,274,275,276,277,278,279,280,281,282,283,284,285,286,287,288,289,290,291,292,293,294,295,296,297,298,299,300,301,302,303,304,305,306,307,308,309,310,311,312,313,314,315,316,317,318,319,320,321,322,323,324,325,326,327,328,329,330,331,332,333,334,335,336,337,338,339,340,341,342,343,344,345,346,347,348,349,350,351,352,353,354,355,356,357,358,359,360,361,362,363,364,365,366,367,368,369,370,371,372,373,374,375,376,377,378,379,380,381,382,383,384,385,386,387,388,389,390,391,392,393,394,395,396,397,398,399,400,401,402,403,404,405,406,407,408,409,410,411,412,413,414,415,416,417,418,419,420,421,422,423,424,425,426,427,428,429,430,431,432,433,434,435,436,437,438,439,440,441,442,443,444,445,446,447,448,449,450,451,452,453,454,455,456,457,458,459,460,461,462,463,464,465,466,467,468,469,470,471,472,473,474,475,476,477,478,479,480,481,482,483,484,485,486,487,488,489,490,491,492,493,494,495,496,497,498,499,500,501,502,503,504,505,506,507,508,509,510,511,512,513,514,515,516,517,518,519,520,521,522,523,524,525,526,527,528,529,530,531,532,533,534,535,536,537,538,539,540,541,542,543,544,545,546,547,548,549,550,551,552,553,554,555,556,557,558,559,560,561,562,563,564,565,566,567,568,569,570,571,572,573,574,575,576,577,578,579,580,581,582,583,584,585,586,587,588,589,590,591,592,593,594,595,596,597,598,599,600,601,602,603,604,605,606,607,608,609,610,611,612,613,614,615,616,617,618,619,620,621,622,623,624,625,626,627,628,629,630,631,632,633,634,635,636,637,638,639,640,641,642,643,644,645,646,647,648,649,650,651,652,653,654,655,656,657,658,659,660,661,662,663,664,665,666,667,668,669,670,671,672,673,674,675,676,677,678,679,680,681,682,683,684,685,686,687,688,689,690,691,692,693,694,695,696,697,698,699,700,701,702,703,704,705,706,707,708,709,710,711,712,713,714,715,716,717,718,719,720,721,722,723,724,725,726,727,728,729,730,731,732,733,734,735,736,737,738,739,740,741,742,743,744,745,746,747,748,749,750,751,752,753,754,755,756,757,758,759,760,761,762,763,764,765,766,767,768,769,770,771,772,773,774,775,776,777,778,779,780,781,782,783,784,785,786,787,788,789,790,791,792,793,794,795,796,797,798,799,800,801,802,803,804,805,806,807,808,809,810,811,812,813,814,815,816,817,818,819,820,821,822,823,824,825,826,827,828,829,830,831,832,833,834,835,836,837,838,839,840,841,842,843,844,845,846,847,848,849,850,851,852,853,854,855,856,857,858,859,860,861,862,863,864,865,866,867,868,869,870,871,872,873,874,875,876,877,878,879,880,881,882,883,884,885,886,887,888,889,890,891,892,893,894,895,896,897,898,899,900,901,902,903,904,905,906,907,908,909,910,911,912,913,914,915,916,917,918,919,920,921,922,923,924,925,926,927,928,929,930,931,932,933,934,935,936,937,938,939,940,941,942,943,944,945,946,947,948,949,950,951,952,953,954,955,956,957,958,959,960,961,962,963,964,965,966,967,968,969,970,971,972,973,974,975,976,977,978,979,980,981,982,983,984,985,986,987,988,989,990,991,992,993,994,995,996,997,998,999,1000,1001,1002,1003,1004,1005,1006,1007,1008,1009,1010,1011,1012,1013,1014,1015,1016,1017,1018,1019,1020,1021,1022,1023,1024,1025,1026,1027,1028,1029,1030,1031,1032,1033,1034,1035,1036,1037,1038,1039,1040,1041,1042,1043,1044,1045,1046,1047,1048,1049,1050,1051,1052,1053,1054,1055,1056,1057,1058,1059,1060,1061,1062,1063,1064,1065,1066,1067,1068,1069,1070,1071,1072,1073,1074,1075,1076,1077,1078,1079,1080,1081,1082,1083,1084,1085,1086,1087,1088,1089,1090,1091,1092,1093,1094,1095,1096,1097,1098,1099,1100,1101,1102,1103,1104,1105,1106,1107,1108,1109,1110,1111,1112,1113,1114,1115,1116,1117,1118,1119,1120,1121,1122,1123,1124,1125,1126,1127,1128,1129,1130,1131,1132,1133,1134,1135,1136,1137,1138,1139,1140,1141,1142,1143,1144,1145,1146,1147,1148,1149,1150,1151,1152,1153,1154,1155,1156,1157,1158,1159,1160,1161,1162,1163,1164,1165,1166,1167,1168,1169,1170,1171,1172,1173,1174,1175,1176,1177,1178,1179,1180,1181,1182,1183,1184,1185,1186,1187,1188,1189,1190,1191,1192,1193,1194,1195,1196,1197,1198,1199,1200,1201,1202,1203,1204,1205,1206,1207,1208,1209,1210,1211,1212,1213,1214,1215,1216,1217,1218,1219,1220,1221,1222,1223,1224,1225,1226,1227,1228,1229,1230,1231,1232,1233,1234,1235,1236,1237,1238,1239,1240,1241,1242,1243,1244,1245,1246,1247,1248,1249,1250,1251,1252,1253,1254,1255,1256,1257,1258,1259,1260,1261,1262,1263,1264,1265,1266,1267,1268,1269,1270,1271,1272,1273,1274,1275,1276,1277,1278,1279,1280,1281,1282,1283,1284,1285,1286,1287,1288,1289,1290,1291,1292,1293,1294,1295,1296,1297,1298,1299,1300,1301,1302,1303,1304,1305,1306,1307,1308,1309,1310,1311,1312,1313,1314,1315,1316,1317,1318,1319,1320,1321,1322,1323,1324,1325,1326,1327,1328,1329,1330,1331,1332,1333,1334,1335,1336,1337,1338,1339,1340,1341,1342,1343,1344,1345,1346,1347,1348,1349,1350,1351,1352,1353,1354,1355,1356,1357,1358,1359,1360,1361,1362,1363,1364,1365,1366,1367,1368,1369,1370,1371,1372,1373,1374,1375,1376,1377,1378,1379,1380,1381,1382,1383,1384,1385,1386,1387,1388,1389,1390,1391,1392,1393,1394,1395,1396,1397,1398,1399,1400,1401,1402,1403,1404,1405,1406,1407,1408,1409,1410,1411,1412,1413,1414,1415,1416,1417,1418,1419,1420,1421,1422,1423,1424,1425,1426,1427,1428,1429,1430,1431,1432,1433,1434,1435,1436,1437,1438,1439,1440,1441,1442,1443,1444,1445,1446,1447,1448,1449,1450,1451,1452,1453,1454,1455,1456,1457,1458,1459,1460,1461,1462,1463,1464,1465,1466,1467,1468,1469,1470,1471,1472,1473,1474,1475,1476,1477,1478,1479,1480,1481,1482,1483,1484,1485,1486,1487,1488,1489,1490,1491,1492,1493,1494,1495,1496,1497,1498,1499,1500,1501,1502,1503,1504,1505,1506,1507,1508,1509,1510,1511,1512,1513,1514,1515,1516,1517,1518,1519,1520,1521,1522,1523,1524,1525,1526,1527,1528,1529,1530,1531,1532,1533,1534,1535,1536,1537,1538,1539,1540,1541,1542,1543,1544,1545,1546,1547,1548,1549,1550,1551,1552,1553,1554,1555,1556,1557,1558,1559,1560,1561,1562,1563,1564,1565,1566,1567,1568,1569,1570,1571,1572,1573,1574,1575,1576,1577,1578,1579,1580,1581,1582,1583,1584,1585,1586,1587,1588,1589,1590,1591,1592,1593,1594,1595,1596,1597,1598,1599,1600,1601,1602,1603,1604,1605,1606,1607,1608,1609,1610,1611,1612,1613,1614,1615,1616,1617,1618,1619,1620,1621,1622,1623,1624,1625,1626,1627,1628,1629,1630,1631,1632,1633,1634,1635,1636,1637,1638,1639,1640,1641,1642,1643,1644,1645,1646,1647,1648,1649,1650,1651,1652,1653,1654,1655,1656,1657,1658,1659,1660,1661,1662,1663,1664,1665,1666,1667,1668,1669,1670,1671,1672,1673,1674,1675,1676,1677,1678,1679,1680,1681,1682,1683,1684,1685,1686,1687,1688,1689,1690,1691,1692,1693,1694,1695,1696,1697,1698,1699,1700,1701,1702,1703,1704,1705,1706,1707,1708,1709,1710,1711,1712,1713,1714,1715,1716,1717,1718,1719,1720,1721,1722,1723,1724,1725,1726,1727,1728,1729,1730,1731,1732,1733,1734,1735,1736,1737,1738,1739,1740,1741,1742,1743,1744,1745,1746,1747,1748,1749,1750,1751,1752,1753,1754,1755,1756,1757,1758,1759,1760,1761,1762,1763,1764,1765,1766,1767,1768,1769,1770,1771,1772,1773,1774,1775,1776,1777,1778,1779,1780,1781,1782,1783,1784,1785,1786,1787,1788,1789,1790,1791,1792,1793,1794,1795,1796,1797,1798,1799,1800,1801,1802,1803,1804,1805,1806,1807,1808,1809,1810,1811,1812,1813,1814,1815,1816,1817,1818,1819,1820,1821,1822,1823,1824,1825,1826,1827,1828,1829,1830,1831,1832,1833,1834,1835,1836,1837,1838,1839,1840,1841,1842,1843,1844,1845,1846,1847,1848,1849,1850,1851,1852,1853,1854,1855,1856,1857,1858,1859,1860,1861,1862,1863,1864,1865,1866,1867,1868,1869,1870,1871,1872,1873,1874,1875,1876,1877,1878,1879,1880,1881,1882,1883,1884,1885,1886,1887,1888,1889,1890,1891,1892,1893,1894,1895,1896,1897,1898,1899,1900,1901,1902,1903,1904,1905,1906,1907,1908,1909,1910,1911,1912,1913,1914,1915,1916,1917,1918,1919,1920,1921,1922,1923,1924,1925,1926,1927,1928,1929,1930,1931,1932,1933,1934,1935,1936,1937,1938,1939,1940,1941,1942,1943,1944,1945,1946,1947,1948,1949,1950,1951,1952,1953,1954,1955,1956,1957,1958,1959,1960,1961,1962,1963,1964,1965,1966,1967,1968,1969,1970,1971,1972,1973,1974,1975,1976,1977,1978,1979,1980,1981,1982,1983,1984,1985,1986,1987,1988,1989,1990,1991,1992,1993,1994,1995,1996,1997,1998,1999,2000,2001,2002,2003,2004,2005,2006,2007,2008,2009,2010,2011,2012,2013,2014,2015,2016,2017,2018,2019,2020,2021,2022,2023,2024,2025,2026,2027,2028,2029,2030,2031,2032,2033,2034,2035,2036,2037,2038,2039,2040,2041,2042,2043,2044,2045,2046,2047,2048,2049,2050,2051,2052,2053,2054,2055,2056,2057,2058,2059,2060,2061,2062,2063,2064,2065,2066,2067,2068,2069,2070,2071,2072,2073,2074,2075,2076,2077,2078,2079,2080,2081,2082,2083,2084,2085,2086,2087,2088,2089,2090,2091,2092,2093,2094,2095,2096,2097,2098,2099,2100,2101,2102,2103,2104,2105,2106,2107,2108,2109,2110,2111,2112,2113,2114,2115,2116,2117,2118,2119,2120,2121,2122,2123,2124,2125,2126,2127,2128,2129,2130,2131,2132,2133,2134,2135,2136,2137,2138,2139,2140,2141,2142,2143,2144,2145,2146,2147,2148,2149,2150,2151,2152,2153,2154,2155,2156,2157,2158,2159,2160,2161,2162,2163,2164,2165,2166,2167,2168,2169,2170,2171,2172,2173,2174,2175,2176,2177,2178,2179,2180,2181,2182,2183,2184,2185,2186,2187,2188,2189,2190,2191,2192,2193,2194,2195,2196,2197,2198,2199,2200,2201,2202,2203,2204,2205,2206,2207,2208,2209,2210,2211,2212,2213,2214,2215,2216,2217,2218,2219,2220,2221,2222,2223,2224,2225,2226,2227,2228,2229,2230,2231,2232,2233,2234,2235,2236,2237,2238,2239,2240,2241,2242,2243,2244,2245,2246,2247,2248,2249,2250,2251,2252,2253,2254,2255,2256,2257,2258,2259,2260,2261,2262,2263,2264,2265,2266,2267,2268,2269,2270,2271,2272,2273,2274,2275,2276,2277,2278,2279,2280,2281,2282,2283,2284,2285,2286,2287,2288,2289,2290,2291,2292,2293,2294,2295,2296,2297,2298,2299,2300,2301,2302,2303,2304,2305,2306,2307,2308,2309,2310,2311,2312,2313,2314,2315,2316,2317,2318,2319,2320,2321,2322,2323,2324,2325,2326,2327,2328,2329,2330,2331,2332,2333,2334,2335,2336,2337,2338,2339,2340,2341,2342,2343,2344,2345,2346,2347,2348,2349,2350,2351,2352,2353,2354,2355,2356,2357,2358,2359,2360,2361,2362,2363,2364,2365,2366,2367,2368,2369,2370,2371,2372,2373,2374,2375,2376,2377,2378,2379,2380,2381,2382,2383,2384,2385,2386,2387,2388,2389,2390,2391,2392,2393,2394,2395,2396,2397,2398,2399,2400,2401,2402,2403,2404,2405,2406,2407,2408,2409,2410,2411,2412,2413,2414,2415,2416,2417,2418,2419,2420,2421,2422,2423,2424,2425,2426,2427,2428,2429,2430,2431,2432,2433,2434,2435,2436,2437,2438,2439,2440,2441,2442,2443,2444,2445,2446,2447,2448,2449,2450,2451,2452,2453,2454,2455,2456,2457,2458,2459,2460,2461,2462,2463,2464,2465,2466,2467,2468,2469,2470,2471,2472,2473,2474,2475,2476,2477,2478,2479,2480,2481,2482,2483,2484,2485,2486,2487,2488,2489,2490,2491,2492,2493,2494,2495,2496,2497,2498,2499,2500,2501,2502,2503,2504,2505,2506,2507,2508,2509,2510,2511,2512,2513,2514,2515,2516,2517,2518,2519,2520,2521,2522,2523,2524,2525,2526,2527,2528,2529,2530,2531,2532,2533,2534,2535,2536,2537,2538,2539,2540,2541,2542,2543,2544,2545,2546,2547,2548,2549,2550,2551,2552,2553,2554,2555,2556,2557,2558,2559
Q9LCC6,0.005320795811712742,-0.003347085090354085,0.011782163754105568,-0.008639810606837273,0.001796722412109375,0.007237328216433525,-0.0015773777849972248,-0.000385484891012311,-0.0023203492164611816,-0.015208598226308823,-0.003618743270635605,0.0035586515441536903,0.005818359553813934,0.0016041970811784267,-0.0044174157083034515,-1.1578477621078491,0.007197685074061155,0.010288549587130547,0.01756669208407402,-0.024471202865242958,-0.006893642246723175,-0.004371129907667637,-0.008490525186061859,-0.0069321319460868835,0.00408302154392004,0.01307316031306982,0.016259411349892616,-0.03290954977273941,0.003228224813938141,0.012152016162872314,-0.03546940162777901,-0.0028341952711343765,-0.04171956330537796,0.010302025824785233,-0.02426794171333313,0.0015574749559164047,-0.011099898256361485,0.002015113364905119,-0.021523386240005493,-0.015714121982455254,-0.011670824140310287,0.023973286151885986,-0.005030612461268902,-0.012694582343101501,-0.004883644171059132,-0.004603030160069466,-0.013055256567895412,-0.00513764563947916,0.00852670706808567,-0.014499971643090248,0.009064754471182823,-0.01596856117248535,-0.02911205030977726,0.008321084082126617,-0.030567623674869537,0.01838933676481247,0.006392966955900192,0.006794262677431107,0.03223446011543274,0.011316158808767796,-0.002978336066007614,-0.019484009593725204,-0.0026677101850509644,-0.03162567317485809,0.002883385866880417,-0.000974288210272789,0.0452008917927742,-0.009616004303097725,0.016849029809236526,0.006124899722635746,-0.005082836374640465,-0.007424350827932358,-0.012251975014805794,-0.016008958220481873,0.007735193707048893,0.1200982928276062,-0.006031892262399197,0.0081022372469306,0.0076870303601026535,0.30415236949920654,-0.003646360244601965,0.010987620800733566,-1.4273319244384766,0.011719441041350365,0.013818155974149704,0.00887728575617075,0.012475471012294292,0.016365766525268555,0.1794445812702179,-0.008186099119484425,0.01689968630671501,-0.01841813698410988,-0.002372254617512226,-0.013757720589637756,0.013499829918146133,-0.01705632358789444,-0.004125167615711689,0.0007033953443169594,0.00621957890689373,-0.00027396006044000387,0.001330031082034111,-0.008707393892109394,-0.01882471702992916,0.0044206902384757996,-0.01193560753017664,-0.008149569854140282,0.020397130399942398,0.0160754956305027,-0.005502581596374512,-0.008864406496286392,-0.0026153624057769775,-0.004272863268852234,0.008401311002671719,-0.0016283299773931503,0.0040397848933935165,0.014888141304254532,-0.0027521979063749313,-0.015572547912597656,-0.008366260677576065,-0.017558977007865906,-0.013042494654655457,-0.01625628024339676,-0.0016537182964384556,0.014318390749394894,0.007284014951437712,0.013636250048875809,0.004810274578630924,-0.007591405883431435,-0.01288251206278801,0.004951261915266514,0.011353755369782448,-0.02708357386291027,0.012295085936784744,0.005572184920310974,0.005370689556002617,0.012646126560866833,0.0019621546380221844,0.0005215113051235676,-0.008650323376059532,-0.0026836879551410675,-0.012751283124089241,-0.008446084335446358,-0.006733674090355635,0.020622791722416878,0.020465083420276642,0.011040721088647842,0.011466650292277336,0.0048804692924022675,-0.010181535966694355,0.021024189889431,-0.00013479823246598244,0.01131632924079895,-0.0014449488371610641,-0.04702255129814148,0.01980302482843399,-0.0019256484229117632,-0.011558499187231064,-0.013151632621884346,0.020071763545274734,-0.011886010877788067,0.008301621302962303,-0.0020727626979351044,0.006517823785543442,-0.016064027324318886,0.001693954924121499,-0.004732666537165642,0.012776767835021019,0.008906678296625614,0.10034039616584778,0.0016342923045158386,0.008948089554905891,-0.00343216210603714,0.008538801223039627,-0.006547865457832813,-0.013635853305459023,-0.011671552434563637,0.016365259885787964,0.01497814990580082,-0.008787689730525017,0.0023185526952147484,-0.010105673223733902,-0.024321511387825012,-0.009850483387708664,0.01263880543410778,-0.004317032638937235,0.010737195611000061,0.02216239646077156,0.011316640302538872,0.004748605191707611,0.005164886824786663,0.013038629665970802,-0.00897863507270813,-0.005186835303902626,-0.014687612652778625,0.002235991880297661,0.03742068633437157,0.008918475359678268,0.0111737921833992,-0.004451644606888294,0.0022806059569120407,0.005238558631390333,-0.01047838106751442,0.00775869470089674,-0.019099261611700058,-0.016669485718011856,-0.03193460404872894,0.0056823669001460075,-0.004548913799226284,0.0008935597725212574,-0.0049981409683823586,0.014895405620336533,-0.0056562963873147964,0.019613411277532578,-0.0017316564917564392,-0.00808025524020195,-0.007423393428325653,0.010156385600566864,-0.007172910496592522,0.007377845700830221,0.014103070832788944,0.017481353133916855,-0.015528405085206032,0.028351888060569763,0.014985166490077972,0.017319053411483765,0.014186429791152477,-0.015227939933538437,-0.024801678955554962,0.004820697009563446,-0.020754020661115646,-0.011101155541837215,-0.01068204827606678,0.0010995958000421524,-0.009910773485898972,0.02825884521007538,-0.017737874761223793,0.01283641904592514,0.017856311053037643,-0.02918541431427002,0.009492546319961548,-0.0384330153465271,-0.0074146222323179245,-0.0034787412732839584,0.005313762463629246,-0.011705181561410427,0.6754374504089355,0.00809909775853157,-0.0019144946709275246,0.01588599942624569,0.0025252485647797585,-0.0005478262901306152,0.016725953668355942,-0.00011681579053401947,0.011491484940052032,-0.002106819301843643,-0.004564853385090828,0.015454046428203583,0.026328476145863533,0.006356480531394482,0.03211764246225357,-0.009699089452624321,0.029308060184121132,-0.0009487862698733807,0.024952374398708344,0.003606293350458145,0.0024882862344384193,0.0015152953565120697,0.009125713258981705,0.0020839693024754524,0.009639250114560127,0.03770417720079422,-0.008952452801167965,-0.015890149399638176,0.01369478926062584,0.025951772928237915,-0.011954925954341888,-0.011875925585627556,-0.0020084157586097717,0.021317562088370323,-0.001822836697101593,0.012022696435451508,0.020008884370326996,0.0012770257890224457,0.019463153555989265,0.0010650716722011566,0.012296600267291069,-0.006679633632302284,0.006785537116229534,-0.007992137223482132,-0.0013801869936287403,-0.00538258021697402,-0.04231894388794899,0.0029280874878168106,0.004111234098672867,-0.01266610249876976,-0.005084363743662834,-0.002121390774846077,-0.0008691791445016861,-0.004163764417171478,0.010019266977906227,-0.004642230924218893,-0.011483130976557732,0.018421117216348648,-0.014286242425441742,-0.0029924847185611725,0.01699247770011425,-0.005600232630968094,-0.013935345225036144,-0.006703084334731102,-0.009606737643480301,-0.0028541292995214462,0.017601171508431435,0.0018097907304763794,0.009480083361268044,0.0073579903692007065,-0.046396732330322266,-0.006282700691372156,-0.0024769711308181286,-0.005188925191760063,-0.01336369663476944,0.005253115203231573,-0.0006232298910617828,0.008444780483841896,0.004064851440489292,-0.0031443247571587563,-0.006432792171835899,-0.0021121171303093433,0.017668500542640686,0.001838059164583683,0.014305333606898785,0.0005211494863033295,-0.009166866540908813,0.020049262791872025,0.02110307291150093,0.00903862901031971,-0.005495952907949686,-0.0022493749856948853,-0.015712983906269073,-0.0006195623427629471,0.010274957865476608,0.00655951164662838,0.0021427327301353216,-0.007956032641232014,-0.009134279564023018,-0.01653093844652176,-0.005232520401477814,0.003872861620038748,0.01726432889699936,-0.00015139486640691757,0.004551563411951065,-0.0017347726970911026,-1.127558708190918,1.619011163711548e-05,-0.06921768188476562,-0.017331872135400772,0.014161884784698486,-0.004868721589446068,-0.017768550664186478,-0.010162709280848503,-0.0038375630974769592,-0.01601221039891243,-0.019405122846364975,0.013793529011309147,0.0002633053809404373,0.0081837959587574,-0.0125966165214777,-0.01972552202641964,0.015565546229481697,0.0066682882606983185,-0.002254307270050049,-0.012415134347975254,-1.346665859222412,-0.008615030907094479,0.0011746063828468323,0.05105185881257057,-0.020813871175050735,0.004878182429820299,-0.004152756650000811,0.006247594952583313,0.02214599773287773,0.0014150366187095642,0.019595801830291748,0.015700723975896835,-0.005341134965419769,0.0014324821531772614,-0.007416415028274059,0.013536203652620316,0.015222025103867054,-0.01273590698838234,-1.3680858612060547,-0.028573445975780487,0.00787806324660778,-0.005973128601908684,-0.00427231565117836,0.015879955142736435,-0.000984088983386755,0.00861365906894207,-0.006692381110042334,-0.0039976052939891815,0.0019548246636986732,0.014627435244619846,-0.021827498450875282,0.007649580016732216,-0.008442584425210953,0.03096553310751915,-0.005289055407047272,0.0013064723461866379,0.006217865273356438,0.05063023045659065,-0.02340303361415863,0.006567370146512985,0.014283404685556889,0.010739725083112717,-0.0038868729025125504,-0.01090142410248518,-0.003737080842256546,-0.0066443923860788345,0.015128761529922485,0.005909496918320656,-0.004575823433697224,2.9630959033966064e-05,0.010877227410674095,0.009058552794158459,0.006469848565757275,0.003195551224052906,-0.004549825564026833,-0.012324977666139603,0.006044297479093075,-0.009722726419568062,1.1233389377593994,-0.015671730041503906,0.01897948980331421,0.010022589936852455,-0.008992122486233711,0.032088570296764374,-0.008588137105107307,0.0021236389875411987,0.002679627388715744,0.018213510513305664,0.005328233353793621,0.014885470271110535,0.0010031978599727154,-2.2900354862213135,0.052072711288928986,0.004684239625930786,0.01780610904097557,0.008995875716209412,0.0159809198230505,-0.007666153833270073,0.010624697431921959,0.0017637815326452255,0.011264488101005554,-0.014163259416818619,-0.0009512482210993767,-0.01450708881020546,-0.014938045293092728,0.05370842292904854,0.0028484081849455833,-0.010395130142569542,-0.0016065738163888454,0.010091735050082207,-0.006699170917272568,-0.0010865717194974422,0.0031082266941666603,0.016746992245316505,0.015630127862095833,0.0033838264644145966,-0.007541474886238575,-0.009440215304493904,-0.011542076244950294,0.009362062439322472,-0.0007731742225587368,0.01788952201604843,0.027527455240488052,-0.008406953886151314,0.024968452751636505,0.01131798978894949,1.0224549770355225,-0.0034258700907230377,0.02212076634168625,-0.01006915420293808,-0.013455711305141449,-0.009802909567952156,0.0208052396774292,0.007099132519215345,0.014051648788154125,-0.0300022941082716,0.004067855887115002,-0.013235501945018768,0.00832444429397583,-0.0030645467340946198,0.025695014744997025,0.004307758063077927,-0.00851176306605339,0.009811721742153168,-0.010761212557554245,-0.016886064782738686,-0.013519332744181156,0.015453007072210312,0.001468626782298088,0.01720522530376911,0.003044751938432455,0.015942037105560303,0.011424045078456402,0.0020696851424872875,-0.008829488418996334,-0.00402485067024827,-0.0015403330326080322,-0.00783725455403328,-0.005470240488648415,-0.002771128434687853,0.017577292397618294,-0.007303696125745773,-0.020763827487826347,-0.0053297909907996655,0.014390244148671627,0.0027173934504389763,-0.002911236137151718,0.004985659383237362,0.079004667699337,0.0121412742882967,0.0009995931759476662,-0.00893122423440218,0.006572725251317024,0.006177355535328388,-0.005045105703175068,0.014816520735621452,-0.0068674106150865555,0.008264463394880295,2.8915703296661377e-05,-0.009451013058423996,-0.013658919371664524,0.00809173472225666,0.007310446817427874,-0.00766790471971035,0.016311164945364,0.01368732936680317,0.01461515761911869,0.00752710597589612,0.0022932840511202812,0.009136073291301727,0.010870653204619884,0.018631711602211,-0.020726852118968964,-0.004983138293027878,0.03655587136745453,-0.012541626580059528,-0.0037607457488775253,0.008568398654460907,-2.3793845176696777,-0.005623483564704657,-0.01152263954281807,0.040578994899988174,0.0060938624665141106,-0.024894747883081436,0.011844485998153687,-0.02330591157078743,-0.022684168070554733,0.004846401512622833,-0.005242031067609787,0.01961192861199379,-0.007874973118305206,-0.01695607230067253,0.015535019338130951,-0.006746502593159676,0.00030271708965301514,-0.012383166700601578,-0.05434808135032654,0.021086283028125763,0.004474357236176729,0.01655730977654457,-0.010836099274456501,0.013745847158133984,0.005274437367916107,0.017821842804551125,0.0006164796650409698,0.012015211395919323,0.014177436009049416,-0.01862587220966816,-0.02468729577958584,0.013620832934975624,-0.002838087733834982,-0.003754105418920517,-0.01692722737789154,-0.017918089404702187,0.004589695483446121,-0.010917838662862778,-0.002517547458410263,-0.0021248110570013523,-0.043602339923381805,-0.0031932825222611427,0.011069707572460175,-1.009040355682373,-0.014453376643359661,-0.011382251046597958,0.0060873692855238914,0.0036063650622963905,0.001932087354362011,0.0042936610989272594,-1.089226484298706,-0.0030775191262364388,0.01906871236860752,-0.015108772553503513,0.0184647049754858,0.009232486598193645,-0.007672366686165333,-0.009717057459056377,-0.016933990642428398,0.011320955120027065,-0.17295649647712708,0.016048476099967957,0.016859136521816254,-0.0063350871205329895,0.0069713592529296875,-0.002799868118017912,-0.007291384041309357,0.004120389930903912,0.0024058171547949314,0.00016073137521743774,0.0002773292362689972,0.0019692257046699524,-0.01833905652165413,0.002040870487689972,0.006646820344030857,0.008621234446763992,-0.003102712333202362,0.019452646374702454,-0.007312919478863478,-0.7939369082450867,0.0070736221969127655,-0.013755548745393753,-0.016444845125079155,0.0015785940922796726,0.011253245174884796,0.005368511192500591,-0.006455397233366966,-0.001284560188651085,-1.403195858001709,0.0070844292640686035,-0.07122522592544556,0.011256097815930843,-0.01038435474038124,-0.012492230162024498,-0.007829278707504272,0.010249435901641846,-0.0037818755954504013,-0.038964010775089264,0.009123475290834904,-0.022254817187786102,0.013728891499340534,-0.005250285845249891,0.0319039523601532,0.001166180707514286,0.016548871994018555,-0.0027974708937108517,-0.012882381677627563,-0.0014410754665732384,0.010979537852108479,0.011255230754613876,0.003233259543776512,-0.0013788910582661629,0.0026594833470880985,0.004546348005533218,0.02399390935897827,-0.007331755943596363,0.0034318305552005768,0.0036511742509901524,-0.005606185644865036,0.01952815055847168,0.007284194231033325,0.04329122602939606,-0.01409330777823925,-0.012106291949748993,0.007762022316455841,0.015082359313964844,0.01757444441318512,-0.020114649087190628,-0.00296810083091259,0.010748077183961868,-0.004060366190969944,-0.0015600472688674927,-0.015726320445537567,0.01693272776901722,-0.007673176005482674,0.007712012156844139,-0.003339894115924835,-0.01674123853445053,0.012110661715269089,0.03049721196293831,-0.5388116836547852,0.021628445014357567,-0.0008569285273551941,0.005298257805407047,0.026076946407556534,0.010477147996425629,-0.013447747565805912,0.010098341852426529,-0.0028241300024092197,-0.001476131845265627,0.010108957067131996,-0.044788990169763565,-0.013718711212277412,0.023092959076166153,-0.02057729661464691,0.011378319934010506,-0.01382541749626398,-0.012289503589272499,-0.017607668414711952,-0.014395108446478844,-0.003470118623226881,0.009661069139838219,-0.017257792875170708,-0.011463145725429058,-0.0035620834678411484,0.020157188177108765,0.003743852488696575,-0.0169193297624588,4.22205775976181e-05,-0.00580874877050519,-0.013443327508866787,0.0039057598914951086,0.01609366573393345,0.0020155049860477448,0.00802297331392765,0.02035822533071041,-0.006352563854306936,-0.00463351234793663,0.016198012977838516,0.009713985025882721,0.0036709029227495193,-0.015163877978920937,0.012605379335582256,0.004466090351343155,-0.00987983401864767,0.013730678707361221,-0.003496522083878517,-0.010926486924290657,0.027851790189743042,0.011095268651843071,-0.029276730492711067,-0.010321710258722305,-0.010654214769601822,0.00825796090066433,-0.0016712927026674151,0.009631187655031681,-0.005938529036939144,0.03887893632054329,-0.005399197340011597,-0.02051149681210518,0.0010903403162956238,-0.015510649420320988,0.011666583828628063,-0.009946003556251526,-0.008718405850231647,0.012129437178373337,0.009914813563227654,0.002776007167994976,0.0013057179749011993,-0.003202156163752079,0.0008635059930384159,-0.011289060115814209,0.0014459756202995777,-0.019902531057596207,0.009283047169446945,0.007409576326608658,-0.0019445903599262238,0.016470741480588913,0.014970226213335991,0.0075429994612932205,-0.0007918479386717081,0.015994694083929062,0.009913410991430283,-0.006320500280708075,-0.009020409546792507,0.00224682642146945,-2.1730852127075195,0.0032762959599494934,-0.010285821743309498,-0.015717554837465286,0.0120156928896904,-0.009263687767088413,-0.019319292157888412,0.021587427705526352,0.004524371586740017,0.005186115857213736,0.016061916947364807,-0.007677292451262474,-0.0126261617988348,0.020250532776117325,-0.008882114663720131,-0.01841316930949688,-0.005178157705813646,-0.013343233615159988,0.009211242198944092,-0.0032078339718282223,-0.020583918318152428,-0.0021268660202622414,0.009662674739956856,-0.04136861488223076,-0.007044527679681778,0.009561417624354362,0.008227329701185226,-0.011281711980700493,0.016335364431142807,-0.015241054818034172,-0.04164223000407219,0.008597446605563164,0.0066827451810240746,0.019068926572799683,-0.011962261982262135,-0.021340923383831978,0.00019947998225688934,0.002845832146704197,0.020926818251609802,-0.00029816292226314545,-0.0005754940211772919,-0.015466850250959396,0.03520264849066734,-0.0157451368868351,0.0001569557934999466,-0.015160035341978073,0.0008173659443855286,0.04081229120492935,-0.041544053703546524,-0.008899044245481491,0.021196141839027405,-0.015499352477490902,0.03288859874010086,-0.002424507401883602,-0.0036433376371860504,-0.041743844747543335,-0.0552489310503006,-0.0030742287635803223,0.030071811750531197,0.0432862788438797,0.003664423245936632,0.040464919060468674,-0.01990530639886856,0.012324415147304535,-0.009074625559151173,0.004714287351816893,0.006270099431276321,0.008744768798351288,0.01579449512064457,0.0029249703511595726,0.02117525041103363,-0.015647534281015396,0.013104347512125969,-0.0086431335657835,-0.002047974616289139,-0.013113420456647873,0.013547299429774284,0.021980371326208115,0.010994475334882736,-0.007779967039823532,0.011156182736158371,0.015931664034724236,0.008802860975265503,5.136895924806595e-05,-0.01630394160747528,0.002922089770436287,-0.02353317104279995,-0.00435231626033783,-0.0014766175299882889,-0.010464852675795555,-0.0009104153141379356,0.007155874744057655,0.0030715877655893564,-0.018840689212083817,0.0038105081766843796,-0.01778046041727066,-0.004796087741851807,0.004819496069103479,-0.008450654335319996,-0.02268870919942856,0.045866671949625015,0.011209674179553986,0.000981304794549942,-0.0005722190253436565,-0.04800169914960861,-0.011609796434640884,-0.0012174686416983604,-0.005797721445560455,0.010134248062968254,0.010500640608370304,-1.2933118343353271,0.0012994871940463781,-0.0023399677593261003,0.006837274879217148,-0.010728193446993828,-0.008192086592316628,0.006434011738747358,-0.012774372473359108,0.00919458270072937,0.01645653322339058,0.027949247509241104,-2.162431478500366,-0.007086017169058323,0.007163606118410826,-0.005137301981449127,0.020197365432977676,0.01063157431781292,-0.017647910863161087,0.007362904027104378,-0.003347022458910942,-0.015814000740647316,-0.01373966969549656,0.000341096892952919,-0.003984920680522919,0.0036233337596058846,-0.0213895495980978,0.01089608483016491,-0.00499403290450573,-0.01391097716987133,-0.019108407199382782,0.023421496152877808,-0.012212328612804413,-0.0022215633653104305,-0.0074686212465167046,-0.010775192640721798,0.004957601893693209,-0.0036241011694073677,-0.007533865049481392,0.0011233435943722725,0.029638133943080902,0.0003020192962139845,-0.0067944712936878204,0.0028412342071533203,-0.009149624966084957,-0.012579195201396942,0.0026606321334838867,0.02023383602499962,0.028681155294179916,0.00583404628559947,0.018091898411512375,-0.0182949211448431,-0.00537457037717104,0.019731730222702026,0.012415739707648754,0.9827268123626709,0.011536569334566593,-0.007731135934591293,-0.0147198885679245,0.009141555055975914,0.0405377522110939,0.02373620495200157,-0.013996127061545849,-0.008444514125585556,-0.003227218985557556,0.0019095255993306637,-0.0033279191702604294,-0.022545160725712776,-0.0032718596048653126,0.026658304035663605,0.02609768509864807,0.01644607074558735,0.014879286289215088,-0.007552839815616608,-0.0030515510588884354,0.04283561185002327,-0.009402088820934296,0.010854348540306091,0.031172215938568115,0.021854843944311142,-0.033550892025232315,0.00032815709710121155,0.038270190358161926,-0.0069847069680690765,-0.01020986307412386,0.005935577675700188,-0.00467602489516139,0.016470372676849365,-0.006855693645775318,-0.017231550067663193,-0.008798358961939812,-0.022289317101240158,-0.01307457685470581,-0.006991063244640827,-0.004955507814884186,-0.012721141800284386,-0.004958505742251873,-0.022720884531736374,0.00133278570137918,0.010791195556521416,0.018813099712133408,0.012218741700053215,-0.00029599666595458984,0.004928405862301588,-0.029577957466244698,0.0024118442088365555,-0.0016638319939374924,0.00655963271856308,-0.01685290038585663,-0.0026896698400378227,-0.01556563563644886,0.0007131099700927734,-0.0033835992217063904,0.0012275846675038338,-0.004350552335381508,-0.01585208997130394,0.01587139442563057,-0.010130370035767555,-0.005638035014271736,0.04555106535553932,0.029071733355522156,0.011856768280267715,0.003958841785788536,-0.02156241610646248,-0.012809321284294128,-0.002597811631858349,0.0033548763021826744,-1.430853247642517,0.0012975949794054031,0.02327108196914196,-0.0027295162435621023,0.000266113318502903,-0.002794765867292881,0.0015238523483276367,-0.010451149195432663,-0.030697854235768318,-0.006917007267475128,-0.011253955774009228,-0.002074152696877718,-0.009223871864378452,-0.02021130919456482,0.026580732315778732,0.0032285163179039955,0.011658787727355957,0.014327309094369411,-0.01406024768948555,0.03596712648868561,-0.005678482819348574,-0.018604587763547897,0.010612213052809238,-0.005008547101169825,0.03442494571208954,0.005724893417209387,0.005981696769595146,0.014760521240532398,-0.006495696492493153,-0.03106033429503441,0.016053952276706696,-0.016891364008188248,-0.010567910969257355,0.022033190354704857,-0.002518676221370697,0.0061007956974208355,0.0027055314276367426,0.016702521592378616,0.012751145288348198,-0.002094743773341179,0.02507556602358818,0.0019565264228731394,0.019414221867918968,0.0040545230731368065,0.022454358637332916,-0.00991740357130766,-0.005706900730729103,-0.009076917544007301,-0.0121501749381423,0.007085117977112532,-0.00882573239505291,-0.001652016770094633,-0.0013371556997299194,-0.012356642633676529,0.0022213198244571686,-0.006929382681846619,0.001182645559310913,0.0035940073430538177,0.015727734193205833,-0.0003591645509004593,0.0019544223323464394,-0.006259393412619829,0.029729634523391724,0.004913605749607086,0.007342366501688957,-0.0007189083844423294,-0.015330849215388298,-0.004634615033864975,-0.006553972139954567,0.04869046062231064,-0.006696472875773907,-0.006825139746069908,0.007642888464033604,-0.01607661135494709,0.01089840941131115,-0.011266808956861496,-0.004839970730245113,-0.007591791916638613,-0.014630792662501335,0.0010832231491804123,0.0016650157049298286,0.0002989606000483036,0.014884330332279205,-0.016536591574549675,0.005446630995720625,-0.013003034517168999,0.01418442465364933,-0.016232073307037354,-0.017824670299887657,-0.01861574873328209,0.005567558109760284,-0.006462193094193935,-0.0203546229749918,0.0012927679345011711,-0.027157096192240715,-0.026863694190979004,0.0023978063836693764,-0.007032530847936869,0.014925755560398102,0.01811683550477028,0.006758003495633602,-1.1751940250396729,0.01845661923289299,0.00344218872487545,0.001836166251450777,0.005203090608119965,-0.024126170203089714,-0.01418977603316307,-0.0014518741518259048,0.010413781739771366,-0.003011651337146759,-0.01673593744635582,-0.0019544214010238647,-0.0019282437860965729,0.01987232267856598,0.0016679051332175732,0.006144169718027115,0.012512637302279472,-0.0018952605314552784,0.01224882248789072,-0.009692530147731304,-0.012811083346605301,0.01856227219104767,-0.020463187247514725,-0.013495957478880882,0.00813030730932951,-0.005071837455034256,-0.014648281037807465,-0.003523957682773471,-0.0064821792766451836,-0.017615318298339844,0.020019248127937317,-0.005479931831359863,0.003810608759522438,-0.008061669766902924,-0.01363497506827116,0.022327076643705368,-0.0014316700398921967,-0.008217571303248405,-0.01880446821451187,0.011667412705719471,0.006860170513391495,-0.011550942435860634,0.026747271418571472,-0.0021846378222107887,-0.013744591735303402,-0.01639440283179283,0.014282405376434326,-0.03467904031276703,0.001019541174173355,0.03215542808175087,0.010541722178459167,-0.024614721536636353,0.016917550936341286,0.0007362193427979946,0.017713144421577454,0.007322162389755249,-0.017843246459960938,-0.0020663654431700706,-0.008711187168955803,-0.005840684752911329,-0.02529733255505562,0.0251874178647995,-0.024236708879470825,-0.022905882447957993,0.009117302484810352,0.006787847261875868,0.034485068172216415,-0.012157559394836426,-0.011297212913632393,0.0031730718910694122,0.012845396064221859,0.0015053600072860718,-0.00280850101262331,-0.01597355119884014,0.0450548455119133,-0.004626564681529999,-0.016835447400808334,0.013508169911801815,0.042746398597955704,-0.0170291680842638,0.0137562220916152,-0.006347920745611191,0.009783174842596054,-0.022364389151334763,-0.0058760629035532475,-0.0015269536525011063,-0.00577207375317812,-0.003713334910571575,0.010413073003292084,0.007505552843213081,0.020064610987901688,-0.035306282341480255,-0.012808077968657017,-0.0034784472081810236,-0.005336940288543701,-0.004612039774656296,0.0033829608000814915,-0.00898057222366333,-0.00017531542107462883,0.00757186021655798,-0.012684619054198265,0.013030553236603737,-0.0033539962023496628,0.010922305285930634,-0.012629388831555843,-0.003656622488051653,0.017613403499126434,0.01465666014701128,0.009633351117372513,0.016957394778728485,-0.009655606001615524,0.013474622741341591,-0.01412681583315134,0.01733674854040146,-0.03500267118215561,-0.0011376705951988697,-0.005759669933468103,0.0056312792003154755,-0.0068883392959833145,-0.0014900602400302887,0.01805921643972397,0.004214274697005749,-0.021895881742239,0.01245957799255848,-0.019006742164492607,0.0011795470491051674,0.008840559050440788,0.0010001729242503643,0.013935800641775131,-0.010081603191792965,0.002228878904134035,0.004468017257750034,-0.01823371648788452,0.005650795064866543,-0.02313951589167118,-0.0010882917558774352,-0.0028677210211753845,0.012588046491146088,0.026038214564323425,0.002118067815899849,0.0004519482608884573,-0.010617050342261791,0.004616107791662216,0.008510664105415344,0.009230813011527061,-0.008440930396318436,0.010119333863258362,0.011083818040788174,-0.01936563290655613,-0.0044211819767951965,0.01201866939663887,0.0051352400332689285,0.0013132346794009209,0.012702219188213348,0.017762865871191025,-0.006909257732331753,-0.0036590993404388428,-0.01835711859166622,0.007706847041845322,0.00036525726318359375,0.002322913147509098,0.010020652785897255,0.0334746316075325,0.0007813600823283195,0.06125660985708237,0.007854980416595936,-0.022549379616975784,0.009020266123116016,0.03158606216311455,0.009937570430338383,-0.01732528582215309,0.008745534345507622,0.021275799721479416,-0.024859178811311722,-0.008149329572916031,0.01884867064654827,0.0025935256853699684,0.05711197108030319,-0.0031349794007837772,-0.0029209721833467484,-0.017826220020651817,-0.01007116213440895,-0.005593128502368927,-0.05832093581557274,-0.001415148377418518,-0.014577329158782959,-0.003809688612818718,-0.0030861604027450085,-0.01369604840874672,0.0027255862951278687,-0.0028650634922087193,0.006312296260148287,0.0016973211895674467,0.013538934290409088,0.018066804856061935,0.0032206797040998936,-0.010793477296829224,-9.574368596076965e-05,0.02797357365489006,0.00958178099244833,-0.017824839800596237,0.0010193176567554474,-0.023033354431390762,0.008791166357696056,-0.008812107145786285,0.006401131860911846,0.011252430267632008,0.006485216319561005,0.04010634869337082,-0.002700813114643097,0.0015072859823703766,0.027206219732761383,-0.01714516431093216,-0.01637990027666092,0.02245348133146763,-0.04154092073440552,0.00546885933727026,-0.013226369395852089,-0.016996130347251892,-0.02482346072793007,0.01429385133087635,-0.0038941737730056047,0.006772900000214577,-0.0047203898429870605,0.015696866437792778,0.022176172584295273,0.015788786113262177,-0.00048523303121328354,0.009289294481277466,0.017548084259033203,-0.002033090218901634,-0.006548240780830383,0.011984524317085743,-0.008077173493802547,-0.03755684569478035,-0.010661538690328598,-0.031286340206861496,-0.039309483021497726,-0.0012078490108251572,0.023947276175022125,-0.009014018811285496,-0.0009676218032836914,0.02006494253873825,-0.10531264543533325,-0.010938361287117004,-0.06380737572908401,-0.006318751722574234,0.008168907836079597,0.004153240472078323,0.0755089744925499,-0.004182232543826103,-0.016278374940156937,0.012679340317845345,0.0019310512579977512,0.009718112647533417,-0.004406382329761982,-0.047150176018476486,-0.006355639547109604,-0.01980305090546608,0.028463171795010567,-0.001972566358745098,0.012284261174499989,0.001352636143565178,-0.024841904640197754,0.009690840728580952,-0.008191502653062344,0.0190226212143898,-0.0037599336355924606,0.021790947765111923,-0.02214830368757248,0.06825780868530273,0.00020739436149597168,0.018423767760396004,-0.006867675110697746,0.02389063686132431,0.005260010715574026,0.023006081581115723,0.008701473474502563,0.017572060227394104,0.017173049971461296,-0.022364892065525055,0.0022533461451530457,0.0014851856976747513,-0.020872656255960464,-0.015224573202431202,-0.010810145176947117,0.01301620528101921,-0.002843637950718403,0.007830258458852768,-0.008376549929380417,-0.008398198522627354,0.009048514068126678,-0.024255678057670593,0.014553196728229523,-0.017715008929371834,0.012192859314382076,0.008996514603495598,0.005622493103146553,-0.0020691389217972755,0.007230411749333143,-0.029581770300865173,0.01080186665058136,0.012920854613184929,-0.040084220468997955,0.022780891507864,0.0026533817872405052,-0.0025276164524257183,-0.020851342007517815,0.017818767577409744,0.016376949846744537,0.016825973987579346,-0.022430989891290665,0.023746106773614883,-0.025648947805166245,0.026648659259080887,0.010388357564806938,-0.004961051046848297,0.007364501245319843,0.01647202856838703,0.032902829349040985,0.08236555755138397,-0.008134880103170872,0.055009372532367706,-0.024185556918382645,-0.00042762234807014465,0.015990035608410835,-0.017914511263370514,0.05405293405056,0.017810489982366562,0.020725276321172714,-0.022821426391601562,-0.003352569881826639,-0.0305048655718565,0.010843314230442047,-0.01134486310184002,-0.006588021293282509,0.0032213719096034765,0.0006411373615264893,-0.012490686029195786,-0.001737481914460659,-0.0036579780280590057,-0.005102965515106916,0.019672436639666557,-0.028174791485071182,-0.005782928317785263,-0.029257114976644516,-0.01341135986149311,0.019790709018707275,-0.005453115329146385,0.0035095051862299442,-0.02466028556227684,-0.0027781794779002666,-0.017311230301856995,0.01779511384665966,0.007315590977668762,-0.001465803012251854,0.021323908120393753,0.015309721231460571,0.007345324382185936,-0.01221917849034071,-0.0033645983785390854,-0.023039886727929115,-0.006431411020457745,-0.0012801233679056168,0.009458348155021667,-0.01622501015663147,-0.008619306609034538,-0.0036198003217577934,0.021642029285430908,-0.016524625942111015,-0.003665638854727149,0.0015935790725052357,0.04620225355029106,-0.0029196729883551598,0.008776620030403137,0.012936810031533241,-0.02657410502433777,-0.009410912171006203,-0.0033349301666021347,-0.030745472759008408,0.010276081040501595,0.021491248160600662,-0.0010479474440217018,0.010078543797135353,-0.015832412987947464,0.0017759092152118683,-0.009337913244962692,-0.017647087574005127,-0.00170842744410038,-0.00884520635008812,-0.006987420842051506,0.004340123385190964,-0.03112487867474556,-0.002244881819933653,0.005116747226566076,-0.0028018197044730186,-0.006273373961448669,-0.020160045474767685,-0.05014366656541824,-0.001496816985309124,0.023642119020223618,0.01541651226580143,0.01448812149465084,-0.00460659759119153,-0.014796767383813858,-0.04325689375400543,0.0019345232285559177,-0.0020226389169692993,0.008098571561276913,0.0032608848996460438,0.006245656870305538,-0.02687932178378105,0.0006159879267215729,-0.7569425702095032,0.04484599083662033,0.013323798775672913,0.021876845508813858,0.0008882991969585419,0.021615637466311455,-0.008817574009299278,-0.013905661180615425,0.006335943005979061,0.0002569803036749363,-0.06476365029811859,0.009884394705295563,-0.01259249821305275,-0.025293104350566864,0.00901738926768303,0.014396993443369865,-0.013638341799378395,0.018036426976323128,0.008843249641358852,0.0061037614941596985,0.05123509466648102,0.01692095771431923,0.016739122569561005,0.007236834615468979,0.010635215789079666,0.01779324747622013,-0.003274506190791726,0.0009639090858399868,1.8186867237091064e-05,-0.003289705142378807,0.006850311532616615,0.005205212160944939,-0.010883592069149017,0.03202182799577713,0.015048166736960411,0.0022660535760223866,0.0029815807938575745,-0.015023702755570412,0.006845745258033276,-0.013968933373689651,0.022622887045145035,-0.015608424320816994,0.01933591440320015,-0.026643209159374237,-1.3291637897491455,0.028411652892827988,-0.014664310961961746,-0.04484954848885536,-0.0014660526067018509,0.06472975015640259,0.02562291920185089,-0.0022819838486611843,-0.011277689598500729,-0.005169853568077087,0.026106543838977814,-0.010913564823567867,8.090457413345575e-05,-0.013970986008644104,-0.000347726047039032,0.003929163794964552,0.0023870118893682957,-0.04562936723232269,0.03359013423323631,0.004234968684613705,-0.0010401783511042595,-0.005572617053985596,-0.012260280549526215,0.048358380794525146,-0.006779090501368046,-0.015284692868590355,0.00824837014079094,0.0006293421611189842,-0.0020153941586613655,-0.00848865881562233,0.002161591313779354,-0.0021546147763729095,-0.019334211945533752,0.0012640012428164482,-0.022936386987566948,0.04889068379998207,0.01805941015481949,-0.051560088992118835,0.025348331779241562,0.010749354027211666,-0.024976693093776703,-0.013079032301902771,-0.028186043724417686,0.01710670068860054,0.0001529185101389885,0.005251827649772167,-0.016096239909529686,-0.01456071063876152,-0.0026842663064599037,0.005655308254063129,-0.033069826662540436,-0.003433680161833763,-0.024914663285017014,0.028272705152630806,-0.00343457143753767,0.06132403761148453,0.012302625924348831,-0.015294551849365234,-0.01379760354757309,0.017568212002515793,-0.025817174464464188,0.012036900036036968,-0.5778271555900574,0.006721654906868935,-0.004695179872214794,-0.00833648256957531,-0.013903211802244186,-0.005496399477124214,0.007870392873883247,-0.017310580238699913,-0.01686602085828781,-0.011012817732989788,0.03468742594122887,0.002569505013525486,0.016011035069823265,-0.020786751061677933,-0.0043732039630413055,-0.008913647383451462,0.0036119362339377403,-0.01783612370491028,0.010897109284996986,-0.011144714429974556,-2.4589004516601562,0.0004798527806997299,0.008468887768685818,-0.0002714879810810089,-0.03232325240969658,0.008350280113518238,-0.005494957789778709,7.573142647743225e-05,0.0072980718687176704,0.0006119003519415855,0.014706655405461788,0.007893245667219162,0.007645182311534882,-0.04828741028904915,0.004668951965868473,-0.0024129748344421387,0.007882501929998398,0.011826304718852043,-1.481035590171814,-0.006812002509832382,-0.017657406628131866,-0.019419122487306595,-0.003212815150618553,0.0032470766454935074,0.004238570109009743,-0.008373117074370384,0.00957176461815834,0.007607525680214167,-0.0052834367379546165,-0.011688060127198696,-0.00547737255692482,-0.013869193382561207,-0.014038179069757462,0.000993620604276657,-0.026580829173326492,0.016136446967720985,-0.012644082307815552,0.0010892394930124283,0.0034056534059345722,0.02311856299638748,0.020474454388022423,-0.011152258142828941,0.003465079702436924,0.030272454023361206,0.013778796419501305,-0.003501966129988432,0.02685847505927086,-0.00828279834240675,0.006672237068414688,0.017907248809933662,-0.0207232516258955,0.0026308922097086906,-0.00010468065738677979,-0.001653142273426056,-0.03121967799961567,0.009297270327806473,-0.017849473282694817,0.027356985956430435,0.45260876417160034,-0.021163925528526306,0.038199156522750854,-0.016177218407392502,0.0030786553397774696,0.013910569250583649,0.008962089195847511,-0.008716460317373276,-0.000707174651324749,-0.01716867834329605,0.00048750080168247223,0.016069889068603516,-0.02135499380528927,-1.1701923608779907,-0.008850818499922752,-0.004123455844819546,-0.05533983185887337,-0.017666179686784744,-0.01427207700908184,0.00549702811986208,0.04862150549888611,0.002133962232619524,-0.005598306655883789,0.007633257657289505,-0.018420523032546043,0.025627501308918,-0.007661990821361542,-0.01033519022166729,0.012012206017971039,0.016430087387561798,-0.03132352977991104,-0.0012496644631028175,0.009579641744494438,0.01649370789527893,0.00614476203918457,-0.019455522298812866,0.020492229610681534,-0.011721288785338402,0.003842680249363184,0.009061886928975582,0.016723236069083214,-0.00927657075226307,0.02532626874744892,0.016906369477510452,-0.00582297146320343,0.009169967845082283,-0.005879025906324387,0.006341099739074707,0.6555827260017395,-0.0030341073870658875,0.0019632428884506226,0.012258365750312805,0.016885124146938324,0.0032733194530010223,0.015933414921164513,0.011103106662631035,0.01218185480684042,-0.047775447368621826,0.00842701829969883,-0.0036326798144727945,-0.012616945430636406,0.04880722984671593,0.02287869341671467,-0.01823120377957821,-0.010371249169111252,-0.03254174441099167,0.018189338967204094,-0.007008880842477083,0.014524754136800766,-0.011363252997398376,0.03225760534405708,0.020288363099098206,-0.07520672678947449,0.02051481604576111,0.01842947117984295,0.00497770681977272,0.00031824782490730286,-0.03007710538804531,0.008915524929761887,-0.008421115577220917,0.006484586745500565,-0.002199714072048664,-0.007096710614860058,-0.006453337613493204,0.00924968533217907,-0.031169503927230835,0.0034763815347105265,0.03492160141468048,-0.023907192051410675,-0.010119212791323662,0.3166767656803131,0.01982320286333561,0.0070833489298820496,0.013162460178136826,0.00036268215626478195,-0.017240166664123535,0.01877320557832718,-0.023185154423117638,-0.008102554827928543,-0.0010673115029931068,-0.005290317814797163,0.02954130619764328,-0.013378992676734924,0.00421382300555706,0.0036778803914785385,-0.004562384448945522,0.018760766834020615,0.02122742310166359,-0.016236305236816406,0.01881585270166397,-0.013637259602546692,0.0230594240128994,0.0012730476446449757,0.008526145480573177,0.016892369836568832,0.003997230902314186,-0.05474318936467171,0.00041368603706359863,-0.021650616079568863,-0.00450453395023942,0.29933005571365356,0.014032796025276184,0.006448304280638695,-0.04986650496721268,-0.030510861426591873,0.01834191381931305,0.01687447354197502,-0.04567715525627136,-0.05500178039073944,-0.004956417251378298,0.019698046147823334,0.004172824323177338,0.006343234330415726,-0.0004837922751903534,-0.008916357532143593,-0.012045122683048248,-0.0032458663918077946,-0.010378681123256683,0.004417466931045055,-0.03460567444562912,0.005155707709491253,0.0025016888976097107,-0.01144455373287201,-0.014706084504723549,-0.011858498677611351,-0.006771137937903404,0.0036294942256063223,0.012004077434539795,0.0012948056682944298,-0.0062295179814100266,-0.0036171621177345514,-0.07787951827049255,0.008449748158454895,0.002759068738669157,-0.012871871702373028,-0.006461743265390396,-0.03732616826891899,0.0034304072614759207,-0.03867588937282562,0.04085041582584381,-0.03816979005932808,0.008437122218310833,-0.005143723450601101,-0.022258969023823738,0.001798352226614952,0.024425793439149857,-0.01713254675269127,0.0011828357819467783,0.03294732794165611,-0.012900101020932198,0.008409585803747177,0.025797253474593163,0.008557572960853577,0.005649767816066742,0.0085249999538064,-0.008511167019605637,0.024556433781981468,0.00048498809337615967,-0.016986533999443054,-0.03330700844526291,0.0007722601294517517,0.0012969840317964554,-0.003333667293190956,0.004470968618988991,-0.008572442457079887,0.0024408530443906784,-0.01736200973391533,0.03084457665681839,-0.014772259630262852,-0.007655438967049122,-0.02232346683740616,0.013889595866203308,0.008823497220873833,-0.003562837839126587,-0.011960756033658981,0.030546579509973526,0.019740929827094078,-0.034276340156793594,-0.008507399819791317,-1.3134760856628418,-0.49362677335739136,0.02485213615000248,-0.006622553337365389,-1.07987642288208,-0.054896365851163864,0.8087372183799744,-0.018970787525177002,-0.008689272217452526,-0.022980816662311554,0.004927149973809719,0.03734276071190834,0.033001527190208435,0.032485589385032654,-0.02519885078072548,-0.014323372393846512,0.014455976895987988,-0.015758413821458817,-0.027771949768066406,0.012745379470288754,-0.023096419870853424,-0.0025196075439453125,-0.02758060395717621,-0.012130866758525372,-0.0038424343802034855,0.016496147960424423,0.3500354290008545,-0.013811253942549229,-0.006117908749729395,0.0067876186221838,-0.005171089433133602,0.012747829779982567,0.017249930649995804,0.006725502200424671,-0.009416408836841583,0.0070253051817417145,0.017855290323495865,0.009121045470237732,0.012587467208504677,-0.006322033703327179,0.04386397451162338,0.009952975437045097,0.0017228536307811737,0.024992112070322037,-0.002813150640577078,0.012153634801506996,-0.002829086035490036,-0.008141632191836834,0.027776412665843964,0.0023371633142232895,-0.012486113235354424,0.0019080592319369316,-0.0018976577557623386,-0.0697849690914154,-0.017550930380821228,0.06906811892986298,-0.008881712332367897,0.008174020797014236,-0.013787150382995605,-0.03161292150616646,0.03227273374795914,0.04364079236984253,-0.060350943356752396,-0.014378887601196766,-0.009166885167360306,-0.011899270117282867,-0.007504768669605255,0.011815592646598816,9.742239490151405e-05,-0.036357708275318146,0.032182201743125916,0.007514208555221558,-0.01758338138461113,-0.003973670303821564,0.004929021932184696,0.0015480797737836838,0.023540545254945755,0.0031982222571969032,-0.011421490460634232,0.014879539608955383,0.015352435410022736,-0.03405040502548218,0.008372089825570583,-0.014361768960952759,0.005241153761744499,-0.0072030238807201385,0.011869153939187527,0.0032519912347197533,0.002629007212817669,-0.0009667938575148582,-0.01635199971497059,-0.00041745463386178017,-0.015727877616882324,0.008893515914678574,0.019385792315006256,0.0012997929006814957,-0.009231822565197945,-0.024507489055395126,-0.012930560857057571,0.029317978769540787,-0.018329450860619545,0.03065359592437744,-0.009443556889891624,0.034590885043144226,0.006039192900061607,0.014368411153554916,0.005292590707540512,-0.03336525708436966,0.02174162119626999,-0.025362586602568626,-0.0075922091491520405,0.01674768328666687,-0.00015833554789423943,0.01690525934100151,0.012501738965511322,-0.031258724629879,0.0003224145621061325,0.01461641862988472,0.020108051598072052,-0.036221444606781006,-0.0032765446230769157,-0.008800814859569073,0.015530670061707497,0.002004917711019516,-0.024575250223279,-0.016986757516860962,-0.06596802920103073,0.010287352837622166,-0.008490679785609245,-0.007108169142156839,-0.014426843263208866,-0.011717168614268303,-0.013640642166137695,0.020870419219136238,-0.024196084588766098,-0.012726735323667526,0.019010871648788452,0.009983638301491737,-0.00774383544921875,0.0070208399556577206,0.027712445706129074,-0.016574466601014137,-0.01279271487146616,-0.013146210461854935,0.0069814808666706085,0.0189406368881464,0.009180624037981033,-0.6039500832557678,0.007739294320344925,0.030032183974981308,-0.0030605015344917774,-0.0027363202534615993,0.0021181348711252213,-0.0022329017519950867,-0.01895037293434143,-0.0018103327602148056,-0.0020313486456871033,-0.030768781900405884,-0.002024975838139653,-0.007037624716758728,0.01868470385670662,-0.00853150337934494,-0.02554340474307537,-0.016734529286623,0.03885206580162048,-0.00716535747051239,0.005635809153318405,0.02151007205247879,0.012621302157640457,-0.0015804991126060486,0.019166119396686554,-0.007740981876850128,-0.027925536036491394,-0.0012224242091178894,0.02840322256088257,-0.009192124009132385,0.014174133539199829,0.011775705963373184,-1.1544225215911865,0.010835075750946999,0.03585200384259224,-0.014059828594326973,-0.015443174168467522,0.008918607607483864,0.005842223763465881,-0.002897299826145172,-0.009041819721460342,0.018803779035806656,0.0014007161371409893,-0.035604141652584076,0.036021579056978226,0.006214753724634647,-0.010018644854426384,0.01937400922179222,-0.060692474246025085,0.0065651144832372665,0.028438985347747803,-0.011673787608742714,0.006202744320034981,0.014942510053515434,0.021900778636336327,-0.0007661180570721626,-0.011366799473762512,0.001996076200157404,-0.005015908740460873,0.00711468979716301,-0.013321171514689922,-0.00834246538579464,-0.05061374232172966,-0.0019119165372103453,-0.018686138093471527,-0.0063582491129636765,0.025924844667315483,-0.007219530642032623,-0.012208504602313042,-0.009041257202625275,-0.02033132314682007,-0.016469066962599754,-0.032767947763204575,0.002394687384366989,-0.016011901199817657,0.002027355134487152,0.015616838820278645,-0.021754402667284012,0.0054514287039637566,-0.015592515468597412,0.014246145263314247,-0.006930375937372446,-0.0016478421166539192,-0.08071009069681168,0.04220405966043472,0.051373258233070374,-0.003387169446796179,-0.006300037726759911,0.0011022407561540604,-0.00402580201625824,-0.0032123997807502747,0.002206336008384824,-0.03079470992088318,-0.003321068361401558,0.0040993900038301945,-1.3850194215774536,0.02312997728586197,-0.056245867162942886,-0.005809193477034569,-0.059140644967556,-0.0017569786868989468,-0.017697278410196304,0.006328660994768143,-0.0023353826254606247,0.026803208515048027,0.005697247572243214,0.0028282664716243744,0.0059676337987184525,0.0060258046723902225,-0.0011176727712154388,-0.02133369632065296,-0.0014376332983374596,0.0020627304911613464,-0.039256639778614044,0.009796034544706345,-0.005572725553065538,-0.018320389091968536,0.028634484857320786,-0.006565646734088659,0.010987527668476105,-0.009185612201690674,-0.015598297119140625,-3.64157772064209,0.00962618738412857,0.022723644971847534,0.0096054095774889,0.01008198969066143,0.017433371394872665,0.032610513269901276,-0.03950900211930275,0.12276716530323029,-0.006511371582746506,0.01014879159629345,-0.003279616590589285,0.02322937175631523,-0.007159634493291378,0.02207307517528534,8.367374539375305e-05,-0.02249123528599739,0.009165690280497074,-0.010633625090122223,0.058246709406375885,-0.05136478692293167,0.00965588353574276,-0.0004705078899860382,-0.034473076462745667,-0.01648358628153801,-0.012020707130432129,0.0025205016136169434,0.00048082321882247925,-0.0006842557340860367,-0.013460319489240646,-0.001681257737800479,-0.009125765413045883,-0.01715906709432602,0.05356952175498009,0.01458895206451416,0.041382912546396255,0.003100147470831871,0.01738055795431137,0.038284920156002045,-0.03870292752981186,-0.005618847440928221,0.013450240716338158,-0.005250856280326843,0.009887518361210823,0.004449542611837387,0.014718540944159031,-0.014174744486808777,-0.019060442224144936,-0.03947778791189194,-0.008938338607549667,-0.536058247089386,-0.011226065456867218,-0.01666385680437088,0.011996383778750896,0.003028559498488903,0.02521052584052086,0.008163212798535824,0.020929988473653793,0.018105562776327133,0.006429862231016159,0.00036193057894706726,0.04282565042376518,0.017632683739066124,-0.04636172205209732,0.01850399374961853,0.013522125780582428,0.004867661744356155,-0.02623828314244747,0.016285371035337448,-0.01612871140241623,0.012073654681444168,0.02715510129928589,0.010370779782533646,0.007195372134447098,-0.01708551123738289,-0.09287672489881516,-0.02024705708026886,0.014551771804690361,0.013904202729463577,0.014751113951206207,0.01748160645365715,0.011186610907316208,-0.010149691253900528,0.013392666354775429,-0.01812833920121193,0.009551044553518295,0.013528825715184212,-0.015626955777406693,0.009843440726399422,0.013643966987729073,0.002145366743206978,-0.010058058425784111,0.010335702449083328,0.01728399470448494,0.004715088754892349,0.00916855689138174,0.008313938975334167,-0.042340993881225586,-0.003534587100148201,-0.01722046732902527,-0.005261363461613655,-0.0015448862686753273,-0.010607127100229263,-0.00222453149035573,-0.006989441812038422,0.004963140934705734,0.004974142648279667,-0.017461508512496948,-0.021860487759113312,0.009092967957258224,0.027878407388925552,-0.005497314967215061,0.03622526302933693,-0.020199831575155258,0.009518823586404324,-1.0785777568817139,-0.016557898372411728,-1.1511681079864502,-0.03139733895659447,0.019488785415887833,-0.0008324738591909409,0.006667201407253742,0.01632317341864109,0.0013871155679225922,0.010465985164046288,-0.002180725336074829,-0.004215613007545471,0.005042390897870064,0.01052890345454216,-0.01902104914188385,0.030301740393042564,-0.002592555247247219,0.011049920693039894,-0.01992134377360344,0.0033471854403615,0.0032050153240561485,0.030967967584729195,-0.002663056366145611,-0.0004953537136316299,-0.008046487346291542,0.002229839563369751,-0.0625234842300415,0.0539076142013073,0.013638626784086227,0.03110671415925026,0.007537518162280321,0.002694222144782543,-0.12255445122718811,0.028972648084163666,-0.0028280997648835182,0.0006181611679494381,-0.002117592841386795,0.04942776635289192,-0.0004564207047224045,-0.02014782652258873,-0.007938568480312824,-0.003422374604269862,0.00593983381986618,-0.014355441555380821,0.030169755220413208,-0.025540977716445923,-0.012158620171248913,0.013425965793430805,-0.022225992754101753,0.026578392833471298,-0.0017860573716461658,-0.010706362314522266,-0.025813434273004532,0.007963260635733604,-0.006257697939872742,0.005561113357543945,-0.003089938312768936,-0.009170863777399063,-0.012448480352759361,-0.04664526507258415,0.0063652414828538895,-0.024322712793946266,-0.003961908631026745,-0.010717028751969337,-0.010186665691435337,0.015311047434806824,-0.0045293159782886505,-0.00866650603711605,-0.01480446383357048,0.0018874634988605976,0.001806291751563549,0.010633803904056549,0.00884228851646185,-0.005911977030336857,-0.02193082496523857,-0.008851403370499611,0.01881943643093109,-0.02286236360669136,-0.015891162678599358,-0.020456649363040924,-0.007556336931884289,0.012085337191820145,0.004698967561125755,-0.0063752904534339905,-0.007643875665962696,-0.007877335883677006,0.014030445367097855,0.057374000549316406,-0.017752541229128838,0.0019015087746083736,0.028238637372851372,0.005926917307078838,0.021472901105880737,0.01622840017080307,0.00202232226729393,0.013707097619771957,-0.052999548614025116,-0.0033407327719032764,0.015082052908837795,-0.0038628610782325268,-0.0030163973569869995,-0.01559998095035553,0.002493197564035654,-0.0031169112771749496,-0.010754823684692383,0.005946669261902571,0.021731611341238022,0.030381571501493454,-0.014597941190004349,7.909582927823067e-05,0.006265567149966955,-0.0044784508645534515,0.008297905325889587,-0.021205905824899673,-0.004074813798069954,0.018534455448389053,-0.02472667023539543,-0.01923109032213688,-0.009234655648469925,0.004675021395087242,0.027104787528514862,-0.003867588471621275,-0.005230847746133804,-0.013035607524216175,0.02730691246688366,-0.023982541635632515,-0.0007645082660019398,-0.01879158243536949,0.04556336998939514,-0.008446487598121166,0.017304129898548126,0.0032285903580486774,0.002989755943417549,0.0028209052979946136,-0.025707831606268883,0.03718816488981247,-0.040253154933452606,0.016014473512768745,-0.024498598650097847,-0.015905944630503654,0.025618428364396095,0.005577506497502327,-0.014829413965344429,0.005516869481652975,0.011252280324697495,-0.007029186934232712,0.014624967239797115,-0.018778176978230476,-1.13577401638031,0.014385079964995384,-0.012639617547392845,0.012271597981452942,-0.004448220133781433,-0.017492249608039856,0.002460142597556114,0.002831278368830681,0.015986327081918716,-0.0013868026435375214,0.13240937888622284,-0.006348557770252228,-0.9175349473953247,0.05089506506919861,0.004068795591592789,0.00841645710170269,-0.030663494020700455,-0.006149708293378353,-0.028857257217168808,0.004688607528805733,-0.025578871369361877,-0.0025774501264095306,0.022214464843273163,-0.013256384059786797,-0.007314900867640972,0.034094035625457764,-0.03621930629014969,0.1489233672618866,0.01230189111083746,-0.012614648789167404,0.004929857328534126,0.05144752562046051,0.012706702575087547,-0.012153806164860725,-0.01837395876646042,0.0061148470267653465,0.006675250828266144,-0.012279098853468895,-0.00013830093666911125,-0.006168333813548088,0.011133171617984772,0.0347122997045517,0.06428094208240509,-0.014844726771116257,-0.0411946177482605,-0.015024560503661633,-0.021694403141736984,-0.006372788920998573,0.0032761001493781805,-0.010924870148301125,-0.002147064544260502,0.0014297515153884888,0.02956639602780342,0.013543405570089817,-0.014510471373796463,-0.003216054290533066,-0.018136179074645042,-0.0034292107447981834,0.0007207326125353575,0.0010554129257798195,0.003966693766415119,0.02198261022567749,0.0014520566910505295,0.015172582119703293,-0.006264971569180489,0.005038619041442871,0.009785429574549198,0.014158423990011215,0.014221064746379852,-0.004254817962646484,-0.07147984206676483,-0.029648326337337494,-0.0469672866165638,-0.008259539492428303,-0.01496182382106781,-0.01280373428016901,-0.0010400793980807066,-0.006116369739174843,-0.00660371221601963,-0.013598750345408916,-0.011381272226572037,-0.020082728937268257,-0.011807683855295181,-0.12990745902061462,0.01180285681039095,0.016445588320493698,-0.003476206213235855,0.014787975698709488,-0.0013928567059338093,0.0069185346364974976,-0.0031979260966181755,0.019382599741220474,0.009962229989469051,0.00794603768736124,0.012426311150193214,-0.007044922560453415,-0.005830645561218262,-0.020440347492694855,-0.020606007426977158,-0.005048773717135191,0.01913779228925705,-0.040431153029203415,0.00612245686352253,0.006936542224138975,-0.0016846200451254845,-0.005523568019270897,-0.039496541023254395,-0.002155490219593048,-0.033440180122852325,-0.05984354391694069,0.010434459894895554,-0.0009721284732222557,-0.0013909637928009033,-0.00958755798637867,0.009361092001199722,0.006643654778599739,-0.0002644818741828203,0.07017932832241058,0.027062173932790756,0.02278584986925125,0.002729843370616436
Q2YPV0,-0.007706314325332642,-0.009592534974217415,0.0014902609400451183,0.00514865480363369,0.012736201286315918,-0.003615233115851879,0.0036509856581687927,-0.002041982486844063,0.012304764240980148,-0.016415823251008987,0.009471019729971886,-0.00943078100681305,0.008341576904058456,0.0026968345046043396,0.00033813435584306717,-1.169533371925354,-0.008992485702037811,-0.0031690909527242184,0.0167090967297554,0.0018243319354951382,-0.021777525544166565,0.010096747428178787,0.01252804696559906,-0.012281727977097034,-0.0017558969557285309,-0.006452823523432016,0.01550854928791523,-0.033056147396564484,0.010573748499155045,-0.004789801314473152,-0.0100054070353508,-0.003135216422379017,0.008284464478492737,-0.0006069634109735489,0.02624516934156418,-0.0018079914152622223,0.007795973680913448,-0.005561035592108965,0.020251795649528503,-0.012014297768473625,0.017922237515449524,-0.0858258381485939,0.013526909053325653,0.0034662922844290733,-0.0012467233464121819,-0.00047194957733154297,0.002373750787228346,-0.0011454897467046976,-0.0014090249314904213,0.0065220617689192295,0.015185009688138962,0.007199297193437815,-0.015045532956719398,-0.032943882048130035,-0.017232174053788185,0.0019626813009381294,-0.0033321348018944263,0.00507017970085144,0.02466602250933647,-0.00387607142329216,-0.007955269888043404,0.00016155187040567398,-0.005255550146102905,0.0006151348352432251,-0.007853521034121513,0.005142914596945047,-0.02618495747447014,0.005898823030292988,0.0035347435623407364,0.004177766386419535,0.033804427832365036,-0.004279952496290207,-0.00303060794249177,0.014932729303836823,-0.002364526502788067,0.03016015514731407,0.000322096748277545,0.00011310819536447525,-0.0035695508122444153,0.1964636743068695,0.009234790690243244,-0.0026655280962586403,-1.4544017314910889,0.0016284212470054626,-0.012589313089847565,0.00178456399589777,0.005076074972748756,0.032757289707660675,0.05673195794224739,0.002968092914670706,0.0069761136546730995,0.0056259892880916595,-0.005136615596711636,-0.00597930233925581,0.006391719914972782,0.0040063513442873955,-0.00017207441851496696,-0.00874914787709713,-0.0030429959297180176,0.00042138388380408287,-0.007522798143327236,-0.0019262395799160004,-0.008383655920624733,0.021004077047109604,-0.0023059058003127575,0.018826771527528763,5.758460611104965e-05,0.001323777250945568,-0.022326350212097168,0.01224213931709528,0.005616617389023304,-0.002058669924736023,0.0006977105513215065,0.003441067412495613,0.0021402956917881966,0.00926284771412611,-0.00580711429938674,-0.006034412421286106,-0.0011423993855714798,0.0025478489696979523,-0.0012263404205441475,-0.005263837054371834,-0.0019363812170922756,0.005264259874820709,0.006881934590637684,-0.008868473581969738,-0.004750399850308895,0.0016035474836826324,0.0034637735225260258,-0.002139441668987274,-0.006754652131348848,-0.008686188608407974,0.0016306638717651367,0.0003253277391195297,-0.002384241670370102,0.00964092556387186,-0.006217343732714653,0.03275075554847717,-0.0007643369026482105,0.005124527961015701,-0.01189381442964077,-0.003099251538515091,-0.023329779505729675,0.0028564222157001495,-0.05269186198711395,-0.02870733104646206,0.009846137836575508,-0.0046019405126571655,0.0019979295320808887,0.010856082662940025,-0.006050586700439453,0.00021917186677455902,-0.0011557713150978088,-0.03316892310976982,0.012120661325752735,0.0001463908702135086,0.009126711636781693,-0.009681949391961098,0.01441514864563942,-0.0019155116751790047,-0.0007967445999383926,0.03361532837152481,-0.028776273131370544,-0.0031855637207627296,-0.006067791488021612,-0.006201061420142651,0.0034847958013415337,0.0012421205174177885,-0.05219493806362152,-4.1604042053222656e-05,-0.0011327974498271942,-0.0024813301861286163,0.0013749971985816956,-1.9686762243509293e-05,-0.0197073332965374,0.004798467271029949,0.0018358570523560047,0.0016086483374238014,-0.02276584506034851,-0.0018116720020771027,0.0025931792333722115,-0.009989485144615173,-0.0048985290341079235,0.010810382664203644,-0.002644614316523075,0.001366776879876852,0.012172907590866089,0.0019360631704330444,0.006525130942463875,-0.05329115316271782,-0.0015134969726204872,-0.0018735267221927643,0.004953598603606224,-0.0024692416191101074,0.009606072679162025,-0.0025796815752983093,0.02045460417866707,0.0027876347303390503,0.007580375298857689,0.008996611461043358,0.010881487280130386,0.0017883237451314926,-0.013180132955312729,-0.004362017847597599,-0.006170368753373623,-0.017636049538850784,0.027372917160391808,-0.0004831496626138687,-0.006489326246082783,-0.0002690819092094898,-0.004662352614104748,-0.017227794975042343,0.007874678820371628,-0.0828801840543747,0.0008262214250862598,-0.007243373431265354,0.004424555227160454,-0.0031073763966560364,0.0018079299479722977,0.004430032800883055,-0.000867882277816534,0.006680847145617008,0.01019321009516716,0.009667998179793358,0.0038611851632595062,0.004368916153907776,0.0004715295508503914,-0.002755511552095413,0.00844602845609188,-0.010810308158397675,-0.0038292105309665203,-0.0006021261215209961,-0.012642751447856426,0.00898934155702591,0.02090286836028099,0.011188223958015442,0.005329763516783714,0.012747962027788162,-0.009803267195820808,0.00826144777238369,-0.006163012236356735,0.0010982975363731384,-0.007791102863848209,-0.004469188861548901,-0.008911006152629852,0.2823963761329651,-0.001578543335199356,0.006012738682329655,0.012949645519256592,-0.004676442593336105,-0.0614670068025589,0.008323881775140762,0.006389502435922623,0.010756604373455048,0.0028186580166220665,0.0053728483617305756,0.004373502917587757,-0.005047553218901157,0.011937802657485008,-0.013336341828107834,0.03568378463387489,0.001514878123998642,-0.004264505580067635,-0.00352548249065876,0.018695365637540817,-0.014824949204921722,0.008773146197199821,0.03772755339741707,-0.006980803795158863,0.0037936787120997906,-0.0057791173458099365,0.006672339513897896,-0.004579413216561079,0.004972342401742935,0.011151108890771866,-0.006312954239547253,-0.003089761361479759,0.008921610191464424,-0.01012841984629631,0.005950941704213619,0.030099526047706604,0.007787477225065231,0.005282954778522253,-0.016706306487321854,0.005940072238445282,0.003216208890080452,0.0010479576885700226,0.00898346770554781,0.005530398339033127,0.007938457652926445,0.0010729776695370674,-0.03408132493495941,0.0032914653420448303,0.0395113006234169,0.0005006417632102966,-0.037177231162786484,0.0021077189594507217,0.008375062607228756,0.0017044935375452042,0.0027494789101183414,-0.002057182602584362,0.006037913262844086,0.006891630589962006,0.0016073770821094513,0.00793986301869154,0.01104656420648098,0.0070500448346138,-0.005984435323625803,0.007384052965790033,0.0026356037706136703,0.0015688128769397736,0.009788770228624344,0.006614133715629578,0.011188037693500519,0.002145548351109028,-0.010734815150499344,-0.01513835322111845,-0.005578403361141682,-0.0005615353584289551,0.044946763664484024,-0.004345186986029148,-0.007095480337738991,-0.0011514993384480476,0.0011518560349941254,0.010268952697515488,-0.013700169511139393,-0.002154933288693428,0.0038186758756637573,0.0037055108696222305,0.001044413074851036,0.010894814506173134,-0.008571552112698555,0.01098530925810337,-0.02643856592476368,0.005644713528454304,0.000450886320322752,0.006380254402756691,-0.007664859294891357,-0.008703187108039856,0.0056533850729465485,0.0022532553412020206,-0.001230340451002121,-0.003306782804429531,-0.000380687415599823,0.031102463603019714,0.00732402503490448,0.0024146977812051773,-0.0005608480423688889,0.004569405689835548,-0.0009648213163018227,-0.0006395461969077587,-0.4734548330307007,0.00652212742716074,0.0029944926500320435,-0.0009617842733860016,-0.014442558400332928,0.007410240359604359,-0.005881289020180702,0.0020744996145367622,-0.003686385229229927,-0.00042939651757478714,0.0015373900532722473,0.006435993127524853,-0.0004943925887346268,0.013506129384040833,0.0027224826626479626,-0.022325390949845314,0.008167335763573647,0.007894497364759445,-0.0025065112859010696,-0.0008749403059482574,-0.5465454459190369,-0.023942437022924423,-0.003260290250182152,0.038596026599407196,-6.454018875956535e-05,-0.002167787402868271,-0.010728912428021431,0.021168667823076248,0.004922162275761366,0.05685041844844818,-0.001847974956035614,0.0047921594232320786,-0.01373148150742054,0.0069902800023555756,-0.002673822920769453,0.0025978349149227142,0.0016836975701153278,0.01760884001851082,-1.375765323638916,-0.020547114312648773,0.005219575017690659,0.004198428709059954,0.015280172228813171,0.03489706292748451,-0.013615047559142113,-0.0006212815642356873,0.005233536474406719,-5.413684993982315e-05,-0.004441891796886921,0.030316147953271866,-0.021054577082395554,-0.01118868961930275,0.008425705134868622,0.027487250044941902,0.013553191907703876,-0.007081883959472179,-0.004635516554117203,-0.02861599624156952,-0.014712385833263397,0.026827871799468994,0.002526596188545227,-0.002458863891661167,0.004456099588423967,-0.005983562208712101,0.0037095919251441956,0.0001502297818660736,-0.0035258233547210693,-0.00964474119246006,0.011798487976193428,0.007158312946557999,-0.0006731478497385979,-0.01134434249252081,-0.006909840740263462,0.036142490804195404,0.008892033249139786,-0.0008152006193995476,0.00304980855435133,-0.0037834413815289736,-0.19602060317993164,-0.0012320932000875473,0.008792448788881302,0.018946189433336258,0.006090156733989716,-0.04064524173736572,-0.009999137371778488,-0.008038653060793877,0.0038592256605625153,0.009117123670876026,-0.0029445551335811615,-0.012481195852160454,0.031067607924342155,-1.6995548009872437,0.022263195365667343,0.024675004184246063,-0.0033632395789027214,0.0514088049530983,0.011284088715910912,0.000337481964379549,0.0005111140199005604,-0.004739318508654833,-0.004796047694981098,-0.00660376250743866,0.016597438603639603,0.001948959194123745,0.0005435526836663485,0.05023069307208061,-0.0051156627014279366,0.008462266996502876,-0.00911729782819748,0.002982892096042633,-0.017203081399202347,-0.004565830808132887,-0.004076880402863026,0.004518153145909309,0.012093191966414452,0.006392753217369318,-0.0004161922261118889,-0.002542115282267332,0.0012484514154493809,-0.01020809356123209,0.0033626570366322994,0.04879424721002579,-0.05084950476884842,-0.011528734117746353,0.013197824358940125,0.005217897240072489,2.9827022552490234,0.002098832279443741,0.018009740859270096,-0.005220595747232437,0.009819167666137218,-0.008418381214141846,0.007633544504642487,-0.001605103723704815,0.0033308351412415504,-0.008328553289175034,-0.007733053062111139,0.02217734605073929,0.009576056152582169,0.016410812735557556,0.008335903286933899,0.0034840404987335205,0.009031788446009159,-0.007946392521262169,-0.007929813116788864,-0.0013896333985030651,-0.004289048723876476,-0.01673753187060356,-0.00036968523636460304,0.009802596643567085,0.002943156287074089,0.0054503148421645164,-0.0029105572029948235,-0.01711959019303322,-0.002147296443581581,0.003510001115500927,-0.0008397744968533516,0.0011784546077251434,0.0002790940925478935,0.005826352629810572,0.004149699583649635,-0.0040808916091918945,-0.005884098820388317,0.0044442773796617985,-0.029552383348345757,0.002708720974624157,0.008010657504200935,-0.0051743583753705025,-0.01465420238673687,0.0036632362753152847,0.001925990916788578,-0.004393062088638544,0.005948130041360855,-0.006494699511677027,-0.0011988366022706032,0.00704521918669343,0.005185454618185759,0.0005793031305074692,-0.0019322489388287067,-0.004324545152485371,-0.014061059802770615,0.0012707244604825974,4.323013126850128e-05,-0.015098277479410172,0.00038658827543258667,0.018340058624744415,-0.006242909003049135,-0.01347154751420021,-0.0007211212068796158,-0.003284655511379242,-0.004055398516356945,0.010823844000697136,-0.037998590618371964,0.00798877328634262,0.010576309636235237,-0.002188923768699169,-0.0010397471487522125,-0.008427697233855724,-1.3551746606826782,-0.003378732595592737,-0.01028238981962204,0.010858941823244095,0.0035763010382652283,0.01518016867339611,-0.0019426904618740082,-0.008940331637859344,-0.02009723335504532,0.004187177866697311,-0.023925576359033585,-0.00782855972647667,-0.012341108173131943,-0.00452343188226223,-0.02845226600766182,-0.0006835954263806343,-0.007858477532863617,-0.004932652227580547,0.0024775369092822075,-0.021446088328957558,0.0006458321586251259,0.0066318148747086525,-0.00581646803766489,-0.005429022014141083,-0.013532247394323349,0.008520825766026974,0.012086667120456696,-0.03247370570898056,0.004460902884602547,0.004324711859226227,-0.018335100263357162,0.0005611162632703781,0.004196584224700928,0.010050369426608086,-0.0008986108005046844,-0.0022163549438118935,0.014129146933555603,0.028316237032413483,0.00823020190000534,0.0060339723713696,0.04647919535636902,0.0008656373247504234,0.005663813091814518,-0.9794055223464966,0.003081502392888069,0.0012796735391020775,0.008091389201581478,-0.006529989652335644,-0.01794963702559471,0.0019686403684318066,-1.0812852382659912,0.005542389117181301,0.006926153786480427,-0.00929960049688816,-0.0028437888249754906,-0.004593227058649063,0.0004650396294891834,0.020094648003578186,0.015116928145289421,0.00786377489566803,0.0723625123500824,0.009898395277559757,-0.0028345882892608643,-0.0024454668164253235,-0.008940372616052628,-0.006921894382685423,0.0013298764824867249,-0.0012773890048265457,-0.002679186873137951,0.0020561236888170242,0.015139183029532433,0.01219429261982441,-0.01069508958607912,-0.00897975079715252,0.009170087054371834,0.0017312616109848022,0.003483051899820566,-0.033060699701309204,-0.00038277218118309975,-1.4132059812545776,0.01388530246913433,0.0012832710053771734,0.0016375621780753136,-0.007979103364050388,0.0013048741966485977,-0.021616794168949127,-0.010830646380782127,-0.04148230701684952,-1.4132291078567505,-0.0006782859563827515,-0.02827589213848114,0.006348750554025173,-0.008999167010188103,0.004481816664338112,-0.0005120981950312853,-0.010049096308648586,-0.013124429620802402,-0.002087631728500128,0.003740672953426838,-0.010857721790671349,-0.004440899007022381,0.005708896089345217,-0.0026605110615491867,-0.010644134134054184,-0.04659832641482353,-0.046742986887693405,0.004515191074460745,-0.008797876536846161,0.0036108349449932575,0.001902574673295021,-0.011019585654139519,-0.0032642073929309845,0.001997430808842182,-0.0026121996343135834,0.012640543282032013,0.0025445311330258846,0.00859406404197216,-0.009694676846265793,-0.0025217412039637566,0.030979622155427933,0.030342042446136475,0.023516975343227386,-0.003256147727370262,0.009150395169854164,0.002091828268021345,-0.0023739412426948547,-0.00618542917072773,0.002298995852470398,-0.0064878035336732864,-0.002722021657973528,0.01311163417994976,-0.007170198485255241,-0.022048965096473694,0.0019506271928548813,0.009634813293814659,-0.005411300342530012,-0.000915994867682457,-0.009026523679494858,-0.009463975206017494,-0.013175263069570065,-0.2825183868408203,-0.013661240227520466,0.011027738451957703,-0.00042169634252786636,-0.024844078347086906,0.0018675662577152252,0.009180626831948757,-0.008996966294944286,-0.016977308318018913,0.008501679636538029,0.0003700572997331619,-0.009689994156360626,-0.006438674405217171,0.014991385862231255,-0.019060907885432243,-0.00839514471590519,-0.006843723822385073,-0.00819012988358736,-0.004887407645583153,0.001916728913784027,0.006768553517758846,-0.0019460972398519516,0.002084195613861084,-0.0020936820656061172,0.007395362481474876,0.00571985449641943,0.0031095314770936966,-0.015021752566099167,-0.007631584070622921,0.0026360000483691692,-0.004576009698212147,-0.002502766437828541,0.01660539209842682,-0.0029193442314863205,-8.616596460342407e-06,0.0031880736351013184,-0.004519703332334757,0.010684052482247353,0.006927154958248138,0.003893643617630005,0.017721759155392647,-0.0023765461519360542,0.001457675825804472,0.002437356859445572,-0.0026472825556993484,-0.009882470592856407,0.00037515535950660706,-0.010648289695382118,0.004726022481918335,0.0029074465855956078,-0.006325872614979744,-0.0012014582753181458,-0.008071888238191605,-0.007428437005728483,-0.008941839449107647,-0.0051713851280510426,-0.010898220352828503,-0.003150206059217453,-0.004402313381433487,-0.004320932552218437,0.01093275099992752,-0.011975966393947601,0.005868422798812389,-0.006286944262683392,0.0050928667187690735,0.000654442235827446,-0.0005104895681142807,-0.027623368427157402,0.010059928521513939,-0.004604078829288483,-0.011766433715820312,0.003014238551259041,-0.018433308228850365,-0.0064714215695858,0.0043308669701218605,0.003701777197420597,-0.006929922848939896,0.006817890331149101,0.0060708727687597275,-0.0025225598365068436,-0.004777256399393082,0.028452357277274132,0.004789573140442371,0.001849289983510971,0.005763983353972435,0.008962355554103851,-0.7974948883056641,0.004684170242398977,-0.0006526564247906208,-0.006422786973416805,0.0057603297755122185,0.0544532835483551,0.03456396609544754,0.0012589450925588608,0.001868436112999916,-0.022039277479052544,0.011321710422635078,0.016559604555368423,-0.0013585290871560574,0.012515194714069366,-0.004866679664701223,0.025325637310743332,-0.0034301751293241978,-0.0052859727293252945,-0.00282950047403574,0.006035966798663139,-0.03628191351890564,0.0012069456279277802,0.001602567732334137,0.0077276090160012245,0.006683170795440674,-0.009419696405529976,0.005717776715755463,0.008937541395425797,0.008301593363285065,-0.012467581778764725,0.027952075004577637,0.00907516572624445,0.009159684181213379,0.01785648614168167,0.002884212415665388,-0.019160376861691475,-0.0020830202847719193,0.009461851790547371,0.012003421783447266,-0.018045537173748016,-0.001980837434530258,-0.008981861174106598,-0.020180566236376762,0.0032964670099318027,-0.005316353403031826,-0.010300055146217346,-0.005226668901741505,0.010968434624373913,0.050345391035079956,0.0043446156196296215,-0.005826975218951702,-0.008354687131941319,-0.015472495928406715,-0.02682650461792946,0.00980343297123909,0.043831199407577515,-0.0679800808429718,-0.015639564022421837,0.008527016267180443,0.013510283082723618,-0.008845871314406395,0.02195635251700878,-0.008416960015892982,0.00787113793194294,-0.010001253336668015,-0.017895810306072235,0.016890820115804672,0.019248368218541145,0.0026253527030348778,-0.00296937208622694,0.017612967640161514,0.0034331222996115685,-0.0019967984408140182,0.0013105166144669056,0.0004805270582437515,0.006746165454387665,-0.02524343878030777,-0.004183921962976456,0.004539934918284416,-0.006300761364400387,-0.005482428707182407,0.006325826048851013,-0.006204638630151749,-0.04016692191362381,0.006988508626818657,0.025801746174693108,-0.00029738666489720345,-0.0034220274537801743,0.005331000313162804,-0.007329095155000687,-0.009907998144626617,-0.0016119801439344883,-0.011266171932220459,-0.0020198412239551544,-0.04865855723619461,-0.00784357264637947,0.008828207850456238,-0.0009518982842564583,-0.000835370272397995,0.001332659274339676,-0.005462788976728916,0.0014356398023664951,0.017279013991355896,0.005217283498495817,-0.014417357742786407,0.00439197663217783,-0.0017885668203234673,0.00011344486847519875,0.01107972115278244,-0.01990065723657608,-1.2462130784988403,0.010582397691905499,0.010564569383859634,0.007417391054332256,0.0002566799521446228,0.00395301915705204,0.00880766473710537,0.002105363877490163,0.0029354188591241837,0.006888918578624725,0.014075882732868195,-0.9936755299568176,-0.0017390036955475807,0.015391141176223755,-0.00671851821243763,0.012014251202344894,0.006323089823126793,-0.003896608017385006,0.0055998265743255615,-0.011210434138774872,-0.00045609893277287483,-0.006488136947154999,-0.0016193930059671402,0.009526712819933891,-0.00022131018340587616,0.04496302083134651,-0.010705164633691311,-0.0028811711817979813,-0.00250821840018034,0.01889149658381939,0.004346329718828201,-0.008608128875494003,-0.012610560283064842,0.009230965748429298,-0.0023447489365935326,-0.0020611872896552086,-0.0024660909548401833,-0.012437724508345127,-0.0005027651786804199,-0.009061324410140514,-0.0030193207785487175,0.008335191756486893,0.005347587168216705,-0.0075207483023405075,7.412396371364594e-05,0.014605239033699036,0.012074005790054798,0.008478488773107529,-0.006145177874714136,0.009037338197231293,-0.00911054015159607,0.0029894309118390083,-0.012052200734615326,0.0066595557145774364,1.5581227540969849,-0.0006798692047595978,0.0007993537001311779,0.015204176306724548,-0.0055713653564453125,-0.018848080188035965,0.014408145099878311,0.005472621880471706,-0.0024805068969726562,0.032296717166900635,-0.002896730788052082,-0.0015849396586418152,0.002653696108609438,-0.00498997000977397,0.024961814284324646,0.0002853758633136749,-0.0017552245408296585,-0.003535030409693718,0.010901693254709244,-0.015432072803378105,0.020278804004192352,-0.006144502200186253,0.006747569888830185,0.0976705402135849,0.016338743269443512,0.02351549081504345,0.010589913465082645,-0.014983531087636948,-0.008654584176838398,0.0126908328384161,-0.005956294015049934,0.01124008558690548,0.030821219086647034,0.009416840970516205,-0.008440947160124779,0.004419743083417416,-0.008882319554686546,-0.004078647121787071,0.005972797982394695,0.017109647393226624,-1.1868774890899658e-05,-0.005540121346712112,0.0033813295885920525,0.0037625012919306755,0.007997430860996246,0.00442114844918251,0.0030141472816467285,0.010433431714773178,-0.0019756630063056946,-0.017250733450055122,-0.01875886134803295,-0.015230486169457436,0.0008881185203790665,-0.0035278135910630226,0.007955414243042469,-0.019167909398674965,0.00704423151910305,-0.003278374671936035,-0.005657350644469261,-0.001835312694311142,0.00920010544359684,0.004325743764638901,-0.002843078225851059,-0.0010144542902708054,-0.01050372701138258,0.004832543432712555,-0.007955334149301052,0.001605716533958912,-0.005540773272514343,-0.003008279949426651,0.03218310326337814,-0.006366413086652756,-1.408365249633789,-0.04306913912296295,-0.03017418645322323,-0.01169499009847641,0.0005351821891963482,-0.0015074657276272774,0.002065913751721382,-0.009033914655447006,0.0026712566614151,-0.0016583357937633991,0.0037678582593798637,-0.0073379650712013245,0.001318364404141903,-0.011467231437563896,0.011767126619815826,0.0003599957562983036,0.00607077032327652,0.018501076847314835,-0.0016977908089756966,0.002109467051923275,0.010726667940616608,-0.004239249974489212,-0.004411487840116024,-0.017722543329000473,0.019052742049098015,0.007600401993840933,0.002547827549278736,-0.01283523440361023,0.00604236638173461,0.000642821192741394,0.0035905949771404266,0.008156342431902885,0.002868018113076687,-0.0013759881258010864,0.006285667419433594,0.0016867313534021378,-0.014385715126991272,-0.00042385049164295197,0.010359548032283783,0.01110907644033432,0.023110803216695786,-0.005142471753060818,-9.696884080767632e-05,0.0038430579006671906,0.0764719545841217,-0.0025608204305171967,0.010233249515295029,0.005234960466623306,0.001575628761202097,-0.007138095796108246,-0.006393095478415489,0.0028907167725265026,-0.006629103794693947,0.006750898435711861,0.001550678163766861,-0.006229005753993988,0.00491421390324831,0.0048369150608778,0.011007553897798061,0.004589173477143049,-0.004016231745481491,0.0035913255997002125,-0.007976071909070015,0.008603204041719437,0.017385663464665413,0.0036824168637394905,0.0013599172234535217,0.008300025016069412,0.02052665688097477,-0.0192093588411808,-0.0009502405300736427,0.010663220658898354,-0.007994553074240685,-0.007081710267812014,0.0014034928753972054,-6.353948265314102e-06,-0.00280330004170537,-0.0044063604436814785,0.02045866847038269,-0.0019517606124281883,-0.005302466452121735,0.0010181069374084473,0.009303280152380466,-0.014826478436589241,7.66814046073705e-05,-0.0062109362334012985,-0.001218767836689949,-0.009030232205986977,-0.003533377777785063,-0.009460060857236385,-0.0036633238196372986,0.011682712472975254,-0.007648898288607597,-0.003790554590523243,0.0029634032398462296,-0.022768814116716385,0.008453678339719772,0.0029209437780082226,0.00865659024566412,0.0013223234564065933,8.216593414545059e-05,-1.1720681190490723,0.006371496245265007,-0.0021566543728113174,-0.007566222455352545,-0.01254227664321661,0.016961339861154556,-0.007467974908649921,-0.0127143869176507,0.010670692659914494,-0.0070717656053602695,0.005003485828638077,-0.0038487575948238373,-0.006464140489697456,0.004663337022066116,-0.013215928338468075,0.008931249380111694,-0.00292099267244339,-0.005261475685983896,-0.01675773411989212,0.0012500379234552383,-0.012007360346615314,0.023508258163928986,-0.006843702867627144,0.00891168788075447,3.8936734199523926e-05,-0.0012079998850822449,0.002840498462319374,-0.021610520780086517,-0.0034477291628718376,-0.0006414754316210747,-0.0006572436541318893,0.0007950011640787125,-0.009081220254302025,0.0007337722927331924,-0.011017577722668648,-0.0034386776387691498,-0.015114808455109596,0.0032558823004364967,-0.0005576517432928085,-0.0007743723690509796,0.001561194658279419,0.003390079364180565,0.014195871539413929,0.010524341836571693,-0.000332443043589592,-0.0004498464986681938,-0.002257698215544224,-0.07646357268095016,-0.00849003717303276,0.02994753234088421,-0.0072029270231723785,-0.023450225591659546,0.010026790201663971,-0.007329815998673439,0.005349180661141872,-0.004284504801034927,-0.006059269420802593,0.0015799254179000854,-0.0003262525424361229,0.004631704185158014,0.007379630580544472,0.013681255280971527,-0.06331181526184082,0.00036360323429107666,0.007041309028863907,-0.005725463852286339,-0.012854100205004215,0.02033933252096176,0.0055204154923558235,-0.028032900765538216,0.006254546344280243,0.010383810847997665,0.005351722706109285,-0.007740214467048645,0.01915331929922104,-0.0023197531700134277,-0.0034625791013240814,-0.013001391664147377,0.034116972237825394,-0.004022868350148201,0.0010460633784532547,0.004375649616122246,0.0002735918387770653,0.02006468176841736,-0.0037171216681599617,-0.00995996780693531,-0.00441050436347723,0.0002659037709236145,-0.060566261410713196,-0.015185914933681488,0.01776757836341858,-0.017789894714951515,0.01438138261437416,0.00023929844610393047,0.007910468615591526,0.008203784003853798,-0.00344780832529068,0.006446103565394878,-0.011217297986149788,-0.0014253556728363037,-0.0021963752806186676,0.0027190344408154488,-0.054619431495666504,0.0016238121315836906,-0.004265367519110441,-0.0018087588250637054,0.0009620906785130501,0.00704618263989687,-0.0009101834148168564,-0.0015685283578932285,-0.012305254116654396,-0.0018405439332127571,-0.04636933654546738,-0.006592723075300455,0.023799799382686615,0.007968101650476456,0.0025412929244339466,-0.0001854225993156433,0.002193608321249485,-0.005697247572243214,-0.004084371030330658,-0.002644212916493416,-0.0005404995754361153,0.0010279826819896698,-0.0038099377416074276,-0.006236741319298744,0.008258543908596039,-0.0006374148651957512,-0.005265169311314821,-0.00763835571706295,-0.00841551274061203,0.0014369916170835495,-0.001817537471652031,0.0026638181880116463,0.021019458770751953,-0.001724564004689455,0.037642404437065125,0.011842109262943268,-0.002363167703151703,-0.0063065760768949986,-0.0027982909232378006,-0.01767495647072792,0.009734174236655235,-0.002599218860268593,0.006128999404609203,-0.022913333028554916,0.004969404079020023,0.010326962918043137,-0.024237770587205887,0.01789899170398712,0.0069804079830646515,-0.002270546741783619,0.016901135444641113,-0.010540065355598927,-0.006837654858827591,-0.0031519271433353424,0.00731784850358963,-0.007686274126172066,-0.005687414668500423,0.004953248426318169,0.00889207236468792,-0.004566988907754421,-0.023242425173521042,0.011853726580739021,0.07288146018981934,-0.00665595568716526,-0.0012962957844138145,0.0029343068599700928,0.01794406957924366,-0.005442538298666477,-0.004665824584662914,-0.032289665192365646,0.008959053084254265,0.003669365309178829,0.00802096351981163,0.004330309107899666,-0.0022339746356010437,0.025512393563985825,-0.009668643586337566,0.0009415401145815849,-0.0007288642227649689,0.0021521379239857197,0.00519019179046154,-0.0728030800819397,-0.008597210980951786,-0.0002183942124247551,0.008838500827550888,-0.001138568390160799,0.04477535933256149,0.025265255942940712,-0.025451933965086937,-0.006542671471834183,-0.008726108819246292,-0.010323541238904,0.0034791044890880585,-0.0026721134781837463,-0.0010352353565394878,0.012522991746664047,0.015041152015328407,0.003180419560521841,-0.00019266270101070404,0.0014648828655481339,0.007141713984310627,0.0034281061962246895,-0.003766104578971863,-0.018301397562026978,-0.009596975520253181,-0.01287875697016716,0.02969297766685486,0.009390976279973984,0.012485504150390625,0.04555510729551315,-0.00439602741971612,-0.008559811860322952,0.00556519627571106,-0.03393618017435074,-0.0047144219279289246,-0.005151594989001751,-0.0096869096159935,-0.004245858173817396,0.01602030172944069,-0.010586854070425034,0.01361144706606865,0.007390451617538929,0.008011742495000362,0.013461971655488014,0.0052885450422763824,-0.007537080906331539,0.01134190522134304,0.006654532626271248,0.012748096138238907,0.03006923943758011,-0.014184114523231983,-0.019842445850372314,-0.02461250312626362,0.003407727926969528,-0.06042483448982239,-0.016317594796419144,0.005062000826001167,0.01382054015994072,0.004072152078151703,0.0038251634687185287,-0.0018733125180006027,-2.0784807205200195,-0.019337959587574005,-0.01477639377117157,0.025366559624671936,-0.00858917273581028,0.012362515553832054,-0.0004930794239044189,0.005451595410704613,0.004383299499750137,0.019661620259284973,0.0015471265651285648,-0.003358408808708191,-0.014828583225607872,-0.052519530057907104,-0.0033909380435943604,-0.012200433760881424,0.0006345462752506137,0.009044271893799305,-0.0010088668204843998,0.0025793612003326416,-0.062361255288124084,-0.0024974122643470764,-0.011727361008524895,-0.02110181376338005,-0.010243723168969154,-0.01959518902003765,-0.013997122645378113,0.043159373104572296,-0.005394332110881805,0.01459323987364769,-0.0019489824771881104,0.007992614060640335,-0.007224067114293575,-0.0030228225514292717,0.003171626478433609,0.005180886946618557,0.017112715169787407,-0.0010386370122432709,0.011289394460618496,0.0032871710136532784,0.003718392923474312,0.007063087075948715,-0.002809467725455761,-0.053992919623851776,-0.005985427647829056,0.004033233039081097,-0.01732979714870453,0.0042269062250852585,0.021380651742219925,-0.006454518064856529,0.01983969658613205,-0.014621961861848831,-0.011980113573372364,-0.0035006324760615826,0.015729326754808426,0.010894766077399254,0.0012518009170889854,0.03562597185373306,-0.0018747122958302498,-0.0011400394141674042,-0.061674606055021286,0.014993911609053612,0.0012792348861694336,-0.0011257883161306381,-0.005639723967760801,0.013755083084106445,0.0019395607523620129,0.027423880994319916,-0.017366748303174973,0.033417489379644394,-0.011291205883026123,0.011845806613564491,-0.011469516903162003,0.0021902546286582947,0.012245597317814827,0.003289475105702877,-0.02982260100543499,0.02150086686015129,0.0022931601852178574,0.00831402838230133,-0.0007073655724525452,0.0010825516656041145,-0.0022190376184880733,0.011794766411185265,0.04051145166158676,-0.0063477251678705215,-0.027085520327091217,0.015749245882034302,-0.0019018836319446564,0.06232468783855438,0.010520420037209988,-0.007805993780493736,-0.0075978972017765045,-0.005009666085243225,0.005933266133069992,0.0016502626240253448,0.00196724571287632,0.0014376603066921234,0.0073912800289690495,0.020675834268331528,-0.019442878663539886,-0.003244709223508835,-0.01363765075802803,0.0027864081785082817,-0.004583748057484627,0.0030583315528929234,0.002524620620533824,-0.03807438910007477,0.0037909885868430138,-0.0072665442712605,-0.038119666278362274,-0.005719872657209635,-0.004288916476070881,0.047982580959796906,-0.00016860291361808777,-0.002802301198244095,-0.0037616295740008354,-0.006782871205359697,-0.032647982239723206,0.002918524667620659,0.02001524716615677,0.0009652180597186089,-0.031151797622442245,-0.0018850145861506462,-0.008898699656128883,0.02704966627061367,-0.022149939090013504,-0.017346376553177834,0.02716713584959507,-0.004592868499457836,-0.010886218398809433,-0.003052372485399246,0.0013617873191833496,-0.02941468358039856,0.023886477574706078,0.0004420308396220207,-0.06360147893428802,-0.0124221071600914,0.000616829376667738,0.0070510441437363625,-0.005649578757584095,0.002525128424167633,-0.007031839340925217,-0.0008148970082402229,0.030537698417901993,-0.012695243582129478,-0.002149769105017185,0.008056670427322388,0.010220402851700783,0.011299552395939827,-0.017147835344076157,-0.007283484097570181,0.002257498912513256,-0.0008019963279366493,-0.028034739196300507,0.030708886682987213,-0.002101273275911808,0.0020083561539649963,0.0022552600130438805,0.02412119135260582,0.012541886419057846,0.030870307236909866,-0.010042275302112103,-0.008993742056190968,-0.007735999301075935,-0.006417284719645977,0.02825075201690197,-0.014757324941456318,-0.03091992251574993,0.002133280038833618,-0.38867461681365967,0.032097458839416504,-0.011292623355984688,0.010329646989703178,0.0013196449726819992,-0.016020899638533592,0.0011934651993215084,-0.035101454704999924,-0.006376318633556366,0.0023133764043450356,0.07118427008390427,0.02117890864610672,8.193636313080788e-05,0.0006709182634949684,-0.010590526275336742,0.03598718345165253,0.0032484270632267,0.004535752348601818,0.004813730716705322,0.015809744596481323,-0.0049964068457484245,-0.0003337622620165348,0.007435724139213562,-0.009272877126932144,0.0019454695284366608,0.0005288207903504372,0.004703350365161896,