,0,1,2,3,4,5,6,7,8,9,10,11,12,13,14,15,16,17,18,19,20,21,22,23,24,25,26,27,28,29,30,31,32,33,34,35,36,37,38,39,40,41,42,43,44,45,46,47,48,49,50,51,52,53,54,55,56,57,58,59,60,61,62,63,64,65,66,67,68,69,70,71,72,73,74,75,76,77,78,79,80,81,82,83,84,85,86,87,88,89,90,91,92,93,94,95,96,97,98,99,100,101,102,103,104,105,106,107,108,109,110,111,112,113,114,115,116,117,118,119,120,121,122,123,124,125,126,127,128,129,130,131,132,133,134,135,136,137,138,139,140,141,142,143,144,145,146,147,148,149,150,151,152,153,154,155,156,157,158,159,160,161,162,163,164,165,166,167,168,169,170,171,172,173,174,175,176,177,178,179,180,181,182,183,184,185,186,187,188,189,190,191,192,193,194,195,196,197,198,199,200,201,202,203,204,205,206,207,208,209,210,211,212,213,214,215,216,217,218,219,220,221,222,223,224,225,226,227,228,229,230,231,232,233,234,235,236,237,238,239,240,241,242,243,244,245,246,247,248,249,250,251,252,253,254,255,256,257,258,259,260,261,262,263,264,265,266,267,268,269,270,271,272,273,274,275,276,277,278,279,280,281,282,283,284,285,286,287,288,289,290,291,292,293,294,295,296,297,298,299,300,301,302,303,304,305,306,307,308,309,310,311,312,313,314,315,316,317,318,319,320,321,322,323,324,325,326,327,328,329,330,331,332,333,334,335,336,337,338,339,340,341,342,343,344,345,346,347,348,349,350,351,352,353,354,355,356,357,358,359,360,361,362,363,364,365,366,367,368,369,370,371,372,373,374,375,376,377,378,379,380,381,382,383,384,385,386,387,388,389,390,391,392,393,394,395,396,397,398,399,400,401,402,403,404,405,406,407,408,409,410,411,412,413,414,415,416,417,418,419,420,421,422,423,424,425,426,427,428,429,430,431,432,433,434,435,436,437,438,439,440,441,442,443,444,445,446,447,448,449,450,451,452,453,454,455,456,457,458,459,460,461,462,463,464,465,466,467,468,469,470,471,472,473,474,475,476,477,478,479,480,481,482,483,484,485,486,487,488,489,490,491,492,493,494,495,496,497,498,499,500,501,502,503,504,505,506,507,508,509,510,511,512,513,514,515,516,517,518,519,520,521,522,523,524,525,526,527,528,529,530,531,532,533,534,535,536,537,538,539,540,541,542,543,544,545,546,547,548,549,550,551,552,553,554,555,556,557,558,559,560,561,562,563,564,565,566,567,568,569,570,571,572,573,574,575,576,577,578,579,580,581,582,583,584,585,586,587,588,589,590,591,592,593,594,595,596,597,598,599,600,601,602,603,604,605,606,607,608,609,610,611,612,613,614,615,616,617,618,619,620,621,622,623,624,625,626,627,628,629,630,631,632,633,634,635,636,637,638,639,640,641,642,643,644,645,646,647,648,649,650,651,652,653,654,655,656,657,658,659,660,661,662,663,664,665,666,667,668,669,670,671,672,673,674,675,676,677,678,679,680,681,682,683,684,685,686,687,688,689,690,691,692,693,694,695,696,697,698,699,700,701,702,703,704,705,706,707,708,709,710,711,712,713,714,715,716,717,718,719,720,721,722,723,724,725,726,727,728,729,730,731,732,733,734,735,736,737,738,739,740,741,742,743,744,745,746,747,748,749,750,751,752,753,754,755,756,757,758,759,760,761,762,763,764,765,766,767,768,769,770,771,772,773,774,775,776,777,778,779,780,781,782,783,784,785,786,787,788,789,790,791,792,793,794,795,796,797,798,799,800,801,802,803,804,805,806,807,808,809,810,811,812,813,814,815,816,817,818,819,820,821,822,823,824,825,826,827,828,829,830,831,832,833,834,835,836,837,838,839,840,841,842,843,844,845,846,847,848,849,850,851,852,853,854,855,856,857,858,859,860,861,862,863,864,865,866,867,868,869,870,871,872,873,874,875,876,877,878,879,880,881,882,883,884,885,886,887,888,889,890,891,892,893,894,895,896,897,898,899,900,901,902,903,904,905,906,907,908,909,910,911,912,913,914,915,916,917,918,919,920,921,922,923,924,925,926,927,928,929,930,931,932,933,934,935,936,937,938,939,940,941,942,943,944,945,946,947,948,949,950,951,952,953,954,955,956,957,958,959,960,961,962,963,964,965,966,967,968,969,970,971,972,973,974,975,976,977,978,979,980,981,982,983,984,985,986,987,988,989,990,991,992,993,994,995,996,997,998,999,1000,1001,1002,1003,1004,1005,1006,1007,1008,1009,1010,1011,1012,1013,1014,1015,1016,1017,1018,1019,1020,1021,1022,1023,1024,1025,1026,1027,1028,1029,1030,1031,1032,1033,1034,1035,1036,1037,1038,1039,1040,1041,1042,1043,1044,1045,1046,1047,1048,1049,1050,1051,1052,1053,1054,1055,1056,1057,1058,1059,1060,1061,1062,1063,1064,1065,1066,1067,1068,1069,1070,1071,1072,1073,1074,1075,1076,1077,1078,1079,1080,1081,1082,1083,1084,1085,1086,1087,1088,1089,1090,1091,1092,1093,1094,1095,1096,1097,1098,1099,1100,1101,1102,1103,1104,1105,1106,1107,1108,1109,1110,1111,1112,1113,1114,1115,1116,1117,1118,1119,1120,1121,1122,1123,1124,1125,1126,1127,1128,1129,1130,1131,1132,1133,1134,1135,1136,1137,1138,1139,1140,1141,1142,1143,1144,1145,1146,1147,1148,1149,1150,1151,1152,1153,1154,1155,1156,1157,1158,1159,1160,1161,1162,1163,1164,1165,1166,1167,1168,1169,1170,1171,1172,1173,1174,1175,1176,1177,1178,1179,1180,1181,1182,1183,1184,1185,1186,1187,1188,1189,1190,1191,1192,1193,1194,1195,1196,1197,1198,1199,1200,1201,1202,1203,1204,1205,1206,1207,1208,1209,1210,1211,1212,1213,1214,1215,1216,1217,1218,1219,1220,1221,1222,1223,1224,1225,1226,1227,1228,1229,1230,1231,1232,1233,1234,1235,1236,1237,1238,1239,1240,1241,1242,1243,1244,1245,1246,1247,1248,1249,1250,1251,1252,1253,1254,1255,1256,1257,1258,1259,1260,1261,1262,1263,1264,1265,1266,1267,1268,1269,1270,1271,1272,1273,1274,1275,1276,1277,1278,1279,1280,1281,1282,1283,1284,1285,1286,1287,1288,1289,1290,1291,1292,1293,1294,1295,1296,1297,1298,1299,1300,1301,1302,1303,1304,1305,1306,1307,1308,1309,1310,1311,1312,1313,1314,1315,1316,1317,1318,1319,1320,1321,1322,1323,1324,1325,1326,1327,1328,1329,1330,1331,1332,1333,1334,1335,1336,1337,1338,1339,1340,1341,1342,1343,1344,1345,1346,1347,1348,1349,1350,1351,1352,1353,1354,1355,1356,1357,1358,1359,1360,1361,1362,1363,1364,1365,1366,1367,1368,1369,1370,1371,1372,1373,1374,1375,1376,1377,1378,1379,1380,1381,1382,1383,1384,1385,1386,1387,1388,1389,1390,1391,1392,1393,1394,1395,1396,1397,1398,1399,1400,1401,1402,1403,1404,1405,1406,1407,1408,1409,1410,1411,1412,1413,1414,1415,1416,1417,1418,1419,1420,1421,1422,1423,1424,1425,1426,1427,1428,1429,1430,1431,1432,1433,1434,1435,1436,1437,1438,1439,1440,1441,1442,1443,1444,1445,1446,1447,1448,1449,1450,1451,1452,1453,1454,1455,1456,1457,1458,1459,1460,1461,1462,1463,1464,1465,1466,1467,1468,1469,1470,1471,1472,1473,1474,1475,1476,1477,1478,1479,1480,1481,1482,1483,1484,1485,1486,1487,1488,1489,1490,1491,1492,1493,1494,1495,1496,1497,1498,1499,1500,1501,1502,1503,1504,1505,1506,1507,1508,1509,1510,1511,1512,1513,1514,1515,1516,1517,1518,1519,1520,1521,1522,1523,1524,1525,1526,1527,1528,1529,1530,1531,1532,1533,1534,1535,1536,1537,1538,1539,1540,1541,1542,1543,1544,1545,1546,1547,1548,1549,1550,1551,1552,1553,1554,1555,1556,1557,1558,1559,1560,1561,1562,1563,1564,1565,1566,1567,1568,1569,1570,1571,1572,1573,1574,1575,1576,1577,1578,1579,1580,1581,1582,1583,1584,1585,1586,1587,1588,1589,1590,1591,1592,1593,1594,1595,1596,1597,1598,1599,1600,1601,1602,1603,1604,1605,1606,1607,1608,1609,1610,1611,1612,1613,1614,1615,1616,1617,1618,1619,1620,1621,1622,1623,1624,1625,1626,1627,1628,1629,1630,1631,1632,1633,1634,1635,1636,1637,1638,1639,1640,1641,1642,1643,1644,1645,1646,1647,1648,1649,1650,1651,1652,1653,1654,1655,1656,1657,1658,1659,1660,1661,1662,1663,1664,1665,1666,1667,1668,1669,1670,1671,1672,1673,1674,1675,1676,1677,1678,1679,1680,1681,1682,1683,1684,1685,1686,1687,1688,1689,1690,1691,1692,1693,1694,1695,1696,1697,1698,1699,1700,1701,1702,1703,1704,1705,1706,1707,1708,1709,1710,1711,1712,1713,1714,1715,1716,1717,1718,1719,1720,1721,1722,1723,1724,1725,1726,1727,1728,1729,1730,1731,1732,1733,1734,1735,1736,1737,1738,1739,1740,1741,1742,1743,1744,1745,1746,1747,1748,1749,1750,1751,1752,1753,1754,1755,1756,1757,1758,1759,1760,1761,1762,1763,1764,1765,1766,1767,1768,1769,1770,1771,1772,1773,1774,1775,1776,1777,1778,1779,1780,1781,1782,1783,1784,1785,1786,1787,1788,1789,1790,1791,1792,1793,1794,1795,1796,1797,1798,1799,1800,1801,1802,1803,1804,1805,1806,1807,1808,1809,1810,1811,1812,1813,1814,1815,1816,1817,1818,1819,1820,1821,1822,1823,1824,1825,1826,1827,1828,1829,1830,1831,1832,1833,1834,1835,1836,1837,1838,1839,1840,1841,1842,1843,1844,1845,1846,1847,1848,1849,1850,1851,1852,1853,1854,1855,1856,1857,1858,1859,1860,1861,1862,1863,1864,1865,1866,1867,1868,1869,1870,1871,1872,1873,1874,1875,1876,1877,1878,1879,1880,1881,1882,1883,1884,1885,1886,1887,1888,1889,1890,1891,1892,1893,1894,1895,1896,1897,1898,1899,1900,1901,1902,1903,1904,1905,1906,1907,1908,1909,1910,1911,1912,1913,1914,1915,1916,1917,1918,1919,1920,1921,1922,1923,1924,1925,1926,1927,1928,1929,1930,1931,1932,1933,1934,1935,1936,1937,1938,1939,1940,1941,1942,1943,1944,1945,1946,1947,1948,1949,1950,1951,1952,1953,1954,1955,1956,1957,1958,1959,1960,1961,1962,1963,1964,1965,1966,1967,1968,1969,1970,1971,1972,1973,1974,1975,1976,1977,1978,1979,1980,1981,1982,1983,1984,1985,1986,1987,1988,1989,1990,1991,1992,1993,1994,1995,1996,1997,1998,1999,2000,2001,2002,2003,2004,2005,2006,2007,2008,2009,2010,2011,2012,2013,2014,2015,2016,2017,2018,2019,2020,2021,2022,2023,2024,2025,2026,2027,2028,2029,2030,2031,2032,2033,2034,2035,2036,2037,2038,2039,2040,2041,2042,2043,2044,2045,2046,2047,2048,2049,2050,2051,2052,2053,2054,2055,2056,2057,2058,2059,2060,2061,2062,2063,2064,2065,2066,2067,2068,2069,2070,2071,2072,2073,2074,2075,2076,2077,2078,2079,2080,2081,2082,2083,2084,2085,2086,2087,2088,2089,2090,2091,2092,2093,2094,2095,2096,2097,2098,2099,2100,2101,2102,2103,2104,2105,2106,2107,2108,2109,2110,2111,2112,2113,2114,2115,2116,2117,2118,2119,2120,2121,2122,2123,2124,2125,2126,2127,2128,2129,2130,2131,2132,2133,2134,2135,2136,2137,2138,2139,2140,2141,2142,2143,2144,2145,2146,2147,2148,2149,2150,2151,2152,2153,2154,2155,2156,2157,2158,2159,2160,2161,2162,2163,2164,2165,2166,2167,2168,2169,2170,2171,2172,2173,2174,2175,2176,2177,2178,2179,2180,2181,2182,2183,2184,2185,2186,2187,2188,2189,2190,2191,2192,2193,2194,2195,2196,2197,2198,2199,2200,2201,2202,2203,2204,2205,2206,2207,2208,2209,2210,2211,2212,2213,2214,2215,2216,2217,2218,2219,2220,2221,2222,2223,2224,2225,2226,2227,2228,2229,2230,2231,2232,2233,2234,2235,2236,2237,2238,2239,2240,2241,2242,2243,2244,2245,2246,2247,2248,2249,2250,2251,2252,2253,2254,2255,2256,2257,2258,2259,2260,2261,2262,2263,2264,2265,2266,2267,2268,2269,2270,2271,2272,2273,2274,2275,2276,2277,2278,2279,2280,2281,2282,2283,2284,2285,2286,2287,2288,2289,2290,2291,2292,2293,2294,2295,2296,2297,2298,2299,2300,2301,2302,2303,2304,2305,2306,2307,2308,2309,2310,2311,2312,2313,2314,2315,2316,2317,2318,2319,2320,2321,2322,2323,2324,2325,2326,2327,2328,2329,2330,2331,2332,2333,2334,2335,2336,2337,2338,2339,2340,2341,2342,2343,2344,2345,2346,2347,2348,2349,2350,2351,2352,2353,2354,2355,2356,2357,2358,2359,2360,2361,2362,2363,2364,2365,2366,2367,2368,2369,2370,2371,2372,2373,2374,2375,2376,2377,2378,2379,2380,2381,2382,2383,2384,2385,2386,2387,2388,2389,2390,2391,2392,2393,2394,2395,2396,2397,2398,2399,2400,2401,2402,2403,2404,2405,2406,2407,2408,2409,2410,2411,2412,2413,2414,2415,2416,2417,2418,2419,2420,2421,2422,2423,2424,2425,2426,2427,2428,2429,2430,2431,2432,2433,2434,2435,2436,2437,2438,2439,2440,2441,2442,2443,2444,2445,2446,2447,2448,2449,2450,2451,2452,2453,2454,2455,2456,2457,2458,2459,2460,2461,2462,2463,2464,2465,2466,2467,2468,2469,2470,2471,2472,2473,2474,2475,2476,2477,2478,2479,2480,2481,2482,2483,2484,2485,2486,2487,2488,2489,2490,2491,2492,2493,2494,2495,2496,2497,2498,2499,2500,2501,2502,2503,2504,2505,2506,2507,2508,2509,2510,2511,2512,2513,2514,2515,2516,2517,2518,2519,2520,2521,2522,2523,2524,2525,2526,2527,2528,2529,2530,2531,2532,2533,2534,2535,2536,2537,2538,2539,2540,2541,2542,2543,2544,2545,2546,2547,2548,2549,2550,2551,2552,2553,2554,2555,2556,2557,2558,2559
Q9LCC6,0.0053208824,-0.0033470306,0.011782197,-0.00863982,0.0017966996,0.007237342,-0.0015773643,-0.00038546254,-0.0023203418,-0.01520871,-0.0036187693,0.003558672,0.0058183707,0.0016042055,-0.004417397,-1.1578475,0.007197763,0.010288578,0.017566694,-0.024471167,-0.0068935435,-0.004371203,-0.008490564,-0.006932117,0.004082989,0.013073143,0.01625942,-0.032909617,0.0032282248,0.012151957,-0.0354695,-0.0028341915,-0.04171968,0.010302037,-0.024267953,0.0015575327,-0.011099929,0.0020151567,-0.021523453,-0.015714064,-0.0116707925,0.023973454,-0.005030634,-0.012694659,-0.004883653,-0.004603047,-0.013055333,-0.005137613,0.0085266605,-0.014499977,0.009064757,-0.015968572,-0.029112116,0.00832106,-0.030567626,0.018389337,0.006393035,0.0067941993,0.032234535,0.011316245,-0.002978338,-0.019484058,-0.0026677654,-0.03162574,0.0028833877,-0.0009742845,0.045201026,-0.009616015,0.016849067,0.006124898,-0.0050828364,-0.0074244887,-0.012252074,-0.016009081,0.007735209,0.12009853,-0.0060318857,0.008102252,0.007687101,0.30415276,-0.0036463677,0.010987658,-1.4273318,0.011719562,0.013818188,0.008877298,0.012475487,0.016365796,0.17944464,-0.008186162,0.01689972,-0.018418197,-0.002372249,-0.013757784,0.013499847,-0.017056385,-0.0041251495,0.0007033637,0.0062194867,-0.00027397904,0.0013299678,-0.008707402,-0.018824758,0.004420638,-0.011935677,-0.008149585,0.02039718,0.016075503,-0.005502574,-0.008864446,-0.0026153605,-0.004272923,0.0084013,-0.0016283765,0.0040397886,0.014888164,-0.0027521718,-0.01557257,-0.008366276,-0.01755898,-0.013042495,-0.016256295,-0.0016537542,0.014318355,0.007284039,0.0136362575,0.004810272,-0.00759141,-0.012882566,0.004951262,0.011353811,-0.027083594,0.012295097,0.0055721924,0.005370715,0.012646131,0.0019621532,0.0005214154,-0.008650325,-0.0026836842,-0.012751285,-0.008446138,-0.0067336396,0.020622779,0.020465098,0.011040721,0.01146666,0.0048804283,-0.010181603,0.021024212,-0.00013477728,0.011316361,-0.0014449535,-0.047022536,0.019803029,-0.001925637,-0.011558436,-0.013151708,0.0200717,-0.011886009,0.008301595,-0.002072772,0.0065178922,-0.016064044,0.001693923,-0.0047326474,0.012776738,0.008906677,0.100341186,0.0016342979,0.008948175,-0.003432156,0.008538883,-0.006547862,-0.013635851,-0.011671517,0.016365282,0.014978191,-0.008787668,0.0023185555,-0.010105707,-0.02432163,-0.009850571,0.012638815,-0.0043170513,0.010737214,0.022162374,0.011316776,0.004748621,0.005165008,0.013038648,-0.0089786295,-0.0051868353,-0.0146877095,0.0022359304,0.037420765,0.008918412,0.011173852,-0.0044516944,0.0022806176,0.0052385554,-0.010478394,0.007758703,-0.019099355,-0.016669497,-0.03193468,0.0056823213,-0.004548925,0.0008935905,-0.004998204,0.01489548,-0.0056562917,0.019613355,-0.0017315333,-0.008080276,-0.0074233934,0.010156449,-0.007172933,0.0073778597,0.014103096,0.017481385,-0.015528422,0.028351864,0.01498517,0.017319055,0.014186444,-0.015227953,-0.024801709,0.0048206947,-0.02075404,-0.011101158,-0.010682052,0.0010996223,-0.009910891,0.028258892,-0.01773799,0.012836405,0.017856125,-0.029185537,0.009492487,-0.038433157,-0.007414639,-0.0034787348,0.005313772,-0.011705202,0.6754372,0.008099098,-0.00191449,0.01588601,0.002525214,-0.00054778904,0.016725983,-0.000116868876,0.011491492,-0.0021068593,-0.0045649167,0.015454065,0.026328549,0.006356425,0.032117777,-0.009699121,0.029308027,-0.00094878534,0.024952397,0.0036063343,0.0024882932,0.0015152916,0.009125784,0.0020839737,0.009639234,0.03770425,-0.0089524565,-0.01589007,0.013694756,0.025951818,-0.01195494,-0.011875991,-0.0020083599,0.021317571,-0.0018227957,0.012022706,0.02000894,0.0012770295,0.019463189,0.0010650316,0.0122966,-0.006679602,0.006785516,-0.0079921335,-0.0013802042,-0.005382598,-0.04231897,0.002928095,0.004111114,-0.0126662105,-0.005084319,-0.0021214187,-0.0008691745,-0.0041638464,0.010019261,-0.0046422426,-0.011483092,0.01842124,-0.014286339,-0.0029924582,0.016992493,-0.0056002326,-0.013935397,-0.00670312,-0.009606795,-0.0028541423,0.017601158,0.0018098205,0.009480052,0.0073579606,-0.046396878,-0.0062826993,-0.002476959,-0.005188917,-0.013363749,0.005253119,-0.0006231647,0.008444844,0.004064871,-0.0031443043,-0.0064327717,-0.0021121227,0.0176685,0.0018380848,0.014305328,0.0005211588,-0.009166915,0.020049278,0.021103194,0.009038666,-0.0054959008,-0.0022494905,-0.015712991,-0.0006195437,0.010274967,0.006559463,0.0021427486,-0.00795612,-0.009134288,-0.016530935,-0.005232446,0.0038728886,0.017264368,-0.00015139068,0.0045515923,-0.0017348323,-1.1275618,1.614634e-05,-0.06921784,-0.017331928,0.0141618885,-0.0048687328,-0.017768553,-0.010162718,-0.0038375643,-0.016012212,-0.019405117,0.013793563,0.00026330538,0.008183792,-0.012596687,-0.019725513,0.015565582,0.006668268,-0.0022543091,-0.012415094,-1.3466666,-0.008614975,0.0011746287,0.051051952,-0.02081393,0.004878196,-0.0041527324,0.0062475875,0.02214602,0.0014150366,0.019595845,0.015700726,-0.005341108,0.001432363,-0.007416438,0.01353623,0.015221983,-0.012735911,-1.3680857,-0.028573459,0.007878065,-0.0059731505,-0.004272377,0.015879937,-0.0009840857,0.00861367,-0.0066923914,-0.003997598,0.0019548554,0.014627434,-0.021827504,0.007649578,-0.008442637,0.030965563,-0.005289048,0.0013065031,0.006217867,0.050630357,-0.02340307,0.006567251,0.014283432,0.010739752,-0.003886873,-0.010901464,-0.0037371176,-0.006644381,0.015128794,0.0059095565,-0.004575883,2.965331e-05,0.0108772535,0.009058583,0.0064698653,0.003195527,-0.0045498163,-0.012325045,0.0060442938,-0.0097227255,1.1233418,-0.015671743,0.018979495,0.01002259,-0.008992139,0.032088783,-0.008588141,0.002123651,0.0026796274,0.018213516,0.005328184,0.014885515,0.0010032356,-2.2900352,0.05207281,0.0046841837,0.01780613,0.0089959465,0.015980931,-0.0076661133,0.01062473,0.0017638044,0.011264533,-0.014163275,-0.0009512673,-0.014507154,-0.014938048,0.05370851,0.0028483868,-0.01039508,-0.0016066111,0.010091739,-0.0066992193,-0.0010865452,0.0031082435,0.016747013,0.015630139,0.0033838125,-0.007541448,-0.009440208,-0.011542086,0.009362124,-0.0007732003,0.017889481,0.02752762,-0.008406958,0.02496849,0.011318006,1.0224495,-0.0034258533,0.022120822,-0.010069156,-0.013455739,-0.0098028425,0.020805247,0.0070991935,0.014051676,-0.030002313,0.00406788,-0.013235502,0.008324441,-0.0030646212,0.025695032,0.0043077674,-0.008511838,0.009811761,-0.010761216,-0.01688612,-0.01351937,0.015453013,0.0014685798,0.017205257,0.0030447394,0.015942063,0.011424067,0.002069706,-0.008829495,-0.0040248465,-0.0015403181,-0.007837277,-0.0054702098,-0.0027711373,0.017577313,-0.0073037194,-0.020763837,-0.005329798,0.014390202,0.002717332,-0.002911225,0.004985674,0.07900461,0.012141292,0.0009995624,-0.008931283,0.006572785,0.0061774813,-0.005045115,0.014816533,-0.006867433,0.008264467,2.890476e-05,-0.009451014,-0.013658946,0.008091807,0.0073103937,-0.007667835,0.016311184,0.01368729,0.014615137,0.007527116,0.0022932952,0.009136133,0.010870621,0.01863166,-0.020726796,-0.0049832184,0.036555953,-0.0125416815,-0.0037607504,0.008568471,-2.379384,-0.005623483,-0.0115226675,0.040579032,0.00609388,-0.02489487,0.01184446,-0.023305971,-0.022684135,0.0048463903,-0.0052420273,0.01961197,-0.00787495,-0.01695609,0.015535051,-0.0067465054,0.00030272268,-0.012383208,-0.054348238,0.021086333,0.0044743773,0.016557377,-0.010836107,0.013745942,0.0052744793,0.017821876,0.0006164238,0.012015332,0.014177429,-0.018625872,-0.0246873,0.013620848,-0.0028380891,-0.0037540887,-0.016927205,-0.0179181,0.004589662,-0.010917921,-0.0025176704,-0.002124853,-0.04360252,-0.0031932853,0.011069704,-1.0090401,-0.014453391,-0.011382272,0.006087362,0.0036063548,0.0019320874,0.004293617,-1.0892265,-0.0030774972,0.019068718,-0.015108835,0.018464727,0.009232502,-0.007672362,-0.009717072,-0.016934045,0.011321012,-0.17295599,0.016048498,0.01685922,-0.0063350275,0.006971376,-0.0027998926,-0.007291384,0.004120409,0.0024058307,0.00016066991,0.00027727336,0.001969196,-0.018339122,0.0020409282,0.00664681,0.008621242,-0.0031027105,0.019452587,-0.0073129297,-0.7939359,0.007073599,-0.013755551,-0.016444847,0.0015786344,0.011253271,0.005368567,-0.00645534,-0.0012845453,-1.4031957,0.0070844367,-0.07122535,0.011256071,-0.01038434,-0.012492286,-0.007829289,0.01024952,-0.0037818719,-0.038964245,0.009123479,-0.022254797,0.013728922,-0.0052503035,0.03190403,0.0011661295,0.016549017,-0.002797399,-0.012882395,-0.0014410333,0.010979598,0.011255246,0.0032333545,-0.0013789292,0.0026594973,0.0045463834,0.02399391,-0.007331756,0.0034318315,0.00365119,-0.005606184,0.019528184,0.007284142,0.043291293,-0.014093266,-0.012106303,0.007762082,0.015082382,0.017574474,-0.020114709,-0.0029680915,0.010748108,-0.0040605403,-0.0015600706,-0.015726317,0.016932763,-0.00767316,0.0077121034,-0.0033399425,-0.016741317,0.012110714,0.0304973,-0.538813,0.021628538,-0.0008569248,0.0052982843,0.02607702,0.0104771685,-0.013447783,0.010098375,-0.0028241142,-0.001476157,0.010108966,-0.044789053,-0.013718756,0.023092965,-0.02057732,0.011378346,-0.013825478,-0.012289512,-0.017607674,-0.014395159,-0.0034701256,0.009661089,-0.017257925,-0.011463163,-0.0035621347,0.020157266,0.0037438653,-0.016919315,4.2239204e-05,-0.0058087097,-0.013443438,0.0039057685,0.0160936,0.0020154873,0.008022977,0.020358227,-0.0063525406,-0.0046335235,0.016197972,0.009713989,0.003670874,-0.015163884,0.012605452,0.004466107,-0.00987989,0.013730722,-0.0034965537,-0.010926554,0.027851824,0.011095271,-0.029276915,-0.010321703,-0.010654291,0.008258032,-0.0016712738,0.009631228,-0.005938501,0.038879026,-0.00539916,-0.020511553,0.0010904036,-0.0155106755,0.011666609,-0.009945992,-0.008718469,0.012129426,0.00991483,0.0027759443,0.001305718,-0.003202186,0.00086354045,-0.011289095,0.0014460329,-0.019902647,0.009283043,0.007409538,-0.0019445671,0.016470775,0.014970254,0.007543061,-0.0007918491,0.015994659,0.009913431,-0.0063205534,-0.009020429,0.0022468315,-2.1730847,0.0032763127,-0.010285771,-0.015717544,0.012015741,-0.0092637455,-0.019319287,0.021587491,0.0045244256,0.005186182,0.016061932,-0.007677287,-0.012626231,0.02025054,-0.008882122,-0.018413272,-0.005178218,-0.013343245,0.009211263,-0.0032078368,-0.020583956,-0.0021268837,0.009662707,-0.0413688,-0.007044561,0.009561446,0.008227378,-0.011281785,0.01633534,-0.015241061,-0.041642275,0.0085974485,0.006682772,0.01906895,-0.011962324,-0.021340987,0.00019944087,0.0028458629,0.0209268,-0.00029816106,-0.0005754903,-0.015466812,0.035202835,-0.01574514,0.00015695393,-0.015159965,0.000817433,0.04081232,-0.041544173,-0.008898985,0.021196168,-0.015499311,0.032888684,-0.0024244264,-0.0036434047,-0.041744024,-0.055248883,-0.0030742139,0.030071918,0.043286357,0.0036644614,0.04046493,-0.019905327,0.012324446,-0.009074618,0.0047143106,0.006270094,0.008744793,0.015794601,0.0029249866,0.021175247,-0.015647583,0.01310439,-0.008643131,-0.0020479038,-0.013113419,0.0135473665,0.021980513,0.010994447,-0.007779944,0.011156209,0.015931629,0.008802879,5.1410403e-05,-0.01630392,0.0029220693,-0.023533233,-0.0043523703,-0.0014766697,-0.010464823,-0.00091043767,0.0071558314,0.0030716183,-0.018840708,0.0038105543,-0.01778052,-0.004796099,0.0048195124,-0.008450634,-0.022688773,0.045866724,0.011209687,0.0009813141,-0.0005722116,-0.04800189,-0.011609879,-0.0012174719,-0.0057977047,0.010134329,0.010500709,-1.2933117,0.0012995054,-0.0023400243,0.006837284,-0.010728197,-0.00819209,0.006434019,-0.012774365,0.009194579,0.0164566,0.0279492,-2.1624427,-0.0070860507,0.0071635996,-0.005137283,0.020197384,0.010631543,-0.017647909,0.0073628984,-0.003346976,-0.015813999,-0.01373961,0.00034109037,-0.0039849207,0.0036233254,-0.02138959,0.010896177,-0.0049940366,-0.013910977,-0.019108465,0.023421515,-0.012212355,-0.0022215461,-0.0074686375,-0.010775199,0.0049576117,-0.0036241198,-0.0075339098,0.0011234144,0.02963816,0.0003020265,-0.0067944713,0.0028412268,-0.009149518,-0.012579324,0.0026605353,0.02023384,0.028681163,0.0058340365,0.018091902,-0.018294932,-0.005374577,0.019731745,0.012415756,0.9827241,0.011536573,-0.0077311373,-0.014719952,0.009141613,0.04053796,0.023736283,-0.013996233,-0.008444555,-0.003227342,0.0019095284,-0.0033279154,-0.022545177,-0.0032718116,0.026658326,0.026097719,0.016446095,0.014879303,-0.0075528454,-0.0030515399,0.042835623,-0.0094020665,0.010854347,0.031172216,0.021854892,-0.033550937,0.00032814778,0.038270228,-0.0069846883,-0.010209903,0.005935601,-0.0046761055,0.01647032,-0.006855721,-0.017231552,-0.008798368,-0.022289384,-0.013074585,-0.006991064,-0.0049555413,-0.012721203,-0.004958488,-0.022720933,0.0013327769,0.010791214,0.018813107,0.012218742,-0.00029599667,0.0049284115,-0.029577974,0.0024118507,-0.0016638134,0.0065595955,-0.016852902,-0.002689652,-0.015565693,0.00071310345,-0.0033835955,0.0012276107,-0.0043505724,-0.015852112,0.015871346,-0.010130377,-0.0056380797,0.045551147,0.02907174,0.011856814,0.003958853,-0.021562498,-0.012809372,-0.002597971,0.0033548223,-1.4308525,0.0012976713,0.023271136,-0.0027295172,0.0002661054,-0.0027947696,0.0015238859,-0.010451195,-0.03069798,-0.006916998,-0.011254026,-0.002074148,-0.009223914,-0.02021131,0.02658084,0.0032285093,0.011658769,0.014327305,-0.014060309,0.03596722,-0.00567848,-0.0186047,0.01061223,-0.0050085722,0.034425028,0.005724914,0.0059817084,0.014760572,-0.0064956937,-0.031060396,0.016053982,-0.016891448,-0.010567926,0.022033215,-0.0025186148,0.0061008083,0.0027055806,0.016702551,0.012751179,-0.002094742,0.025075696,0.0019565714,0.019414268,0.0040545575,0.022454344,-0.009917421,-0.0057069603,-0.009076981,-0.01215018,0.007085168,-0.008825762,-0.0016520846,-0.0013371799,-0.012356649,0.0022212649,-0.0069293864,0.001182681,0.003594013,0.015727734,-0.00035922788,0.001954427,-0.006259449,0.029729746,0.00491355,0.0073423777,-0.00071890745,-0.0153308725,-0.0046346337,-0.0065539796,0.048690602,-0.0066964943,-0.006825133,0.0076429043,-0.016076595,0.0108984355,-0.01126682,-0.004839986,-0.0075917877,-0.014630858,0.0010832283,0.0016650213,0.00029895455,0.014884354,-0.016536603,0.0054466343,-0.013003085,0.01418443,-0.016232077,-0.017824812,-0.01861577,0.0055676214,-0.0064622182,-0.020354703,0.0012927242,-0.027157193,-0.026863633,0.0023978287,-0.0070325597,0.014925752,0.01811685,0.0067580286,-1.175194,0.018456632,0.0034421831,0.0018361891,0.0052031754,-0.024126232,-0.0141897835,-0.001451856,0.01041382,-0.0030116895,-0.016736068,-0.0019544363,-0.0019282345,0.019872293,0.0016679368,0.0061441697,0.012512708,-0.0018952726,0.012248889,-0.009692594,-0.012811175,0.018562257,-0.020463252,-0.013496032,0.008130309,-0.0050719,-0.014648347,-0.0035239353,-0.006482159,-0.017615404,0.020019222,-0.0054799356,0.0038106274,-0.008061677,-0.013634982,0.022327166,-0.001431724,-0.008217631,-0.01880448,0.011667432,0.0068601705,-0.0115509685,0.026747338,-0.0021846471,-0.0137446085,-0.016394507,0.014282455,-0.034679048,0.0010195421,0.03215543,0.0105417315,-0.024614794,0.016917553,0.00073623704,0.017713157,0.007322289,-0.017843254,-0.0020663706,-0.008711241,-0.0058407024,-0.025297439,0.02518754,-0.024236595,-0.022905909,0.009117321,0.0067878594,0.034485083,-0.012157511,-0.011297209,0.00317311,0.012845404,0.0015054345,-0.0028085597,-0.015973562,0.04505496,-0.0046265274,-0.016835554,0.013508175,0.042746447,-0.017029226,0.013756254,-0.0063479207,0.009783199,-0.022364397,-0.0058760913,-0.0015269984,-0.0057720514,-0.0037133386,0.010413095,0.007505587,0.020064637,-0.035306413,-0.012808078,-0.003478462,-0.005337068,-0.00461209,0.003382976,-0.008980645,-0.00017530983,0.007571873,-0.012684606,0.013030574,-0.003353944,0.01092238,-0.012629385,-0.0036566346,0.017613428,0.01465668,0.0096334,0.016957402,-0.009655569,0.013474677,-0.014126869,0.017336797,-0.03500291,-0.0011376869,-0.005759617,0.005631365,-0.006888338,-0.0014900565,0.018059304,0.00421434,-0.02189594,0.01245955,-0.01900677,0.001179535,0.00884057,0.0010001773,0.013935853,-0.010081639,0.0022288933,0.0044680154,-0.01823379,0.005650798,-0.023139667,-0.0010882806,-0.0028676093,0.01258802,0.026038382,0.0021180548,0.00045198295,-0.010617042,0.0046160836,0.008510686,0.009230798,-0.008440926,0.010119326,0.011083765,-0.01936559,-0.0044211783,0.012018688,0.0051352587,0.0013131085,0.012702249,0.017762959,-0.0069092475,-0.0036590993,-0.018357117,0.0077069183,0.00036525913,0.0023228978,0.010020694,0.033474766,0.0007813545,0.061256483,0.007855002,-0.02254941,0.00902027,0.03158613,0.009937569,-0.01732529,0.008745576,0.021275803,-0.024859302,-0.008149359,0.018848794,0.002593536,0.05711204,-0.0031349645,-0.0029209494,-0.01782631,-0.010071142,-0.0055930894,-0.05832106,-0.0014151298,-0.014577332,-0.0038096718,-0.0030861674,-0.013696181,0.002725536,-0.0028650686,0.0063123186,0.0016973193,0.013538921,0.018066913,0.0032207868,-0.010793455,-9.5799565e-05,0.027973514,0.0095817605,-0.01782482,0.001019205,-0.023033343,0.008791264,-0.008812051,0.0064012036,0.011252396,0.006485261,0.04010635,-0.0027009211,0.0015071733,0.0272061,-0.017145243,-0.016379885,0.022453442,-0.041540988,0.0054688677,-0.013226453,-0.016996104,-0.024823556,0.014293828,-0.0038941693,0.006772925,-0.0047204047,0.015696943,0.022176187,0.015788728,-0.00048522418,0.009289305,0.017548079,-0.0020330653,-0.0065482184,0.011984566,-0.008077097,-0.037556883,-0.010661546,-0.031286344,-0.039309412,-0.0012078546,0.023947248,-0.009014056,-0.0009676218,0.02006499,-0.105305254,-0.010938344,-0.063807495,-0.006318746,0.008168947,0.004153289,0.075509176,-0.0041822577,-0.016278388,0.01267932,0.0019310573,0.009718131,-0.0044063423,-0.047150064,-0.0063556666,-0.019803114,0.02846326,-0.0019724295,0.012284263,0.0013526641,-0.024841938,0.009690801,-0.008191446,0.019022819,-0.0037599085,0.021791086,-0.022148317,0.06825791,0.00020739622,0.018423686,-0.006867647,0.023890719,0.005260099,0.023006156,0.008701466,0.017572064,0.017173048,-0.022364894,0.0022533662,0.0014852043,-0.020873006,-0.015224595,-0.010810158,0.013016259,-0.0028435476,0.007830315,-0.008376495,-0.00839825,0.009048553,-0.024255661,0.014553193,-0.01771499,0.012192943,0.008996559,0.0056225015,-0.002069206,0.0072304467,-0.02958206,0.010801963,0.012920866,-0.040084153,0.022780854,0.0026533343,-0.0025276816,-0.020851364,0.017818732,0.016377017,0.016826337,-0.02243103,0.023746075,-0.025648959,0.026648652,0.010388365,-0.0049610436,0.0073644966,0.016472068,0.032902893,0.082365535,-0.008134874,0.055009335,-0.024185613,-0.00042766426,0.015990103,-0.017914575,0.054052927,0.017810568,0.020725254,-0.022821419,-0.003352568,-0.030504962,0.010843206,-0.011344811,-0.006587948,0.0032213775,0.0006410107,-0.0124908015,-0.0017374782,-0.0036580572,-0.0051029813,0.019672424,-0.028174814,-0.005783,-0.02925706,-0.013411326,0.019790776,-0.00545312,0.003509454,-0.024660375,-0.0027782144,-0.01731129,0.017795283,0.007315607,-0.001465789,0.021323971,0.015309762,0.007345466,-0.012219128,-0.0033645853,-0.02303982,-0.0064313617,-0.0012801196,0.0094583975,-0.01622501,-0.008619331,-0.0036197728,0.021641921,-0.016524613,-0.0036656575,0.001593648,0.046202168,-0.0029196534,0.0087766275,0.012936955,-0.02657416,-0.009411009,-0.0033349385,-0.030745441,0.010276113,0.021491181,-0.001047998,0.0100785745,-0.015832465,0.0017759297,-0.009337963,-0.017647088,-0.0017084181,-0.008845181,-0.0069874544,0.00434017,-0.031124867,-0.0022448264,0.0051166667,-0.0028018374,-0.0062733367,-0.020160012,-0.050143853,-0.0014968147,0.023642108,0.015416507,0.014488207,-0.0046066516,-0.014796823,-0.043256823,0.0019345433,-0.0020226538,0.008098567,0.0032608798,0.006245739,-0.02687949,0.0006159954,-0.7569439,0.04484579,0.013323814,0.021876879,0.0008882955,0.021615716,-0.008817624,-0.013905663,0.006335883,0.00025698496,-0.06476389,0.009884335,-0.012592506,-0.025293015,0.009017424,0.014396869,-0.013638378,0.018036492,0.008843147,0.006103738,0.051235087,0.016920976,0.016739143,0.007236898,0.010635225,0.017793238,-0.0032745192,0.0009639282,1.823064e-05,-0.0032897517,0.0068503143,0.005205147,-0.010883554,0.03202175,0.015048249,0.002266063,0.0029816404,-0.015023682,0.0068457043,-0.013968981,0.022623101,-0.015608431,0.01933593,-0.026643258,-1.329164,0.028411685,-0.014664135,-0.044849575,-0.0014655851,0.064729914,0.02562305,-0.0022820584,-0.011277715,-0.0051699057,0.026106775,-0.010913574,8.088385e-05,-0.01397099,-0.0003476888,0.0039290437,0.002387004,-0.045629226,0.033590164,0.0042349854,-0.001040238,-0.005572669,-0.012260281,0.048358478,-0.006779126,-0.015284635,0.00824845,0.0006293617,-0.0020154077,-0.008488692,0.0021614805,-0.0021546185,-0.019334204,0.0012639901,-0.022936467,0.048890695,0.018059403,-0.05156008,0.025348298,0.010749373,-0.024976797,-0.013079046,-0.028185975,0.01710672,0.00015292782,0.0052518547,-0.016096257,-0.014560739,-0.0026842356,0.0056553483,-0.033069864,-0.0034336196,-0.024914771,0.028272847,-0.003434535,0.061323963,0.012302559,-0.015294592,-0.013797664,0.017568238,-0.025817258,0.012036929,-0.57782614,0.0067216903,-0.004695206,-0.0083364975,-0.013903232,-0.0054964097,0.007870412,-0.017310705,-0.016865993,-0.011012774,0.034687586,0.0025694855,0.016011165,-0.020786742,-0.0043731965,-0.008913763,0.0036118757,-0.017836094,0.010897189,-0.011144743,-2.4589043,0.00047985278,0.008468889,-0.0002715476,-0.032323264,0.008350287,-0.005494958,7.5800344e-05,0.0072980896,0.0006119283,0.0147066,0.007893151,0.0076451697,-0.048287414,0.004668962,-0.0024129897,0.007882518,0.011826307,-1.4810413,-0.0068120174,-0.017657423,-0.019419108,-0.0032128189,0.0032470692,0.0042385384,-0.008373089,0.009571772,0.007607471,-0.0052834367,-0.011688044,-0.005477378,-0.013869224,-0.014038183,0.000993643,-0.026580889,0.016136568,-0.012644136,0.0010893103,0.0034057023,0.023118626,0.020474445,-0.011152305,0.0034650778,0.030272465,0.013778882,-0.003501887,0.0268584,-0.008282822,0.006672251,0.017907327,-0.020723281,0.0026309406,-0.000104665756,-0.0016532168,-0.031219754,0.009297277,-0.017849509,0.027357064,0.45260108,-0.021163989,0.038199212,-0.016177254,0.0030786567,0.013910635,0.008962032,-0.008716535,-0.0007071877,-0.017168695,0.00048749708,0.016069911,-0.021355063,-1.1701926,-0.008850834,-0.004123415,-0.055339828,-0.017666196,-0.014272082,0.0054970384,0.0486213,0.0021339809,-0.0055983383,0.007633388,-0.018420584,0.025627501,-0.0076619387,-0.010335244,0.012012295,0.016430132,-0.031323504,-0.0012496784,0.009579705,0.016493618,0.006144788,-0.019455593,0.020492189,-0.011721242,0.0038426248,0.009061923,0.01672328,-0.009276637,0.025326218,0.016906328,-0.005822953,0.009170024,-0.0058790445,0.006341115,0.6555761,-0.003034221,0.0019631572,0.012258435,0.016885106,0.0032732636,0.015933475,0.011103103,0.01218187,-0.0477759,0.00842692,-0.00363268,-0.012616875,0.048807282,0.022878742,-0.01823127,-0.010371178,-0.032541692,0.018189318,-0.007008896,0.014524773,-0.011363305,0.032257512,0.02028839,-0.075206965,0.020514816,0.018429372,0.004977731,0.0003182087,-0.030077334,0.008915558,-0.008421151,0.006484475,-0.002199728,-0.007096716,-0.0064533404,0.009249674,-0.031169511,0.003476381,0.03492166,-0.023907116,-0.010119202,0.31667227,0.019823162,0.0070834067,0.0131625,0.00036270544,-0.017240243,0.01877317,-0.023185162,-0.008102561,-0.001067196,-0.0052903877,0.029541396,-0.013378971,0.004213864,0.0036778655,-0.004562403,0.018760845,0.021227423,-0.016236242,0.018815964,-0.01363726,0.023059582,0.0012730579,0.0085261045,0.01689243,0.003997242,-0.054743234,0.00041354075,-0.021650575,-0.004504497,0.2993294,0.014032852,0.0064483024,-0.04986675,-0.030510873,0.018341914,0.016874474,-0.045677315,-0.055001706,-0.0049563963,0.019698068,0.0041727833,0.0063432176,-0.00048381463,-0.008916308,-0.012045152,-0.0032458964,-0.010378692,0.004417533,-0.03460581,0.005155744,0.0025017196,-0.011444638,-0.01470609,-0.011858542,-0.0067712264,0.0036294626,0.012004141,0.0012948355,-0.0062295273,-0.0036172385,-0.07787941,0.0084497575,0.0027590846,-0.012871884,-0.0064617693,-0.03732626,0.0034304103,-0.03867598,0.04085037,-0.038169704,0.008437171,-0.005143818,-0.02225891,0.0017984249,0.024425775,-0.017132618,0.0011829035,0.032947507,-0.012900038,0.008409639,0.02579733,0.008557521,0.005649764,0.008525051,-0.008511182,0.024556559,0.0004848987,-0.01698669,-0.033307105,0.0007722005,0.0012969258,-0.003333712,0.004470986,-0.008572519,0.0024408787,-0.0173622,0.030844733,-0.014772213,-0.0076554706,-0.022323616,0.013889544,0.008823553,-0.0035629086,-0.0119607495,0.030546669,0.019740958,-0.034276366,-0.008507443,-1.3134782,-0.49362648,0.024852157,-0.0066225817,-1.0798779,-0.054896124,0.8087296,-0.018970815,-0.00868922,-0.02298088,0.0049271043,0.037342723,0.033001654,0.03248571,-0.025198806,-0.014323373,0.014456061,-0.015758395,-0.027771957,0.012745426,-0.023096481,-0.0025195498,-0.02758073,-0.012130886,-0.0038423594,0.01649616,0.3500385,-0.013811264,-0.0061179125,0.006787653,-0.0051710634,0.012747866,0.01725004,0.006725557,-0.009416491,0.0070253685,0.017855337,0.009121075,0.012587437,-0.006322043,0.043863647,0.009952961,0.0017227903,0.024992155,-0.0028131483,0.01215362,-0.0028290823,-0.008141663,0.02777645,0.0023372127,-0.012486145,0.0019081794,-0.0018976224,-0.06978464,-0.01755096,0.069068246,-0.008881707,0.008173998,-0.01378705,-0.031613108,0.032272816,0.0436408,-0.060350828,-0.014378881,-0.009166904,-0.011899322,-0.0075048134,0.011815587,9.7400974e-05,-0.036357727,0.032182224,0.0075142384,-0.017583385,-0.003973648,0.00492902,0.0015480514,0.02354051,0.0031982316,-0.011421442,0.014879666,0.015352456,-0.034050718,0.008372175,-0.014361836,0.005241208,-0.007203022,0.011869166,0.0032520257,0.00262907,-0.00096677523,-0.016352009,-0.00041751098,-0.015728012,0.00889359,0.019385664,0.0012997622,-0.009231826,-0.024507413,-0.0129306065,0.029317949,-0.018329453,0.030653648,-0.009443566,0.034590952,0.0060392204,0.014368419,0.005292561,-0.03336532,0.021741625,-0.0253627,-0.0075922296,0.016747713,-0.00015830062,0.016905295,0.012501806,-0.031258788,0.00032243645,0.014616424,0.020108104,-0.036221605,-0.003276506,-0.008800905,0.015530653,0.0020050332,-0.024575239,-0.01698677,-0.06596789,0.01028749,-0.008490685,-0.007108235,-0.014426857,-0.0117171705,-0.013640659,0.02087042,-0.024196157,-0.01272673,0.019010946,0.009983624,-0.00774384,0.0070208935,0.027712628,-0.016574495,-0.012792718,-0.013146199,0.0069814716,0.018940654,0.009180671,-0.6039484,0.0077392943,0.030032204,-0.0030605113,-0.0027363235,0.0021181204,-0.0022329297,-0.018950492,-0.0018101577,-0.002031345,-0.030768774,-0.0020250073,-0.007037599,0.018684693,-0.00853169,-0.025543474,-0.016734537,0.038852073,-0.0071654133,0.0056358725,0.02151012,0.012621337,-0.0015804572,0.01916615,-0.007741034,-0.027925596,-0.0012224084,0.028403226,-0.00919215,0.014174148,0.011775754,-1.1544225,0.010835033,0.035852067,-0.014059903,-0.01544317,0.008918731,0.00584222,-0.0028972365,-0.009041879,0.018803768,0.0014006719,-0.03560416,0.03602183,0.006214803,-0.010018628,0.019373998,-0.060692467,0.006565174,0.02843903,-0.01167378,0.0062029203,0.014942507,0.02190088,-0.0007661199,-0.011366807,0.0019960352,-0.005015986,0.0071147075,-0.013321217,-0.008342409,-0.05061312,-0.0019119238,-0.018686108,-0.006358253,0.025924843,-0.007219512,-0.0122085605,-0.009041288,-0.020331409,-0.016469063,-0.032767948,0.0023947302,-0.01601199,0.0020273607,0.015616861,-0.02175435,0.005451525,-0.015592525,0.014246261,-0.006930381,-0.0016478496,-0.080710106,0.042204093,0.051373422,-0.0033871713,-0.006300088,0.0011022482,-0.0040258095,-0.0032123774,0.002206238,-0.030794717,-0.0033210944,0.0040994347,-1.3850194,0.023130042,-0.056245785,-0.005809215,-0.05914075,-0.0017569709,-0.017697271,0.006328687,-0.002335431,0.026803235,0.0056972736,0.0028282776,0.005967648,0.0060258186,-0.0011176877,-0.021333735,-0.0014375807,0.0020627491,-0.039256595,0.009795979,-0.0055726417,-0.018320367,0.02863449,-0.006565647,0.010987548,-0.009185724,-0.015598267,-3.6415854,0.009626192,0.022723682,0.009605424,0.010081952,0.017433396,0.03261055,-0.03950895,0.12276721,-0.006511423,0.010148772,-0.0032795726,0.023229422,-0.00715963,0.022073116,8.367188e-05,-0.022491112,0.00916574,-0.010633655,0.058246866,-0.051365003,0.009655984,-0.0004704576,-0.034473233,-0.016483594,-0.0120207,0.0025202408,0.00048076175,-0.0006842837,-0.013460223,-0.0016812962,-0.009125793,-0.017159157,0.053569593,0.014589004,0.04138293,0.003100196,0.017380586,0.038285106,-0.038702987,-0.0056188502,0.013450269,-0.0052508004,0.009887585,0.004449468,0.014718544,-0.014174733,-0.019060515,-0.03947779,-0.008938106,-0.5360581,-0.011226062,-0.016663866,0.011996343,0.00302854,0.025210578,0.008163227,0.020929985,0.018105578,0.006429862,0.00036193058,0.0428257,0.017632702,-0.046361912,0.018504016,0.013522105,0.0048676636,-0.026238365,0.016285237,-0.016128752,0.012073576,0.027155116,0.0103707835,0.007195318,-0.017085634,-0.09287625,-0.02024707,0.014551783,0.013904238,0.014751131,0.017481687,0.011186603,-0.0101497285,0.013392739,-0.018128514,0.009550983,0.013528835,-0.015627086,0.009843428,0.013644028,0.0021453104,-0.0100580305,0.010335665,0.017283965,0.004715137,0.009168608,0.008313954,-0.042340845,-0.0035346039,-0.017220503,-0.0052613784,-0.0015448793,-0.010607149,-0.0022245408,-0.006989462,0.004963156,0.0049741426,-0.01746165,-0.02186061,0.009093069,0.027878232,-0.0054973504,0.036225244,-0.020199878,0.00951882,-1.0785775,-0.016557883,-1.1511683,-0.03139729,0.019488826,-0.00083241984,0.0066672517,0.016323091,0.0013871007,0.010466063,-0.0021807197,-0.004215612,0.0050423797,0.0105289,-0.019021057,0.030301873,-0.0025925618,0.011049908,-0.019921284,0.0033471747,0.0032050284,0.030968014,-0.002663128,-0.0004953556,-0.008046512,0.0022298433,-0.06252365,0.05390761,0.013638627,0.03110671,0.007537589,0.0026941448,-0.12255503,0.028972767,-0.0028280998,0.0006182026,-0.0021176306,0.049427807,-0.00045635365,-0.020147745,-0.007938571,-0.0034223811,0.005939819,-0.014355428,0.030169688,-0.025541041,-0.012158619,0.013425976,-0.022225996,0.02657844,-0.0017860774,-0.010706356,-0.025813453,0.007963322,-0.0062576886,0.005561162,-0.0030900375,-0.009170858,-0.012448607,-0.046645444,0.006365261,-0.024322746,-0.0039619613,-0.010717031,-0.010186652,0.015311047,-0.004529331,-0.008666505,-0.014804459,0.0018874612,0.0018063479,0.010633819,0.008842354,-0.005911966,-0.021930866,-0.00885142,0.018819591,-0.022862423,-0.01589106,-0.020456709,-0.0075563267,0.012085357,0.0046989853,-0.0063752374,-0.007643827,-0.007877525,0.014030416,0.05737427,-0.01775253,0.0019015286,0.02823874,0.0059268903,0.021472879,0.016228402,0.0020223372,0.013707117,-0.052999668,-0.0033412043,0.01508208,-0.0038628695,-0.0030164272,-0.015599965,0.0024931645,-0.0031168684,-0.01075487,0.005946701,0.021731839,0.0303817,-0.014597941,7.915357e-05,0.006265614,-0.0044784844,0.008297864,-0.021205928,-0.004074814,0.018534385,-0.024726707,-0.019231137,-0.009234683,0.0046751243,0.027104758,-0.0038675633,-0.005230829,-0.01303558,0.027306924,-0.023982566,-0.000764539,-0.018791556,0.045563385,-0.008446497,0.017304137,0.0032286425,0.002989838,0.0028209211,-0.025707804,0.037188217,-0.040253125,0.016014475,-0.024498686,-0.015905995,0.02561842,0.005577555,-0.01482944,0.005516883,0.011252362,-0.00702918,0.014625035,-0.018778231,-1.135774,0.014385151,-0.012639572,0.012271595,-0.004448138,-0.017492369,0.002460098,0.0028313585,0.015986342,-0.0013868418,0.13241127,-0.006348513,-0.91753495,0.050895207,0.0040688366,0.008416435,-0.030663528,-0.0061496506,-0.028857261,0.0046886243,-0.025578879,-0.0025774576,0.022214442,-0.013256365,-0.00731501,0.03409413,-0.036219295,0.1489236,0.012301873,-0.012614634,0.004929848,0.051447585,0.012706728,-0.012153879,-0.018373882,0.006114859,0.0066752764,-0.01227908,-0.00013826974,-0.0061683245,0.011133168,0.034712493,0.06428084,-0.014844709,-0.041194603,-0.015024487,-0.021694377,-0.0063727833,0.0032761958,-0.010924896,-0.0021470496,0.0014297739,0.029566497,0.013543481,-0.014510412,-0.0032160757,-0.018136017,-0.0034292033,0.0007207473,0.0010554553,0.0039666826,0.021982623,0.0014520865,0.015172565,-0.006265076,0.0050386824,0.009785439,0.014158487,0.014221089,-0.004254937,-0.07148008,-0.029648375,-0.046967566,-0.008259552,-0.014961861,-0.012803758,-0.0010398233,-0.0061163167,-0.0066037066,-0.013598782,-0.011381399,-0.020082697,-0.011807743,-0.12990797,0.011802865,0.016445622,-0.0034762076,0.014787927,-0.0013928348,0.0069185365,-0.0031979159,0.01938261,0.009962251,0.007945994,0.012426372,-0.0070447996,-0.005830724,-0.020440424,-0.020605894,-0.0050487895,0.01913784,-0.04043076,0.006122478,0.0069367606,-0.0016846722,-0.005523571,-0.03949651,-0.002155486,-0.03344015,-0.059843548,0.010434501,-0.0009720372,-0.0013910234,-0.009587577,0.009361107,0.006643694,-0.00026446767,0.07017928,0.0270623,0.02278588,0.0027298427
Q2YPV0,-0.008646285,-0.009472628,0.001138018,0.005639348,0.012614137,-0.0037949528,0.0041054823,-0.0025146198,0.013366334,-0.016430743,0.009929905,-0.00994873,0.008925928,0.002985769,0.00072904164,-1.1694813,-0.009473541,-0.0036883256,0.01638588,0.0024828273,-0.021582184,0.010396128,0.012974499,-0.012841895,-0.0023611784,-0.0069322707,0.014879754,-0.031945802,0.010766519,-0.0039788103,-0.009179223,-0.003106826,0.009505048,-0.00081275264,0.026850648,-0.0023212656,0.008154443,-0.005895474,0.020750606,-0.01158013,0.019100375,-0.08752424,0.014187581,0.0039119544,-0.00091865286,-0.0002654465,0.0028887899,-0.00068700546,-0.001889512,0.0068498114,0.015116243,0.0077220765,-0.014617405,-0.03374754,-0.016585147,0.0022190409,-0.0035549467,0.0051720142,0.023510955,-0.0042034276,-0.00831628,0.00073019136,-0.0053274333,0.0012776023,-0.008323749,0.0056739193,-0.027656715,0.006106223,0.0030454043,0.0040619015,0.034606956,-0.004019893,-0.0025832434,0.01554475,-0.002783384,0.02796629,0.0008400751,-0.00018669292,-0.0040646708,0.19376433,0.009638267,-0.0032264395,-1.4538834,0.0009460952,-0.013160624,0.0014040647,0.004811282,0.033088274,0.05548071,0.0035064905,0.0065386984,0.006288424,-0.0048470227,-0.0058479654,0.006139039,0.004953917,-0.0004686513,-0.009176944,-0.003410668,0.0007836474,-0.007694358,-0.0017954502,-0.007899653,0.021770753,-0.0018948619,0.019600434,-0.00042293034,0.00089963106,-0.021697452,0.012676351,0.0058353124,-0.0018872237,0.00014006719,0.00404252,0.002034041,0.008762825,-0.005373695,-0.0056655365,-0.0006004907,0.0030300412,-0.00067296624,-0.004941679,-0.002536993,0.0040473714,0.0065023424,-0.009294006,-0.005136844,0.0019638985,0.0041085477,-0.0027623102,-0.0073683923,-0.0078111645,0.0016535409,0.00029151514,-0.0029384433,0.0092819,-0.005875387,0.032639526,-0.00034975354,0.0056052487,-0.011339743,-0.0029568914,-0.023957903,0.0019972036,-0.053949393,-0.029141378,0.009710504,-0.005032357,0.002377241,0.010635693,-0.006450107,-7.85084e-05,-0.0012581041,-0.0324137,0.012154751,-0.00015810411,0.009759072,-0.009194644,0.013986245,-0.0015657917,-0.0013110158,0.033610217,-0.029561773,-0.0026937593,-0.0066008857,-0.0066542877,0.0030082949,0.0008384823,-0.057820175,-0.00040127337,-0.0015271958,-0.0019945242,0.0016851462,0.000435201,-0.019072324,0.0052758167,0.0013036686,0.0008626189,-0.02333885,-0.0023521483,0.002874501,-0.009659328,-0.0043587205,0.010638654,-0.0022685379,0.00083115697,0.011674892,0.0016419739,0.006537929,-0.054284777,-0.0019590585,-0.0015051775,0.00509179,-0.0019461885,0.010046423,-0.00436398,0.020592276,0.0021897405,0.008126536,0.009429749,0.010958762,0.0023481492,-0.013736985,-0.0039867857,-0.0060814256,-0.017275875,0.026634559,-0.0002452908,-0.0065833656,-0.00023150304,-0.0052871723,-0.017573891,0.007362591,-0.083512135,0.0011607725,-0.0070028193,0.0042463876,-0.003033515,0.0012801159,0.003991758,-0.0014403616,0.0076234415,0.009641921,0.009423586,0.003178887,0.0040180907,0.001046787,-0.0020988528,0.008420758,-0.010426965,-0.003325447,-0.0004493147,-0.012965012,0.009142898,0.020372363,0.01038729,0.0038532726,0.012063786,-0.00948232,0.007694751,-0.005261041,0.0017707609,-0.008172257,-0.004926397,-0.008511812,0.27878428,-0.0015628785,0.006431828,0.012468575,-0.004995109,-0.062703446,0.007885931,0.006926287,0.01073825,0.0024689687,0.006884165,0.0038447343,-0.0054988964,0.012261672,-0.01421221,0.036492832,0.00084608607,-0.004744776,-0.0042125415,0.019156123,-0.015251905,0.009290773,0.038794354,-0.0073647723,0.0031621614,-0.0064405054,0.0068063918,-0.005035007,0.0044645835,0.01069263,-0.0059559923,-0.0025840756,0.009270753,-0.0108797345,0.006701162,0.02915838,0.007346265,0.00564951,-0.018130612,0.006340743,0.0029933136,0.0015800986,0.008680123,0.005902782,0.008104607,0.001309691,-0.03369742,0.0037362091,0.03913983,0.0022126995,-0.037669748,0.002305381,0.008717928,0.0022275308,0.0022576977,-0.001530956,0.006680995,0.0057007596,0.0021895245,0.007886635,0.010966177,0.00732496,-0.0055993707,0.0078072078,0.0028809663,0.0016767662,0.009202991,0.0071709715,0.011592623,0.0015992844,-0.00879035,-0.015281587,-0.0057006557,-0.00014001783,0.04640945,-0.0047656316,-0.007324524,-0.0014658133,0.0011052974,0.01051305,-0.013942429,-0.0021628272,0.0034833625,0.0041881055,0.00055635814,0.011491113,-0.008377282,0.010569748,-0.026980683,0.005222286,0.0012805355,0.0067306906,-0.007307656,-0.009117411,0.005591411,0.0019061062,-0.0015237364,-0.0031601228,-1.6050413e-05,0.031861335,0.0075538233,0.001748791,-0.0010002535,0.0049803955,-0.0014727027,-0.0010232958,-0.47055966,0.006254046,0.004250586,-0.00052317977,-0.0148661025,0.00781447,-0.0054148734,0.0024563242,-0.0036895215,0.0006494792,0.0019984655,0.006150472,-0.00051858276,0.0136832,0.0031538075,-0.02224755,0.0076789167,0.007359173,-0.002505133,-0.00042335317,-0.5465612,-0.024141636,-0.002965821,0.037195727,0.00042444794,-0.0026101265,-0.011319194,0.021735992,0.004563653,0.05793576,-0.0023400076,0.0043543987,-0.013950772,0.007165622,-0.0022161314,0.0021619117,0.0012252433,0.018178016,-1.3750482,-0.01995617,0.005201079,0.0046246788,0.01583957,0.033876657,-0.014137019,-0.0010265699,0.005810779,0.0003230665,-0.0049406607,0.02977235,-0.020301988,-0.011499934,0.008773208,0.025853824,0.014709937,-0.0076577608,-0.005017873,-0.029407168,-0.014243672,0.027347084,0.0019832714,-0.0030178698,0.004887066,-0.0057769855,0.0032418184,0.00034362264,-0.0039412333,-0.009742487,0.012119476,0.007663198,-0.0011641197,-0.0123844,-0.0075834803,0.037117183,0.009303657,-0.0003445549,0.0034573134,-0.0035484252,-0.20095637,-0.0007987274,0.008454036,0.01945427,0.006398567,-0.04223329,-0.009475581,-0.008255715,0.0036770776,0.008762884,-0.0036071716,-0.012708249,0.031474456,-1.7023706,0.021200225,0.025197878,-0.0038532363,0.05284962,0.011723145,0.00084786117,2.6319176e-06,-0.005219712,-0.005252866,-0.0060839923,0.01713811,0.0024101809,0.0009468519,0.04900048,-0.00573327,0.009083806,-0.009581458,0.0026724339,-0.016555358,-0.0051538325,-0.004475577,0.003997816,0.011589279,0.006829531,-7.3630363e-06,-0.0019509639,0.0016944059,-0.010841635,0.0037194286,0.047784515,-0.05208731,-0.011621209,0.012066431,0.004884311,2.9670095,0.0027327836,0.017875753,-0.005173955,0.0105319135,-0.007950284,0.007332802,-0.0019663516,0.0028085513,-0.0080141425,-0.007960186,0.02322114,0.0095268,0.016843542,0.007842142,0.0040550763,0.009474619,-0.00845578,-0.0076222867,-0.0009152759,-0.003801099,-0.017538207,0.000259968,0.009364935,0.003029013,0.0051311753,-0.0031648679,-0.017613726,-0.001807468,0.0040225517,-0.0019094106,0.0017419597,0.0009589689,0.0063361917,0.0037661814,-0.0038771303,-0.0054491526,0.004955528,-0.03030099,0.0026931227,0.008412429,-0.005569726,0.0012655389,0.003028213,0.0014342247,-0.003927186,0.0058056274,-0.007017296,-0.0010167845,0.0065377085,0.005577793,0.00033097994,-0.0021994533,-0.0040163333,-0.013927875,0.00082665123,-0.00050821714,-0.015597925,-6.215647e-06,0.017883088,-0.0067147636,-0.01405055,-0.0011617169,-0.003839206,-0.004591818,0.010475272,-0.03737028,0.008525227,0.008102963,-0.0018468127,-0.001195047,-0.008739832,-1.3543096,-0.0033519613,-0.010386899,0.0102716535,0.003063362,0.016955294,-0.0035707168,-0.008565071,-0.019499637,0.0039066207,-0.024391128,-0.008403774,-0.012284422,-0.004098339,-0.03011893,-0.0008215066,-0.008400135,-0.0043282234,0.004008539,-0.022574246,0.0005131541,0.0061888723,-0.0054375436,-0.006148609,-0.014074607,0.008023522,0.01243436,-0.033262007,0.00390568,0.0047399476,-0.018173385,0.00041049533,0.004380024,0.010400021,-0.00012796,-0.0017526029,0.013208725,0.029475063,0.008625472,0.0064421003,0.04766365,0.00094706565,0.0056126807,-0.97764343,0.0034880266,0.0017657895,0.008111428,-0.007016437,-0.01859605,0.0014893436,-1.0807567,0.0059897644,0.006437178,-0.00881465,-0.0034056576,-0.0050843824,0.0006794627,0.020920806,0.015700828,0.007407548,0.07127185,0.009584251,-0.0035534948,-0.0018340354,-0.009806799,-0.0073282477,0.0016541332,-0.0013156226,-0.0032687467,0.0020484002,0.015383119,0.012893638,-0.01021339,-0.009413277,0.009238971,0.0013560224,0.0038187252,-0.03492558,-0.00025180168,-1.4191787,0.013275869,0.001801868,0.0020230566,-0.008647548,0.0008202363,-0.021431372,-0.010592049,-0.042316988,-1.4129167,-0.0010649674,-0.026592623,0.0057304576,-0.008523119,0.004962895,-0.00034034438,-0.010465272,-0.013382245,-0.001634486,0.0036775265,-0.01047564,-0.0047192564,0.00633828,-0.0032888707,-0.010881017,-0.047094833,-0.046533417,0.004895574,-0.009356702,0.003733091,0.0015548542,-0.01168279,-0.0038396437,0.0013746517,-0.003064923,0.012131982,0.0029706256,0.008983937,-0.010239508,-0.0022531198,0.0303393,0.030896373,0.023019992,-0.0027252194,0.009520445,0.0024501337,-0.0027357861,-0.006123185,0.0027326755,-0.006555382,-0.0032331808,0.01362111,-0.0076316856,-0.021886952,0.0015019216,0.010173092,-0.005918946,-0.0006098151,-0.008986936,-0.009866893,-0.015244038,-0.281591,-0.014662999,0.011149783,3.4712255e-05,-0.025741078,0.0012022574,0.009913026,-0.009540887,-0.017482325,0.008842862,-0.0002190622,-0.008421123,-0.0058070784,0.014553245,-0.019069385,-0.008785153,-0.006250941,-0.007813126,-0.004325499,0.0025256947,0.0073267817,-0.0022467226,0.0033526793,-0.0016459972,0.008085274,0.0052095614,0.0035110824,-0.0132371895,-0.007913456,0.0030087926,-0.004159225,-0.0025140168,0.016066328,-0.0034078993,-0.0005897712,0.0025290009,-0.0040112776,0.011292346,0.00618634,0.0036957394,0.018163519,-0.001995449,0.0011002817,0.0021352302,-0.0024256036,-0.010393224,-0.00010449439,-0.0111415405,0.0036225244,0.0025645867,-0.004409319,-0.0006877091,-0.0077000046,-0.008046228,-0.009291897,-0.005709742,-0.011216529,-0.0040043946,-0.0033409148,-0.003607586,0.010976639,-0.011583051,0.005423341,-0.005837046,0.005713541,0.00079444796,-0.0008773124,-0.028438788,0.010492142,-0.0042016655,-0.012413392,0.003593889,-0.018504547,-0.005851161,0.0038589751,0.0033423984,-0.0076147644,0.0066622496,0.0056456905,-0.0029377658,-0.0048138537,0.026777642,0.00470399,0.0023363451,0.0064034634,0.008527137,-0.7943938,0.004425539,-0.00021253666,-0.005992651,0.005153577,0.05509962,0.035841182,0.0008441247,0.0023719214,-0.022571519,0.010996219,0.017022029,-0.0010068845,0.012046602,-0.0045781825,0.025492057,-0.0027199308,-0.0049570054,-0.0032760976,0.006586627,-0.036824502,0.0017150352,0.0012371652,0.008927871,0.0071455166,-0.010076784,0.006294854,0.00943764,0.007841175,-0.012302483,0.028930835,0.008898574,0.008792995,0.01765195,0.0031937785,-0.018576972,-0.0018762127,0.0100112865,0.0116028935,-0.018638643,-0.0029836372,-0.008598939,-0.020984165,0.0039152345,-0.0047835624,-0.009678986,-0.0051135,0.010385556,0.050972663,0.0047654486,-0.006406812,-0.007674453,-0.016039927,-0.026661284,0.010100834,0.045012955,-0.06668156,-0.014995905,0.008148385,0.011985425,-0.009241982,0.021688342,-0.008022253,0.007463984,-0.010525782,-0.018322356,0.017012551,0.01960127,0.0023179874,-0.0034738602,0.017060146,0.003929061,-0.002281216,0.0019621812,0.0013302527,0.0073771663,-0.025836168,-0.0054884814,0.0040538125,-0.0058228103,-0.006020972,0.0058333,-0.0065886006,-0.04175821,0.0074927695,0.026652573,0.00012043491,-0.002935832,0.0048892535,-0.006891692,-0.010416707,-0.0019691465,-0.01181118,-0.001444878,-0.04942275,-0.0073982496,0.009332399,-0.0013358295,-5.583465e-05,0.0030564647,-0.007113918,0.000932463,0.01766379,0.0057121324,-0.0130744055,0.004812893,-0.0017749039,0.00057902606,0.010924301,-0.020742537,-1.245398,0.010300917,0.0102816485,0.007141117,0.0007361653,0.004448939,0.008299419,0.0025461602,0.002570711,0.006552808,0.013691176,-0.99567187,-0.0011803964,0.0150110535,-0.0063411426,0.011786088,0.0059616715,-0.0034491494,0.005367214,-0.010465492,0.00029877154,-0.006112325,-0.00151309,0.009926043,0.00025550555,0.045696314,-0.011310789,-0.0027805418,-0.0022522546,0.019519322,0.0039197765,-0.008195914,-0.013045415,0.009722835,-0.0018058978,-0.0023034355,-0.002052484,-0.0128991315,-0.0009288313,-0.01009884,-0.0034552095,0.009013843,0.005309917,-0.0070658457,0.00047926232,0.015059009,0.011614166,0.008185446,-0.0065412614,0.008569522,-0.008614502,0.003201752,-0.012837116,0.0064831115,1.5481004,-0.0009401608,0.001232978,0.016693126,-0.006124042,-0.019616628,0.014019512,0.0059576062,-0.0039333217,0.033063754,-0.0031228038,-0.0015410185,0.0031418274,-0.004702858,0.02409383,-0.00033676252,-0.0021797009,-0.004104466,0.011938848,-0.015833631,0.019919045,-0.0057539428,0.006405929,0.09888981,0.0159911,0.024661371,0.011058115,-0.016163692,-0.00837069,0.013416711,-0.0063563418,0.011763333,0.03132782,0.009724942,-0.007864795,0.0049327603,-0.007823511,-0.003552977,0.0062977606,0.01737488,-0.00030007586,-0.005640288,0.0040149987,0.0038143871,0.007543804,0.0039604064,0.002682818,0.010694071,-0.002410194,-0.017008051,-0.01889685,-0.01601293,0.00045047887,-0.002922241,0.0084954295,-0.019790115,0.007602958,-0.0026608557,-0.0062684678,-0.0014486881,0.009445589,0.0039244797,-0.0024050847,-0.0016140714,-0.011477012,0.0043062493,-0.008560419,0.0018584132,-0.00514031,-0.0029656682,0.030921942,-0.0068002427,-1.4057808,-0.04364606,-0.030713124,-0.011709549,0.00077841524,-0.0009903326,0.0024964549,-0.00863206,0.004283279,-0.0012669028,0.0040023886,-0.007631327,0.0009155404,-0.0111746285,0.011289425,0.00031347014,0.005658075,0.018083228,-0.0013072221,0.00047436357,0.0112900995,-0.0037493352,-0.004777625,-0.018401489,0.017949186,0.0072744708,0.0020046197,-0.013542246,0.006542231,0.0010453202,0.0028811041,0.008613598,0.0034461878,-0.0018925611,0.006718563,0.0013671555,-0.014919718,-0.0010324856,0.010326631,0.011930746,0.021408055,-0.005615392,-0.00070795836,0.004585623,0.07675903,-0.0023890724,0.010494314,0.0058278684,0.0021089124,-0.007603015,-0.0059293173,0.0032210068,-0.00707718,0.007163641,0.001889782,-0.0062908903,0.005367985,0.0048205927,0.010538348,0.00498298,-0.0041350387,0.0039920504,-0.00858622,0.009154407,0.01768343,0.004161654,0.0016586119,0.008678911,0.021207882,-0.020859025,-0.0005775583,0.01110451,-0.0083924495,-0.0062838676,0.0009777602,0.00033479463,-0.0023613726,-0.0040390994,0.021796763,-0.0023673382,-0.005333096,0.0010459982,0.0088595105,-0.014533499,-0.00010099274,-0.005581556,-0.0016314425,-0.008815836,-0.0033516712,-0.009174192,-0.004424773,0.01211013,-0.0072857225,-0.0040200185,0.0039863177,-0.022605315,0.008002806,0.0033365642,0.00828713,0.00074970163,-0.00031372486,-1.1715316,0.005990388,-0.002503097,-0.008035239,-0.013327975,0.016478833,-0.007219678,-0.013066422,0.010030709,-0.006707519,0.005524544,-0.0038114302,-0.0061085857,0.004174471,-0.013498113,0.008612655,-0.0036704093,-0.005670897,-0.017299587,0.0018607182,-0.011239825,0.022897068,-0.006404088,0.009213153,-0.00042592175,-0.0013947114,0.0031845942,-0.021192806,-0.0029532742,-0.0003603371,-0.0011543417,0.0009069964,-0.00960219,0.00108157,-0.011327396,-0.003920261,-0.015525512,0.003508812,-5.546119e-05,-0.0012067668,0.0009754114,0.0037935972,0.013917895,0.010676997,0.00012299838,0.00016148295,-0.0026720809,-0.0760458,-0.0090108635,0.02985423,-0.007637797,-0.02290076,0.0096091945,-0.007765072,0.004931569,-0.0053904876,-0.0056170058,0.0014759125,-0.0008949172,0.0050103315,0.00813018,0.0133553445,-0.065024674,0.00066053495,0.0066873347,-0.006602846,-0.014344657,0.021121658,0.0059470115,-0.028660929,0.0059295297,0.010600308,0.0056130164,-0.0060845166,0.018503357,-0.0021671103,-0.0030285362,-0.013549831,0.03327944,-0.003524749,0.0008626357,0.004668018,-1.1320226e-05,0.020710625,-0.0033824146,-0.010469997,-0.003847887,0.0003691679,-0.06172884,-0.015550137,0.016798308,-0.016794002,0.014983714,0.00044943555,0.008342838,0.008788077,-0.0038136672,0.006807871,-0.011786911,-0.0018796818,-0.0020664968,0.0022424078,-0.05684573,0.0020593759,-0.003714683,-0.0013771523,0.000543681,0.0059622303,-0.0013337992,-0.00206347,-0.0118721295,-0.0022576423,-0.047441807,-0.0070899944,0.024829894,0.008339765,0.0028156047,0.00031437725,0.0027016029,-0.0062424727,-0.0044281706,-0.002977807,1.8374994e-06,0.00051444955,-0.0033365185,-0.006639065,0.0078214,-0.0013034688,-0.0058041057,-0.0071400357,-0.009046951,0.0010515666,-0.0010861475,0.0024838857,0.021612331,-0.002205141,0.039047286,0.012287589,-0.0028929003,-0.0065758824,-0.0032444503,-0.017362768,0.010243449,-0.0030202046,0.005476443,-0.023398375,0.004640365,0.010501235,-0.023840029,0.018540569,0.0064766034,-0.0025784378,0.017369166,-0.010188825,-0.007073283,-0.0027077384,0.0077993795,-0.0072676055,-0.0061508114,0.005279906,0.00943405,-0.0050875577,-0.024186734,0.012514328,0.07247016,-0.0072340947,-0.0009484533,0.0029106233,0.016428437,-0.0058259256,-0.004368361,-0.03285726,0.008554826,0.0046058567,0.008700609,0.0037322994,-0.0023223162,0.024890004,-0.0102752,0.0011970066,-0.00039934367,0.0026729554,0.0057015773,-0.062246416,-0.008183628,0.00044937897,0.009263497,-0.0011566423,0.045553684,0.025629722,-0.02621419,-0.0069274846,-0.0091186585,-0.010974182,0.0029431414,-0.0030273423,-0.0014928114,0.012951504,0.015046388,0.0027559637,0.000296643,0.0016448181,0.0075186742,0.0024371678,-0.0034407051,-0.012826172,-0.009962192,-0.013423067,0.029400969,0.008321397,0.012121797,0.04406274,-0.0039998526,-0.008177442,0.0050752684,-0.033395752,-0.0050536906,-0.004773472,-0.009199558,-0.0038210386,0.010337509,-0.011021135,0.014065086,0.0078000985,0.0067283786,0.013160716,0.0051322654,-0.008198333,0.0110601,0.0061853565,0.013162032,0.031159483,-0.014463362,-0.01945075,-0.02489199,0.0038989875,-0.06093733,-0.016196724,0.005129423,0.0134004485,0.0046621636,0.0039364733,-0.0023258347,-2.0719166,-0.019549195,-0.01265803,0.02685399,-0.00839559,0.012809034,-0.0019536177,0.005495498,0.0048650866,0.019131284,0.0020272639,-0.0038012788,-0.015296711,-0.05520393,-0.003187913,-0.0118488,0.00014849065,0.008755907,-0.0014190413,0.0022984343,-0.063134566,-0.003478581,-0.011757245,-0.021229738,-0.009278303,-0.020733105,-0.013765739,0.042758517,-0.005443312,0.014197804,-0.0018757991,0.0077955704,-0.0076256404,-0.0034811608,0.0029471368,0.0048680287,0.016659867,-0.0006739218,0.011436874,0.0037610875,0.003917299,0.007667783,-0.0026962254,-0.055041302,-0.006609421,0.0034098318,-0.016677227,0.0037025213,0.02141611,-0.0069186483,0.019773953,-0.013477311,-0.012375316,-0.003975164,0.016048225,0.0115531,0.00093104364,0.03667287,-0.0024634423,-0.0016495101,-0.06263775,0.014625784,0.0009429669,-0.0006192904,-0.00509702,0.013353106,0.0023570308,0.026937842,-0.016998466,0.03321241,-0.01099121,0.01137967,-0.012005396,0.002911888,0.012622249,0.0026631514,-0.030725298,0.02019872,0.0027731298,0.00790539,-0.00029377732,0.0011139417,-0.0026388536,0.012358565,0.04002419,-0.0068104323,-0.028650446,0.016961522,-0.0016695256,0.063166164,0.010973031,-0.0075546,-0.0076796655,-0.005343836,0.0067375265,0.001868926,0.0015626648,0.0013695136,0.007866096,0.020390416,-0.019111382,-0.0030048974,-0.013071805,0.0032705087,-0.00541899,0.003381296,0.0020850447,-0.037653655,0.003929789,-0.0068277502,-0.039427605,-0.006102813,-0.0042748647,0.047961615,-0.00056017283,-0.0033758786,-0.0031752987,-0.0063862717,-0.03318333,0.003314965,0.020945033,0.00057342835,-0.031730395,-0.001562614,-0.008332644,0.027398046,-0.021767821,-0.01788378,0.027367689,-0.005028447,-0.0113305375,-0.0036709905,0.00083482824,-0.028895387,0.024659513,0.00066392403,-0.046074163,-0.01308046,0.00028221775,0.007818243,-0.0060905647,0.002983991,-0.007352423,-0.0005975324,0.031059247,-0.013923839,-0.0015928,0.007730484,0.01000081,0.011868019,-0.017447423,-0.0077100303,0.0031345943,-0.00043433905,-0.028370617,0.029536001,-0.0020441106,0.0013006665,0.001865665,0.02467612,0.012985976,0.032236364,-0.008533732,-0.009308221,-0.007229208,-0.0069217402,0.028547196,-0.014999099,-0.03376081,0.002165001,-0.38560486,0.032570392,-0.011693476,0.0100104455,0.0012293048,-0.016920099,0.001705674,-0.035489466,-0.006191668,0.0024358528,0.072301865,0.021224715,0.00064774835,0.0012670672,-0.011288943,0.036520157,0.0033109114,0.0040288195,0.004283442,0.015120942,-0.006095078,-0.0008234456,0.007070111,-0.00887508,0.0015790127,2.928637e-05,0.0051852763,-0.0043875803,-0.012704329,-0.0011593066,-0.027066885,0.007024332,-0.0049148574,-0.011278628,-0.002700869,0.003260008,0.0077219084,-0.006666987,-0.0012795106,0.011582116,-0.039343245,-0.0056279944,-0.01673337,-0.006636694,-1.3029627,-0.026823182,-0.012065161,0.004907106,0.02766636,0.002741672,0.0054692924,0.0054223556,0.006045401,-0.007533933,-0.025592329,0.00022515282,-0.005889825,0.0109550515,0.0072526652,-0.008270666,0.021818079,0.09801896,0.011835964,-0.0033839415,-0.010063708,0.004537073,0.0057964344,0.039973974,0.01826733,0.011189297,-0.00791697,0.032378368,0.007136359,0.0017324835,-0.04448008,-0.009060264,-0.009455319,0.0017993553,-0.019655492,0.04307787,0.017089745,-0.06620737,0.011776149,-0.002289554,0.03094029,-0.007371365,-0.007245876,0.018567836,0.007186616,-0.0015321684,-0.013580828,0.002561998,-0.010151675,0.002061937,-0.0044723563,-0.047342747,-0.015989982,-0.027417522,-0.019595552,0.0722654,0.016122125,-0.013232535,0.010510976,0.005493544,0.017356262,0.0037777321,-0.6625197,-0.003520919,0.007794874,0.002212274,-0.0032537924,-0.013539143,0.009122808,0.005506022,-0.0007751207,0.0040616672,-0.0044585695,-0.004252,-0.008294445,-0.0041050315,0.01267536,-0.01943217,-0.010324882,0.12792125,0.0040087905,-0.0062143896,-1.6498702,0.0016171448,-0.0025766413,0.004408636,0.008411376,0.004216695,0.011571366,-0.018483188,0.0113485,-0.013395831,-0.004237757,-0.0019643186,0.010913765,-0.007109927,-0.013028941,0.0076633524,0.0014975835,-0.007302653,-1.3341056,-0.04683441,-0.019436838,-0.036484927,-0.003892118,-0.013174204,0.006417796,-0.0027953507,-0.0012902142,0.00023756735,0.007873856,-0.00019843783,-0.0013891347,0.0070704613,-0.004859103,0.004526539,-0.012498608,-0.0025317427,-0.0070342417,0.00328532,-0.0041218703,0.0092871,-0.020273646,0.005455264,0.00089164637,0.009196113,-0.029029964,-0.03369948,-0.006603859,0.004453938,-0.0037649185,-0.038162656,0.0053882822,-0.005207997,0.014117267,0.012430586,-0.0094831735,-0.0021088575,-0.010549754,0.008395687,0.7014383,-0.0045096143,0.007809745,-0.012694243,0.0041439384,0.0011751158,0.008543733,-0.0053585535,0.011731025,-0.00019985251,0.0037107393,0.017499413,0.01833313,-1.4106882,-0.0033093467,-0.015908003,-0.016804086,-0.01180234,0.012877829,0.002692555,0.06565705,-0.0082455315,-0.0054282006,-0.0031343885,0.011731594,0.00967177,0.0045511685,0.005461476,-0.0022397488,-0.0031181984,-0.025823254,0.0048999228,-0.030132974,0.010712929,0.00031619705,-0.012937032,0.0150758475,-0.012643451,-0.01315885,-0.0050359312,-0.0061947657,0.0011803238,0.020057641,0.0095408335,0.006964665,-0.0046252473,0.014607415,0.0011075707,2.117503,0.019187897,0.0147378035,0.0073073506,-0.0029032715,-0.0009323042,-0.0031079762,-0.00086884946,0.004072871,-0.080941744,0.026159395,0.010625125,0.008755179,0.019500403,0.009543957,-0.012388768,-0.0019514351,-0.016517835,0.018923905,-0.0013270779,0.002293747,-0.033727113,-0.001787819,0.0075231493,-0.03983316,-0.01792905,-0.0049479133,0.004100861,0.013155549,-0.00925393,0.020417638,0.002856649,-0.014376875,-0.0009071417,0.00077141775,0.0012489734,0.009651527,-0.063883126,0.023701277,-0.005709489,0.003661774,-0.01702073,-0.06261816,0.010556273,0.0038180333,-0.008194764,0.0036419323,0.0068013812,-0.019373909,-0.012572645,0.0034325793,0.0020025559,0.0032200334,0.024535239,-0.022565342,-0.01907776,0.0033539366,0.0019126721,-0.04783035,0.043873437,-0.055492148,-0.0073704384,0.03641422,-0.007859444,-0.004935339,-0.0011250549,0.004058983,-0.00038697664,0.02193952,0.00029385835,0.00017134892,-0.011248,0.052073535,0.022619005,-0.0012267744,0.027733382,0.019003466,0.011426918,0.003285354,-0.0020309286,-0.012619541,-0.010810676,-0.004373621,-0.020432323,-0.0012924992,-0.0036468655,-0.0011040724,-0.005042307,0.0056905253,0.0007463228,-0.00426599,-0.00647037,-0.005855877,-0.009237058,-0.012813594,-0.001203239,0.008822111,0.0073868493,0.013347331,-0.015699888,-0.007804838,0.0060245246,0.02596071,-0.037002634,-0.00017520878,-0.00091703143,0.0062006204,-0.008329432,-0.03346662,0.014665002,0.010471767,0.060456075,-0.038387787,-0.0704039,0.040089995,-0.0094399955,0.0017868681,0.0043385336,0.0037479475,-0.0044431826,-0.021240443,0.008805677,0.005356569,0.016877694,0.015620302,0.024215393,0.030449837,-0.055149958,-0.03344375,0.005887068,0.00877172,-0.008563975,-0.01946947,0.0013169432,0.030236684,-0.005142673,-0.0011069742,0.00026526116,0.06786838,-0.0013230843,-0.010972584,-0.0013131718,-0.013879677,0.013133019,0.0026287735,0.010317333,0.002491556,0.020901762,0.013623592,-0.017528016,0.0018526483,-1.1318603,-0.2900604,0.022504231,0.01407424,-1.0314084,-0.12984584,2.7628894,-0.00473959,-0.024901956,-0.032784544,-0.007612088,0.019301236,0.04601282,-0.06875959,-0.0053198487,-0.0026173294,-0.0014985302,-0.0026069763,-0.004191315,-0.011162821,-0.009819842,-0.019178353,-0.0054212306,-0.008904417,0.0013345573,0.019059006,-0.16808762,0.006013943,0.00500675,0.03286978,-0.0026093055,-0.005571884,0.0027727503,0.0022032335,0.000784046,-0.0040909387,0.004638576,-0.04167261,-0.00091881026,0.0052224696,-0.055075854,-0.026979793,0.0068765823,-0.0017622849,-0.008191324,0.013269868,0.009909457,-0.0029238216,-0.010431174,-0.035092823,0.0026079891,-0.022319317,-0.011483827,-0.06622795,0.0073751435,0.02362499,-0.009641132,-0.0065666214,0.0040642917,-0.0074111163,0.010699209,0.025828611,-0.06931352,-0.0071045323,0.010964889,0.0026866142,-0.005282307,-0.007840402,-0.0008302666,0.010413997,-0.0007402804,-0.017570062,-0.008899538,0.016242635,0.0003514774,-0.03733306,0.064616114,0.0051629096,-0.006884914,0.003328003,0.015382398,-0.03380145,0.0014873967,-0.0092637865,-0.003766831,-0.004890875,0.0049020606,0.009894213,-0.0056268293,0.012137695,-0.008123087,0.013364887,-0.010417342,-0.010726836,0.028510604,0.024410825,-0.0029878165,0.003128362,-0.0016726279,0.048274785,-0.03341648,-0.0064163646,-0.0067901537,-0.023300331,-0.0032609208,-0.004147586,0.0150144845,-0.0039579105,0.034136944,0.006508807,0.0071820896,0.030084983,-0.006020732,0.0074555576,0.060712613,0.02027835,-0.01440376,-0.010421529,0.024907079,0.045657575,0.009414259,0.0021944372,0.01772901,-0.0038532093,-0.03899011,-0.00029192073,-0.045905318,-0.007116149,0.0077705896,0.007276034,-0.013631265,-0.0006291203,-0.0003882395,0.0076640127,-0.035525862,0.010996282,0.008836614,0.009613244,-0.0005378118,-0.0156173725,0.0055002347,0.0048503987,-0.010269429,0.014722437,-0.011830149,0.0075613633,0.020480316,-1.8662324,0.034804247,0.006875504,-0.0113429045,0.00013951957,0.008687068,0.007012654,-0.00044086855,-0.031175505,-0.011229008,-0.034153905,-0.008816708,0.011072118,0.009468723,0.02114445,-0.0038769804,-0.0033024456,0.024715416,0.00022918358,-0.002843514,0.016024128,-0.0035438733,-0.0076642837,-0.0049223956,-0.0020462424,0.039221205,0.0002663955,0.012957238,0.00077486783,-0.00071689114,0.012359165,-1.1005843,0.011306699,0.023749525,0.011381809,0.00939806,-0.04250034,-0.005419664,0.025401756,-0.0020473986,0.021860436,-0.008065831,0.014929059,0.05312423,0.014227666,-0.007941883,0.0101179965,-0.044558942,-0.0002339799,0.048583195,-0.003002894,-0.02255084,0.0074122297,-0.03638852,0.016954562,0.027633887,0.009708734,0.017069373,0.00047558174,-0.008130562,0.0036536027,-0.23260774,-0.0045143957,0.015465487,0.0091445595,0.008914908,0.021868978,0.0050293407,0.002606919,-0.0013691429,-0.02834285,-0.0249831,-0.00076483935,-0.004789345,-0.014366047,0.004782798,0.0011054426,-0.025452862,0.006399706,-0.0017306954,0.006277277,0.00022574794,0.038209714,0.031865746,-0.050708026,-0.008106352,0.025937423,-0.008227045,-0.01379095,0.00082786987,0.013718383,-0.0027552992,0.0034471694,-0.010689206,-1.2680633,0.04431789,-0.053093046,0.0058062347,-0.017611925,-0.010329784,-0.008914825,0.003803447,-0.0014589219,0.010402888,0.0014682529,0.014673027,-0.0012052334,-0.0064273053,0.013009109,0.013903945,-0.019982468,0.013055876,-0.025056824,0.012287099,-0.0011040969,-0.053081747,0.007963386,-0.015142776,-0.0017428845,0.041243207,-0.012571298,-1.2593013,-0.00018134434,-0.006677715,0.0043382514,0.01005907,-0.0041889213,0.0071292785,-0.014021911,0.07990748,-0.0040487405,0.008343702,-0.014634071,0.016480805,0.004331885,0.0042610094,-0.0038392982,-0.01942733,0.013175875,0.011782084,-0.0017135809,0.010688122,-0.016072882,-0.008505471,0.032135427,-0.008491093,-0.0031469818,0.02371319,0.022475164,0.00554167,0.005529292,0.009512343,0.007668911,0.038868733,0.016244078,0.021968558,0.01354688,-0.01138573,0.001392819,0.0034658555,0.013811879,0.01250446,-0.0057589933,0.00076441467,-0.002413744,0.0021296898,-0.0023189231,0.010584168,-0.00053581595,-0.07169236,-0.013806038,-0.44370568,0.007527441,0.004964534,0.00047148205,0.014807573,-0.00023929588,-0.004393137,-0.0067530796,0.012285689,0.008568518,-0.0019039623,0.010132743,0.014319707,0.015718699,0.008029238,0.0041286014,-0.0020556496,-0.062388882,-0.025295686,-0.020762024,0.021089949,0.019272044,0.0003284365,0.015204336,0.020910028,-0.029131358,0.014284599,0.010175381,0.008459551,0.00062761456,-0.026603468,0.033972546,0.004410577,0.014586324,-0.0054282174,0.014227126,0.0035753036,0.047448695,0.030712962,-0.00413368,0.0015174346,-0.0050821747,0.0078043416,0.00836163,0.07751481,-0.0070845764,0.0006996533,-0.012270117,-0.004217072,0.008684259,0.0025047269,-0.0058261612,-0.0015400655,-0.02006835,0.0017120605,0.013638392,-0.0028474787,-0.0046865214,-0.0229933,-0.006921433,0.03242833,-0.00056022406,0.010202561,-0.0057328353,0.0022351537,-0.8066189,-0.0028398186,-0.74618316,-0.042589705,-0.0010904241,-0.0018587373,0.007396983,0.028925,0.0070342496,-0.005636379,-0.0042806296,-0.006806489,0.0003627492,0.0012038667,-0.031270716,-0.004254381,0.021666816,0.0006280765,-0.0058078384,-0.0027222624,-0.005882009,-0.0012145955,0.0058361404,0.011397688,0.005786661,0.006153971,-0.028030818,0.06371952,-0.004648743,0.0027680937,-0.037762925,0.0048568123,0.095478386,-0.009704763,0.0059464322,-0.010721381,-0.0026437212,-0.001063291,0.025596485,-0.023790782,-0.017480683,0.0031401897,0.0636789,0.007986633,0.04966797,-0.029633066,-0.009848349,0.0059247613,-0.0065627345,-0.0070529105,-0.0073889825,0.0035420996,-0.015594773,-0.019569743,0.008829303,0.014885272,0.024924574,-0.0032412955,0.016451137,-0.059411287,-0.0050312616,-0.020628937,0.043046564,0.0002761525,0.0004969463,0.027314477,-0.0052065607,0.00012186915,-0.002916257,0.0024017198,-0.0030493606,-0.0015542256,-0.0062051956,0.007272848,0.0035915114,0.0040850006,0.016204169,0.018827084,0.013629396,-0.0028184531,-0.017706422,-0.0023617037,-0.0007716706,-0.0019494211,-0.011757041,-0.011602009,-0.014312745,0.043021902,-0.013277938,-0.0047967667,0.018592777,0.0024460927,-0.010129651,0.04234185,0.013567887,-0.0029534576,-0.021756057,0.011432758,0.0076388083,0.004336462,0.0030291043,0.00023966748,0.009813122,0.009555217,0.0003468506,-0.0020560883,-0.017360665,-0.007580353,-0.006081837,0.012319433,-0.0055089593,0.005351916,0.003463746,0.009189911,-0.004327244,0.0055953367,-0.008903785,-0.005918028,-0.0019548913,0.0016774014,-0.0057979543,-0.007642813,0.0026880158,0.00052643707,-0.011910381,0.010317137,-0.012103636,-0.0060897265,0.022458687,-0.0010587126,0.007427238,-0.00071241334,0.00024069473,-0.0053108176,-0.004212932,0.026448056,-0.023793599,0.009699153,-0.001337355,-0.0069113146,-0.0023053368,0.048807405,-0.016332518,-0.0010816688,-0.030899547,-0.00094891014,0.001529891,-0.0027486188,-1.1473825,0.020033464,0.008347026,0.00071786717,0.029139273,-0.0036933972,-0.015954904,0.028293204,0.0016193204,-0.02169835,-0.15518217,-0.0025481954,-0.906295,0.00026723556,-0.029239878,0.0027297437,-0.04084684,0.00301407,0.0102831125,-0.0036251782,-0.006388181,-0.0038095098,0.015630413,-0.0016337931,-0.043177243,-0.01814159,-0.02517037,0.09811584,0.0041181976,-0.044761144,0.029171325,0.052664235,-0.0034590713,-0.0025632344,0.0012524426,0.006869453,0.0029777605,-0.022818817,-0.011390464,-0.010109259,0.00056888536,-0.0104650855,0.0029891487,-0.018525053,-0.030725868,0.002451947,-0.0128856,-0.0071678404,0.0011437014,0.0003337534,0.0015811194,-0.0045577884,0.03573881,-0.027885582,-0.011910284,0.035874575,-0.0045828465,-0.008379551,-0.003079419,-0.008423766,0.03335368,0.011705264,0.0070504094,0.0059269536,0.0074759703,-0.015090296,2.2672117e-05,0.021867026,0.013993047,0.0050279945,-0.03933388,-0.0014989311,-0.027689222,0.0027559027,-0.00044834614,0.0035241162,-0.015264254,-0.01549254,0.00016326644,0.009102408,0.02811556,-0.010123743,-0.0018494688,-0.027064346,0.0024608932,7.033534e-05,-0.0043469425,0.01329794,-0.0042804787,0.006796276,0.0020234997,0.0185585,-0.0046339766,0.0013519037,-0.0055951304,-0.0060025305,0.012962626,-0.040674813,-0.03260073,0.0041554607,0.0015015369,-0.07391025,-0.007809027,-0.043076843,0.00015175901,0.007282305,-0.00056605134,0.013124479,-0.0661014,-0.043347497,0.016964171,-0.0030767154,0.014607944,-0.010900423,-0.008791252,0.012224485,-0.015669266,0.054225136,0.003688898,0.016030699,0.011191746
